GeneSymbol,V0,V1,V2,V3,V4,V5,V6,V7,V8,V9,V10,V11,V12,V13,V14,V15,V16,V17,V18,V19,V20,V21,V22,V23,V24,V25,V26,V27,V28,V29,V30,V31,V32,V33,V34,V35,V36,V37,V38,V39,V40,V41,V42,V43,V44,V45,V46,V47,V48,V49,V50,V51,V52,V53,V54,V55,V56,V57,V58,V59,V60,V61,V62,V63,V64,V65,V66,V67,V68,V69,V70,V71,V72,V73,V74,V75,V76,V77,V78,V79,V80,V81,V82,V83,V84,V85,V86,V87,V88,V89,V90,V91,V92,V93,V94,V95,V96,V97,V98,V99,V100,V101,V102,V103,V104,V105,V106,V107,V108,V109,V110,V111,V112,V113,V114,V115,V116,V117,V118,V119,V120,V121,V122,V123,V124,V125,V126,V127,SpeciesPrefix,LGroup,GeneLabel
Int-Tn_3,0.011726,0.003397,-0.072967,0.174731,0.121646,-0.083008,-0.097782,0.086702,0.098737,-0.167797,0.167218,-0.101187,-0.145914,0.078916,0.169082,-0.135083,0.028039,-0.066914,-0.04599,0.063344,-0.080963,0.135003,-0.012821,-0.017563,-0.107945,-0.069125,-0.060459,-0.102647,0.221889,0.0277,0.019349,-0.187932,0.063456,-0.108617,0.076103,0.040483,-0.106171,-0.153174,0.201073,0.099021,-0.029396,-0.031087,-0.094076,0.031202,0.053836,-0.067814,-0.115035,-0.181218,0.233595,-0.063388,0.104405,0.063157,-0.02158,0.011792,-0.027941,-0.006344,0.143046,0.036208,-0.050414,0.063144,-0.077389,-0.068225,0.156828,0.228085,0.219132,0.048609,-0.094322,0.15504,-0.032977,-0.064622,-0.009425,-0.121344,0.124778,0.201227,-0.03815,-0.041837,-0.097667,0.017929,0.167433,0.051362,-0.020053,-0.159711,-0.232106,0.003194,-0.161334,-0.062274,-0.154712,-0.040309,-0.005998,-0.09803,0.100756,-0.062202,-0.02881,-0.05749,0.141862,-0.153874,-0.075096,0.05948,0.066286,-0.108322,-0.050186,0.065977,-0.009467,-0.070319,0.052319,-0.169833,-0.077845,0.102203,0.02571,0.026887,-0.06482,-0.044354,-0.017992,-0.075353,0.054556,-0.12474,0.044125,0.157359,0.000179,0.03289,-0.051771,0.073643,-0.239155,0.202905,0.022977,-0.173494,-0.160271,-0.054101,EN,0,0
fosB,-0.06154,-0.057468,-0.047509,0.018855,0.106462,0.020962,-0.058826,0.012321,-0.075206,-0.156768,0.086858,-0.072553,-0.084261,0.103471,0.038722,0.019047,-0.056178,-0.214313,0.032557,0.059542,-0.031314,0.115844,-0.142501,-0.236892,-0.135927,0.006245,-0.013685,-0.225565,0.065317,0.115279,0.085184,0.004981,0.16352,-0.034702,0.201054,-0.036982,0.041841,0.099498,0.093845,0.008719,-0.085074,-0.128091,-0.082378,-0.036644,0.049885,-0.145764,-0.123777,-0.081245,0.080478,-0.07125,0.043502,-0.006703,0.064717,0.046837,-0.030467,-0.000209,0.223314,0.173142,0.19169,0.169766,0.119278,-0.104673,-0.005236,0.115341,-0.092356,0.036368,-0.012114,0.083386,-0.142948,-0.039096,0.07158,-0.222851,0.055013,0.174869,0.076621,0.01083,-0.181168,-0.114028,0.046124,-0.077492,-0.067168,-0.134445,-0.048753,0.022351,-0.081359,0.045947,-0.074844,0.058015,0.041591,-0.139645,0.021422,-0.090604,-0.031463,0.014808,0.199886,-0.074689,0.039388,0.015416,-0.037383,0.053547,-0.057571,-0.074899,-0.173801,-0.052447,0.146917,-0.152192,-0.117036,0.147574,0.201261,-0.233049,0.126681,-0.115252,0.048815,-0.116603,0.13899,-0.150347,0.143144,0.091656,-0.048571,-0.225659,0.15591,0.158529,-0.111016,-0.047265,0.19887,-0.063211,-0.174481,0.068341,EN,1,1
dgoA,-0.090756,0.06354,0.139545,-0.15547,0.089541,-0.159832,0.043492,0.04988,0.120196,0.20347,-0.172966,-0.122594,-0.053442,-0.012547,0.040072,-0.010731,0.101508,-0.001184,0.01902,0.06257,-0.047379,-0.004577,0.08147,-0.098948,0.043313,0.176485,0.009736,0.020933,-0.073807,0.001081,-0.009642,0.096358,-0.078638,-0.049265,-0.083164,-0.075466,-0.184365,-0.065266,-0.005298,-0.021923,-0.113701,0.051924,-0.054636,0.137144,0.019016,0.138428,0.177814,0.008157,-0.070017,-0.041273,0.014874,0.030723,-0.057125,-0.022865,0.046998,-0.075417,0.030651,0.0143,-0.195835,0.048805,-0.167571,-0.123039,0.00042,0.023064,-0.062697,-0.096753,0.018503,-0.034057,0.137274,0.117162,0.084283,0.062991,-0.061231,0.039594,-0.057026,0.098582,0.154654,0.175049,-0.120814,0.073677,0.093268,-0.010961,-0.013962,-0.088998,-0.099777,-0.211487,-0.041665,-0.058383,0.124819,0.05986,0.024986,0.169212,0.141947,0.012057,0.109686,0.194408,0.119612,0.02347,0.006702,0.003527,-0.058453,-0.018514,0.124219,0.07831,0.044744,0.183105,-0.040424,0.075096,0.014605,-0.02693,0.008698,0.027564,0.127831,0.037985,-0.02615,-0.010625,-0.14252,-0.086597,0.048059,0.186022,0.025989,-0.116766,0.006414,-0.095928,-0.0311,-0.00081,0.045938,-0.064669,EN,0,0
group_2184,-0.172262,-0.110618,-0.028966,-0.065027,0.178621,0.131529,-0.194988,-0.018339,0.05516,-0.141694,0.041017,-0.084121,0.054583,0.162828,0.099144,-0.204656,-0.090881,-0.093439,-0.172561,-0.082553,0.193147,-0.074394,0.067103,0.043248,0.099256,-0.083897,0.051929,-0.122567,0.190714,-0.022856,0.026587,0.046546,0.176352,-0.083058,0.204298,0.071947,-0.007289,-0.11855,0.149372,0.124205,-0.10431,-0.202128,-0.09136,-0.059667,0.014777,-0.008761,-0.098229,0.04531,0.190454,-0.041067,0.080413,0.019665,0.072175,0.154419,-0.044082,-0.029492,0.033857,0.083939,0.086309,0.047601,0.17348,-0.171631,0.061642,0.05646,0.133663,0.201433,-0.102104,0.082551,0.014819,0.116969,0.019528,-0.005011,0.015127,0.105616,0.004636,-0.086478,-0.10618,-0.017802,0.028901,0.122247,-0.03661,-0.19924,0.093233,-0.000426,-0.10309,0.008889,-0.078735,-0.031033,0.083293,-0.099731,-0.029955,-0.091015,-0.171883,0.002687,0.055114,-0.151944,0.070345,0.183077,-0.081018,-0.069011,-0.089062,-0.077735,0.02652,-0.179613,0.080704,-0.13647,-0.084222,0.103505,-0.023805,-0.176508,-0.007182,0.00825,0.11775,0.017009,-0.007113,0.017528,0.094889,0.079476,0.002264,-0.181418,0.109028,0.033678,-0.118192,0.000187,0.069499,-0.115874,-0.158081,0.088397,EN,1,0
group_1300,-0.090612,0.086837,0.022433,-0.020549,0.124156,0.086959,-0.04003,0.013634,0.145435,0.168503,-0.131564,0.051354,0.017542,-0.002034,0.117809,0.012334,-0.031017,0.114905,-0.094338,0.028131,-0.078061,-0.083268,0.121369,0.034829,0.124134,-0.0053,0.023836,-0.149746,0.092047,0.015339,-0.113715,-0.080432,0.099497,-0.109122,0.022723,0.097435,0.006202,0.132357,-0.00391,-0.082081,0.160843,0.092935,0.146892,0.058755,0.011032,0.103266,-0.008595,-0.127907,0.173834,0.130091,0.038998,-0.06081,-0.029364,-0.029681,0.031638,-0.047612,-0.035761,0.003799,0.045308,0.066129,-0.079364,0.04554,0.140727,0.10998,0.019263,-0.034258,0.125762,-0.003357,-0.067624,0.014021,-0.044147,0.06869,0.12121,-0.042079,-0.12825,0.048894,0.131085,0.152866,0.10886,-0.006968,0.004502,0.131012,0.059346,-0.00753,-0.073052,0.05334,-0.150734,-0.148828,-0.026619,0.046175,0.05529,-0.143277,-0.060555,-0.030603,-0.137815,0.046219,0.021759,-0.02985,0.064384,0.051056,-0.159576,-0.064036,0.064961,0.084262,-0.159555,0.120557,0.005943,-0.049415,0.152154,0.161934,-0.049025,-0.097866,-0.174685,0.087845,-0.048867,-0.02662,-0.116238,0.146961,0.168652,0.068036,-0.025561,-0.147074,-0.001918,-0.016541,0.006626,-0.001476,-0.007282,-0.111344,EN,0,0
group_2185,-0.041008,-0.117366,0.045197,0.148636,0.089448,0.157551,0.024331,-0.038639,0.007228,-0.121899,0.031511,-0.076369,0.093641,0.137707,0.114986,-0.233679,-0.109936,-0.191028,-0.06649,-0.148822,-0.047335,0.010443,0.071675,-0.162538,0.065977,-0.123677,-0.096295,-0.032791,0.111735,0.015036,0.091225,-0.203068,0.048398,0.013789,0.093626,0.108483,0.125824,-0.066415,0.134909,0.186029,-0.076209,-0.029267,-0.064553,-0.09081,-0.091107,0.10348,0.065373,-0.098813,0.15078,-0.132977,0.036583,-0.069886,0.063236,-0.058953,-0.164415,-0.075723,-0.021963,0.014644,0.240073,-0.004764,0.051016,-0.139339,0.071877,0.040381,0.023705,0.091035,-0.096057,0.027633,-0.088731,0.063163,0.049309,0.070399,-0.07803,-0.011481,-0.058306,-0.149957,-0.186431,-0.019041,0.06789,0.020919,-0.086408,-0.072613,-0.080401,-0.19201,-0.023862,0.052833,-0.073087,-0.021509,0.081002,-0.122313,0.054045,-0.022094,-0.070647,-0.02646,0.154572,0.007726,0.150028,0.15,0.056886,-0.098078,-0.160342,-0.180229,-0.192306,-0.136647,0.193546,0.076121,-0.128241,0.070532,-0.093255,-0.043019,0.113758,-0.123633,-0.023872,-0.074547,-0.037918,-0.010391,0.069078,0.021653,0.17035,-0.106659,0.128921,0.043472,-0.077471,0.106198,0.067104,-0.103939,0.067654,0.064883,EN,1,0
group_1477,0.05307,-0.153553,-0.052277,0.033331,0.081306,-0.082696,-0.096101,0.07013,0.029675,0.037236,0.096444,-0.02571,0.086781,-0.02553,-0.047674,-0.01155,-0.032263,-0.02666,0.137228,-0.036738,-0.070861,0.014515,0.113029,0.004435,0.068246,-0.108905,0.055738,-0.073526,0.031124,-0.058236,-0.093462,-0.033521,0.038151,-0.013535,-0.148302,0.039803,-0.042376,0.024417,0.067422,0.044339,0.013006,0.056696,-0.157729,-0.056725,-0.034248,0.06507,0.11033,0.026918,-0.086037,0.104269,-0.165172,0.095327,-0.012359,0.099152,0.012523,0.072439,-0.131885,0.138143,-0.153924,-0.036307,-0.12129,-0.152631,0.005942,0.098447,0.114853,0.009472,0.083412,0.079841,-0.071461,0.03523,0.033686,0.004014,0.115124,-0.055663,0.167444,0.003683,0.034412,0.065405,0.097493,-0.022171,0.055506,-0.086024,0.030107,-0.103386,0.011399,0.074868,-0.007702,0.013184,0.123867,0.086826,-0.160881,-0.015653,0.053876,-0.131451,0.02664,-0.062879,0.105748,0.091613,-0.007639,0.113655,-0.157569,0.021678,-0.029447,0.123791,0.073083,-0.00699,-0.07198,0.021349,0.044413,-0.000407,0.021895,-0.048396,-0.088557,-0.043019,-0.071091,0.001621,0.083252,-0.09604,0.050694,0.019768,-0.060077,-0.127635,-0.087879,0.004791,-0.105891,0.019665,-0.154846,-0.031134,EN,0,0
group_2186,-0.155286,-0.11258,-0.124002,-0.023246,0.04709,0.082148,-0.074355,0.085529,5.9E-05,-0.093478,0.049124,-0.125609,-0.018321,0.131545,0.093969,-0.054271,-0.012493,-0.202004,-0.139225,-0.102865,0.033624,0.077785,-0.031101,-0.231415,0.017164,0.107934,-0.092554,-0.173671,-0.010016,0.111755,0.179618,-0.221075,0.040427,-0.086707,0.145563,-0.008912,0.143806,-0.116903,0.175704,0.079581,0.041945,0.091329,-0.053523,0.07358,0.146246,-0.028559,0.000633,-0.1129,0.052635,0.108408,0.029047,0.053455,-0.01592,0.121048,-0.074276,0.099087,0.042886,0.110822,-0.062306,0.185175,0.128991,0.025963,0.124799,-0.021938,0.1773,-0.050048,-0.05463,0.046937,-0.023013,0.134758,0.162855,-0.068506,-0.008693,0.174514,0.021512,-0.076802,-0.073661,0.032522,0.032291,0.109724,-0.137611,0.105321,0.028537,0.069727,-0.093706,0.081499,0.012762,-0.061157,-0.088762,-0.015012,0.132322,-0.142109,-0.132215,-0.122404,0.007486,-0.081369,0.22333,0.157719,-0.112238,-0.168696,0.014071,-0.14269,0.011497,0.01213,0.167656,0.044359,0.023993,0.13131,-0.077541,-0.156039,0.038064,0.030922,0.050631,0.006368,0.066916,0.085418,0.192146,-0.027094,0.022458,-0.086671,0.074124,0.056911,0.090324,0.108041,0.022036,-0.174403,-0.132061,0.037571,EN,1,0
group_1865,0.004443,-0.07263,0.072686,-0.112043,-0.009217,0.080194,0.076975,0.011309,-0.014275,0.152632,-0.058024,-0.084839,-0.041692,-0.055345,0.035705,0.074761,0.01234,-0.114189,-0.07029,-0.082874,0.038461,-0.044286,-0.129793,0.135223,0.03796,0.050194,-0.100534,0.094568,-0.024796,0.075148,-0.069041,0.117517,-0.099446,-0.027898,-0.048875,-0.034681,-0.131186,0.060298,-0.105802,0.047542,0.003237,-0.0479,-0.080909,-0.023223,0.102701,-0.122015,-0.012024,0.075584,-0.006716,0.010358,-0.017033,0.058876,0.103554,0.014344,-0.065554,0.083435,-0.010677,0.152926,-0.07883,0.156192,-0.02579,0.110569,0.026474,-0.053592,0.014339,-0.023302,-0.058484,0.116384,0.003641,0.12712,-0.066226,-0.02136,0.050834,-0.086105,0.057842,0.013997,0.088392,-0.164311,0.16192,0.035548,0.10899,-0.128843,0.031348,-0.122089,-0.157823,-0.030505,0.016196,0.106096,-0.090254,-0.032141,0.089767,0.126053,0.010295,-0.114606,0.03893,-0.034856,0.034708,0.052937,0.120997,0.006164,-0.08395,0.01327,-0.091109,0.082367,-0.025799,-0.056203,-0.02023,0.008123,0.136531,-0.091691,-0.028874,-0.084406,-0.021224,0.016968,-0.034922,0.052916,0.094811,0.030468,0.021118,0.036945,-0.022247,-0.03203,-0.02207,-0.114527,0.079626,-0.025231,0.064124,0.041712,EN,0,0
group_2567,-0.057262,-0.226501,-0.195663,-0.03483,0.123537,-0.024937,-0.187085,0.028452,-0.004761,-0.003355,0.087829,-0.036602,-0.175232,0.147568,0.147127,0.007909,-0.156023,-0.020527,0.011109,-0.157973,-0.043774,-0.019475,-0.114154,0.087369,-0.125506,-0.102596,-0.158598,-0.053647,0.124942,0.17839,0.138519,-0.11207,0.214392,-0.065515,0.116566,0.023084,0.187194,-0.021868,0.128281,0.06903,-0.21473,-0.161046,-0.145133,0.042679,0.071385,-0.092637,-0.077584,-0.140862,0.068313,-0.044976,0.0391,0.149206,0.071613,0.082109,-0.039284,0.052241,0.044783,0.093284,0.157635,0.086077,0.113466,-0.058838,0.079273,-0.026897,-0.022099,0.188929,0.068121,0.061343,0.000887,0.035165,0.10899,-0.112113,0.056279,0.032808,0.048828,-0.134655,0.016398,-0.140719,0.131715,0.141445,-0.128805,0.058487,-0.231357,-0.134507,-0.104924,-0.008367,-0.008921,-0.140929,-0.036671,0.027762,-0.093927,-0.111952,-0.179676,0.046441,0.082023,-0.156016,0.13127,-0.031271,-0.006845,-0.006339,0.021473,-0.076731,-0.061024,-0.024648,0.11199,-0.14259,0.087647,0.108487,0.132125,-0.082146,0.072245,-0.107158,-0.129004,0.01809,0.063577,-0.134801,-0.001581,-0.10729,0.08099,-0.053182,0.065867,0.113735,-0.069974,0.044665,0.0595,0.013022,-0.160704,0.06845,EN,1,0
group_2085,-0.078905,0.002694,0.041701,0.076169,-0.088191,-0.005282,-0.058648,0.077498,0.139049,0.008629,0.153383,-0.090857,-0.063183,-0.127138,-0.047997,-0.135061,-0.048904,0.093224,0.015253,0.026656,-0.084626,0.003262,-0.090853,-0.100079,-0.16019,-0.015371,0.125866,0.003129,0.014174,0.131037,0.085256,-0.049103,-0.019559,-0.094389,-0.147814,-0.018762,0.097235,0.139555,-0.149461,0.084413,0.028922,0.159115,0.107899,0.098063,0.062053,-0.091209,-0.056204,-0.103863,0.121702,0.070004,0.067419,0.074175,0.028547,0.038477,0.0393,-0.097136,0.089217,-0.083248,0.011738,0.101995,-0.128218,0.017865,0.003607,0.078429,-0.124822,0.042923,-0.052726,-0.0057,0.084675,0.028071,0.081716,0.013361,0.039296,-0.063424,0.034735,0.078027,-0.016759,-0.028716,0.094,0.085271,-0.050456,0.155925,-0.034058,-0.165464,0.067439,-0.054425,-0.088274,-0.100355,-0.106939,-0.019182,-0.023571,-0.07036,0.025541,-0.125395,-0.08891,0.083345,0.088388,-0.025109,-0.020253,0.088595,-0.011794,-0.074701,-0.044246,-0.068573,-0.000958,-0.116691,-0.061332,0.013549,-0.057634,-0.057224,-0.061692,-0.157084,0.12136,-0.039629,-0.127955,-0.072585,0.068289,0.001262,0.068665,-0.012183,0.052346,-0.070914,0.130669,-0.081084,-0.012659,-0.02419,-0.017102,0.10581,EN,0,0
group_2627,-0.244809,-0.168648,-0.229309,0.057636,0.188355,0.052296,-0.061666,0.04618,0.140958,-0.060009,0.00093,0.072212,0.1024,0.185083,-0.05544,0.07438,-0.074676,-0.215844,-0.082944,-0.033014,0.063569,0.104526,-0.062553,-0.202047,-0.03814,-0.106941,-0.061349,-0.055654,0.067319,0.113396,0.095476,-0.13397,0.156722,-0.12093,0.059602,0.059319,0.110605,-0.123746,0.000421,0.118482,-0.105922,-0.029615,0.081228,-0.049778,-0.038498,-0.07334,-0.053017,-0.061424,0.004949,0.098539,0.046519,0.031408,-0.042279,0.15247,-0.057815,0.020605,-0.071595,0.237893,0.087245,0.196662,0.05609,-0.068184,0.157349,0.18688,0.055814,0.177775,-0.059928,0.081135,0.028074,0.082381,-0.005758,-0.166078,0.103859,0.046194,0.11381,-0.001802,-0.113592,-0.025962,-0.012978,0.096254,0.042853,-0.061406,0.08039,-0.039176,0.031266,-0.037184,0.076679,-0.125392,-0.091854,0.061073,0.006569,-0.184112,-0.103825,-0.124416,0.086176,-0.185694,0.157877,-0.01888,-0.025504,-0.134666,-0.050652,0.061658,-0.187489,0.064361,0.108736,-0.205695,-0.091326,0.23439,0.076386,-0.092625,0.070319,-0.038789,0.053325,0.013562,0.003456,-0.078959,-0.001243,-0.067713,0.187006,-0.187646,0.07447,0.044694,-0.124771,-0.010453,0.241499,0.069037,-0.013869,0.203791,EN,1,0
group_2562,-0.039488,-0.163607,-0.005084,-0.137469,-0.008672,-0.08207,-0.039786,-0.024634,0.091248,-0.08044,-0.023471,-0.082432,-0.173622,0.154985,-0.010348,0.096114,0.075199,0.119673,-0.000556,0.112803,-0.064696,0.134272,-0.015841,-0.051055,-0.005915,-0.141418,0.169314,0.033943,-0.007532,0.103179,-0.154122,-0.055962,-0.041159,-0.105871,0.027805,0.033892,-0.050127,-0.049254,-0.004679,0.021497,0.032764,-0.042075,0.007562,0.003111,-0.008863,-0.082202,-0.012178,0.068402,0.055888,-0.08605,0.035866,-0.092496,0.050243,-0.005624,0.061828,0.020683,-0.042004,0.170583,0.060953,-0.075481,-0.023306,0.044372,0.142495,-0.026987,-0.029392,-0.133678,0.012391,0.094204,0.007575,0.017461,-0.062017,0.063849,-0.029818,-0.013418,-0.175249,0.169797,0.018137,0.010915,0.016213,-0.079395,0.019666,0.045332,0.046185,-0.009678,0.02609,0.041052,-0.076824,-0.030904,-0.028546,-0.031074,-0.003099,-0.141609,-0.145256,0.033696,0.017091,0.071322,0.022934,0.078733,0.126069,0.008445,-0.128673,0.153865,0.135945,-0.024454,0.063098,0.03866,0.064322,-0.063888,-0.165301,0.103139,-0.081309,-0.023541,-0.053297,0.021475,-0.032409,-0.078515,0.112696,0.130593,0.009826,0.075813,0.076023,0.097493,-0.065177,-0.005674,-0.035767,-0.12886,0.059038,0.149964,EN,0,0
group_3023,-0.20826,-0.153036,-0.053868,-0.005668,-0.007984,0.114698,-0.121473,0.051906,0.169962,-0.164557,0.06837,-0.096802,-0.183318,0.093928,0.143532,0.018515,-0.107865,-0.144939,0.006108,-0.206221,-0.068666,0.110964,0.013823,-0.021555,-0.130366,-0.160934,-0.081437,-0.203968,-0.04242,0.041774,-0.066265,-0.133832,-0.039184,-0.020035,0.070794,0.200305,0.09766,-0.035484,-0.036248,0.038586,-0.002961,-0.073736,-0.121252,-0.022717,0.00301,0.055314,0.009644,-0.018466,0.202008,0.008074,0.020343,-0.001127,0.150417,-0.081911,-0.071381,0.090025,0.104445,0.052647,-0.040939,-0.079923,0.051282,-0.065147,0.05719,0.045772,0.044875,0.04131,-0.028488,-0.024061,0.080628,-0.010951,0.157279,-0.147211,0.041167,0.198949,0.11152,-0.027273,-0.128237,-0.217882,-0.047602,0.125103,0.079549,-0.092577,-0.095118,0.003985,-0.148705,0.083982,-0.060002,-0.090382,-0.198007,-0.107611,-0.03473,0.119865,-0.100781,-0.106661,0.166997,0.039301,0.060511,0.098016,-0.115651,-0.127477,0.021761,-0.077257,0.021735,-0.108074,0.07831,-0.020978,-0.115011,0.123921,0.009436,-0.117732,-0.030007,-0.018781,-0.117876,-0.123259,0.102608,0.02568,0.056051,0.053029,0.042606,-0.040949,0.166592,0.038271,-0.069322,0.041412,0.125703,-0.139249,0.038371,-0.040202,EN,1,0
group_2566,0.014845,0.05796,0.15566,0.03102,0.02896,0.141017,-0.035337,0.088335,-0.037317,-0.015546,-0.024747,-0.071382,0.080696,0.020197,-0.073009,-0.102051,-0.116654,0.022224,-0.019748,0.059331,-0.028422,0.063181,-0.104675,0.001249,0.167104,-0.000153,0.172136,0.121753,-0.012679,0.001143,0.077726,-0.020239,-0.044103,0.044176,0.005571,-0.124378,0.018796,0.043741,-0.020442,-0.020346,-0.020875,-0.070589,0.01023,-0.082,0.03024,0.09587,0.033238,-0.017546,-0.01465,0.012363,-0.003501,-0.051668,0.068463,-0.046608,0.132737,-0.125814,0.078213,0.116233,-0.05478,0.086855,0.110402,0.048001,0.17256,-0.054303,0.003856,-0.041085,0.092358,-0.051094,0.024276,0.066862,0.006737,0.074472,0.043838,-0.036627,-0.065307,0.073026,-0.069321,-0.005529,0.119204,-0.042716,-0.00664,-0.070168,0.012707,-0.089542,-0.107792,-0.061326,-0.014958,0.009227,-0.056579,0.039064,0.044347,0.129284,-0.02207,0.058403,0.1481,-0.063565,-0.004644,0.026885,-0.025212,-0.071137,-0.021581,0.140689,-0.029365,0.000946,-0.046327,-0.170255,-0.000787,-0.06605,-0.109048,0.122197,0.112219,0.089148,-0.077714,0.139844,-0.121213,0.057581,-0.162373,-0.054178,-0.031445,-0.007691,-0.060356,-0.121725,0.080326,-0.026264,-0.050386,-0.018928,0.033683,-0.131107,EN,0,0
group_3024,-0.017544,-0.035978,0.032982,0.128634,0.04663,0.107699,-0.059891,-0.043551,0.044665,-0.071537,0.167058,-0.155909,0.020708,0.028209,-0.073499,-0.173059,0.062379,-0.061037,-0.038604,-0.199733,0.089203,0.11705,-0.11509,-0.121057,-0.134917,-0.204732,0.018745,-0.011386,0.083799,-0.068125,0.115563,-0.099784,0.001414,-0.042289,0.025463,-0.024159,0.007521,-0.126855,0.022063,0.146716,-0.123397,-0.184764,0.00252,0.018894,0.026725,-0.05769,-0.052437,-0.007113,0.14711,-0.077278,0.04728,0.16415,0.097956,-0.038746,-0.067474,0.075511,0.00523,0.144756,-0.070754,0.155267,-0.073583,-0.180821,0.100913,0.086892,0.165521,0.183292,-0.005383,0.078174,-0.036446,0.134545,0.037184,0.011156,0.166194,0.133011,-0.05686,-0.079228,-0.004807,-0.047544,-0.033794,0.126013,0.039899,0.108295,-0.150216,0.005935,-0.113216,0.035988,-0.15669,-0.032575,-0.004842,-0.104194,-0.002061,-0.057262,-0.086042,-0.113171,0.095964,0.052983,-0.017659,0.027473,-0.098505,-0.176348,-0.031822,-0.144989,-0.090878,0.069637,-0.028492,-0.068637,-0.077591,0.094274,-0.033475,0.008723,0.055168,-0.162438,0.027929,-0.076938,0.201458,-0.121907,-0.057872,0.106369,0.132485,-0.07682,0.01543,0.192785,0.04766,0.021664,0.14587,-0.051484,-0.06188,0.060234,EN,1,0
group_2574,0.04087,-0.088813,-0.014706,0.063607,0.060661,-0.041942,0.110822,0.122299,-0.038809,0.017901,0.04176,0.077364,-0.099962,-0.086367,0.026664,-0.041866,0.147959,0.04985,-0.009718,0.162318,-0.00287,-0.022263,-0.00921,-0.165263,0.021489,-0.087731,-0.061204,-0.114572,-0.067778,0.033196,0.054487,-0.177409,-0.050715,-0.082575,0.082616,0.082441,0.089358,-0.123605,-0.115531,0.139115,0.17541,-0.097023,-0.046374,-0.052594,-0.032143,0.035911,0.016752,-0.088581,-0.034205,-0.100424,-0.054839,0.100772,0.111677,-0.086282,-0.035478,0.074935,-0.048453,0.024689,-0.129268,0.002516,0.011196,0.051047,0.050122,-0.103497,0.009279,-0.086315,0.032147,0.077279,0.137816,-0.142331,0.105996,-0.167891,0.001427,-0.034755,0.010872,0.101615,0.089037,0.039192,-0.005202,-0.025573,-0.015584,0.026135,0.087696,-0.131946,-0.058924,-0.070049,0.059255,-0.131183,-0.103927,0.161663,0.10726,0.008099,0.095898,-0.180302,-0.116138,-0.091514,-0.049436,0.14266,-0.159006,-0.017881,0.042631,0.143609,0.071588,0.077577,-0.033526,-0.026047,-0.023939,0.100167,-0.030371,0.013279,0.069114,-0.027644,0.050386,-0.117007,0.029498,0.13641,-0.022765,0.057028,-0.0894,-0.052938,0.105201,0.0395,-0.063469,0.05035,-0.047947,0.028129,0.105661,0.06873,EN,0,0
group_3025,-0.080295,0.016996,0.089443,0.022932,-0.043555,0.058117,-0.0448,0.00184,0.114948,0.022697,0.132562,-0.109974,-0.006051,0.08266,0.182344,-0.145612,-0.000996,0.078592,-0.12762,-0.022817,0.080315,0.071063,-0.011406,-0.049181,-0.009824,-0.146388,-0.004499,-0.110985,0.028651,0.167435,0.016203,0.072451,0.139846,0.026138,-0.007644,0.092505,0.100263,-0.148946,0.145876,0.002743,-0.132703,-0.188678,0.033464,-0.085434,-0.076037,-0.150753,-0.18438,-0.083497,-0.088204,0.018734,0.109683,-0.039079,0.10067,0.083878,-0.143092,0.02631,0.03285,0.094621,0.123589,-0.078104,0.019887,-0.18972,0.194619,-0.042076,0.098775,-0.045102,-0.094027,-0.045296,-0.148654,0.143892,0.136203,-0.171175,0.148871,0.043233,-0.062465,-0.013766,-0.08232,0.031736,0.128053,0.185985,-0.088634,0.002073,-0.068013,-0.127291,0.08385,0.032412,-0.073763,0.065047,-0.06194,-0.157051,0.154299,-0.07577,-0.212928,-0.171086,-0.016955,-0.039315,0.146059,0.076442,-0.013194,-0.05709,-0.08933,0.048875,-0.012284,-0.118417,0.155807,-0.077655,0.014068,-0.0141,0.124193,-0.103841,0.186937,-0.098795,0.089856,0.02589,-0.047488,-0.037976,-0.003599,0.104108,0.131028,-0.10516,0.077797,0.211638,-0.168864,0.058522,0.136098,-0.212869,-0.053496,0.081333,EN,1,0
group_3209,-0.09536,0.062156,-0.055146,0.094207,0.164298,0.047358,-0.026961,0.066975,0.019238,0.095591,0.026612,0.005629,0.001289,-0.091413,-0.074609,-0.018493,0.149173,0.020565,-0.089581,-0.163639,0.016933,0.113473,-0.120468,0.016486,0.141911,0.034994,0.11048,0.076248,0.111345,-0.083281,-0.100821,-0.059771,-0.011638,-0.035661,-0.098051,-0.026223,-0.137896,0.047082,0.040685,0.05569,-0.037338,0.023248,-0.053575,-0.091752,-0.142143,-0.041277,0.113471,-0.026878,0.070329,-0.020077,-0.044883,0.134301,-0.1083,-0.083841,0.111631,-0.048221,-0.067333,0.136536,0.101027,0.01688,-0.077111,-0.139631,0.065105,-0.051335,0.079814,0.115529,0.081695,-0.051931,-0.071557,0.084999,-0.115074,0.083851,0.060259,0.060613,0.158594,0.010245,0.073263,0.047714,0.142289,-0.015114,-0.079259,-0.153469,-0.025213,-0.022914,-0.022659,0.000815,0.050441,-0.096492,0.050594,-0.141727,0.017721,-0.02172,0.088169,-0.167413,0.150057,-0.008545,-0.085519,-0.00357,0.021286,0.064865,-0.064544,0.014328,0.02708,0.090916,0.027206,0.05245,-0.090578,0.139143,-0.085841,0.082304,0.035889,-0.07923,-0.063901,0.125247,-0.001325,-0.01922,-0.038383,0.081925,0.090527,0.045103,0.031049,0.008091,0.078662,-0.035795,-0.059803,-0.16126,0.009423,0.130776,EN,0,0
group_3028,-0.015425,-0.056731,0.015717,0.029865,0.213957,-0.018232,0.058491,0.030734,0.020042,-0.104659,0.0813,0.028738,-0.009321,0.115752,0.093359,-0.115655,-0.061081,-0.057685,0.059642,-0.176069,0.154384,0.142941,-0.007106,-0.179971,-0.108422,-0.075681,-0.023875,-0.050846,0.181678,0.1155,0.183253,-0.061676,0.03894,-0.14667,-0.011836,0.109064,0.091935,0.063183,0.186748,0.172674,-0.01911,-0.044435,-0.038953,0.02452,0.136343,0.028073,0.027496,-0.181576,0.08947,-0.101843,0.098454,0.009408,0.059732,0.124378,0.107586,0.21358,0.034707,0.081473,0.160737,0.07107,0.026016,-0.020859,0.094255,-0.058549,-0.009359,0.14614,-0.017686,0.039618,-0.05806,0.176534,0.011111,0.048777,0.103079,0.23366,0.036168,-0.003338,-0.027262,0.037182,0.022314,0.019284,-0.078208,-0.196826,-0.056567,-0.02257,-0.052028,0.056342,-0.081653,-0.079862,-0.067899,-0.08991,0.073397,-0.007493,-0.11597,0.023265,0.156514,-0.020012,0.067613,0.048503,0.054724,0.072328,-0.186731,-0.190492,0.057826,0.015739,0.077396,-0.045183,0.009779,0.010336,0.080585,-0.030355,0.034925,-0.06997,0.059695,-0.082382,-0.042003,-0.242972,0.052372,0.161997,-0.095673,-0.01535,0.123256,0.046104,-0.078604,-0.012167,0.130962,-0.093407,-0.192037,0.039175,EN,1,0
group_3212,-0.09443,0.023848,0.080328,-0.147721,0.050765,-0.052512,-0.071594,0.02443,0.011479,-0.122442,-0.067084,0.146051,-0.171042,-0.045587,-0.139411,0.040159,-0.016223,0.029234,0.122212,-0.070115,0.055014,0.062984,-0.032632,0.111044,0.059416,-0.004473,-0.016592,0.113049,-0.105294,0.035882,-0.089094,0.005046,-0.165369,0.089867,0.006243,-0.003604,-0.012296,0.073496,-0.008775,0.042506,0.006583,0.08091,-0.025314,0.062941,0.034491,0.093857,0.092817,-0.022668,-0.153646,0.014864,-0.161068,0.116174,-0.002254,0.114705,-0.146889,0.038322,-0.018582,0.121209,-0.033923,0.081258,-0.155971,0.121099,0.036942,0.008789,-0.012309,-0.036292,-0.112092,-0.129214,-0.006822,-0.033595,-0.040324,-0.000118,0.062938,0.0891,0.09777,0.121564,0.0223,0.030658,0.036707,-0.050907,0.003477,-0.058138,-0.066734,-0.152113,0.114929,0.050818,0.123598,0.047066,-0.051115,-0.116899,-0.124896,-0.047115,0.111057,-0.009636,0.012798,-0.087156,0.078577,-0.022849,-0.100401,-0.147589,-0.053835,0.052025,-0.171777,-0.094627,-0.026136,0.083598,0.081226,0.042991,-0.068752,-0.024924,-0.140635,0.082393,-0.141863,0.074379,-0.008459,-0.019795,-0.020685,0.123666,0.019228,-0.086377,-0.051888,-0.01784,-0.106489,-0.113557,0.124219,-0.025231,0.013662,5.9E-05,EN,0,0
group_3030,-0.111355,-0.012127,-0.180677,-0.089547,0.229078,0.048865,-0.157432,0.047097,0.152064,0.027857,0.025239,-0.042645,0.100488,0.173566,0.033992,-0.188069,-0.119618,-0.054739,-0.078626,-0.002978,0.021379,0.165468,-0.115439,0.093445,-0.118549,0.039168,-0.084916,-0.039612,0.148016,0.090819,0.077427,-0.130771,-0.036891,-0.094318,0.083522,-0.065673,-0.010571,0.027587,0.133545,0.173368,-0.10729,-0.034067,-0.130879,-0.009271,0.133725,0.00585,-0.103216,-0.002784,0.086381,-0.102031,0.033796,-0.031465,0.066429,-0.001733,0.028099,0.11614,0.036767,0.018675,0.15573,0.1143,0.133315,-0.028155,0.057811,0.0279,0.08444,0.169574,0.017644,0.062757,-0.018774,-0.028168,0.015413,-0.020182,0.045144,0.101054,0.075499,-0.075855,-0.168944,-0.041496,0.131243,0.017939,0.071391,-0.08295,-0.077446,-0.053473,-0.036764,0.015461,-0.239504,-0.117481,-0.163109,0.007338,0.009552,0.015985,-0.037542,0.020013,0.047773,0.029001,0.204182,0.09438,-0.162281,-0.107068,-0.146391,-0.086032,-0.063347,-0.064344,0.131494,0.077951,0.010742,0.015593,0.017419,-0.142556,-0.001279,-0.132933,0.079595,-0.082318,-0.090251,-0.030561,0.145309,0.109762,0.047855,0.042654,0.23158,0.151946,-0.053269,0.157506,0.059222,-0.162479,-0.077413,0.133916,EN,1,0
group_3320,0.091926,-0.024497,-0.007883,-0.018784,0.129548,-0.062046,-0.101066,0.017374,-0.110694,-0.024739,0.074461,0.155135,0.015616,-0.082213,-0.08039,0.104358,-0.1043,0.002601,0.167773,0.010362,0.129128,-0.09112,-0.139313,-0.106332,-0.079502,-0.085771,0.07565,0.16656,0.086239,-0.077976,0.085586,0.085637,-0.157901,0.120286,-0.006036,-0.020685,-0.068904,0.093395,0.130046,-0.119599,-0.041467,0.089904,-0.0065,0.080036,-0.062408,0.100873,0.020653,0.102318,-0.010452,-0.099273,-0.012311,-0.055967,0.088187,-0.143248,0.080959,-0.06129,-0.185858,-0.141693,-0.024918,-0.061448,-0.006043,-0.133884,-0.040069,-0.046456,0.135176,0.070625,0.113178,-0.039229,0.069294,-0.082402,-0.051989,0.033066,0.021829,-0.021623,0.064364,0.063743,0.147514,0.048993,-0.06138,0.035196,0.108361,-0.002445,-0.10026,-0.038882,-0.055118,-0.050833,0.173241,0.109199,0.072233,-0.026657,-0.132644,-0.010681,-0.058069,0.119548,0.037267,0.178133,-0.131689,-0.036331,-0.034896,0.19894,0.088586,0.086443,0.082934,0.021828,-0.100636,-0.073689,0.120992,0.04884,0.056819,0.015724,-0.088128,0.133491,-0.014305,-0.082434,-0.002343,-0.057487,0.087566,-0.015469,0.02782,0.171918,0.095291,-0.116808,0.056695,-0.030646,0.08587,0.060385,0.134421,-0.190772,EN,0,0
group_3031,0.029776,-0.091782,-0.114965,0.07378,0.189046,0.024304,-0.217203,0.169655,0.046024,-0.140123,0.03103,-0.161178,-0.093109,0.061366,-0.108696,-0.019237,-0.004205,-0.169663,-0.033436,0.024592,0.103379,0.068217,-0.058552,-0.049333,-0.050436,-0.154159,0.03558,-0.04172,0.027929,0.174442,0.133802,-0.210714,0.060418,-0.091848,-0.051404,0.215744,0.107493,0.008215,0.065457,-0.019896,-0.122611,-0.061141,-0.133112,0.054785,-0.076807,-0.089135,-0.04888,9E-05,0.059139,0.00032,-0.023165,0.060526,-0.089121,0.012884,-0.08309,-0.063727,-0.054859,0.074127,0.166334,0.114075,0.13666,-0.037292,-0.009252,-0.067083,0.116596,0.021103,-0.168065,0.005209,0.016655,-0.014852,0.214015,0.027502,0.239864,0.07871,0.173864,-0.134113,-0.080274,0.032559,0.084786,0.042979,-0.036778,0.023397,-0.05852,-0.033445,-0.061332,0.073396,-0.194817,0.003856,0.058225,-0.157415,0.013807,-0.002067,-0.058611,-0.083392,-0.021569,-0.008737,0.131355,0.035787,-0.013746,0.063687,-0.133154,-0.010424,-0.133899,0.011602,-0.067853,-0.032652,-0.007842,0.04448,0.003004,-0.080197,0.083858,-0.0466,0.04239,-0.059136,0.03567,-0.134097,0.082793,0.185481,0.136593,-0.017471,0.026756,0.042564,-0.011757,0.134342,0.005976,-0.044218,0.017001,0.11628,EN,1,0
group_3330,0.012911,-0.145599,0.091217,-0.063326,0.046824,-0.033718,-0.035961,-0.154623,-0.099877,-0.145606,0.017376,0.12516,-0.028562,-0.116577,0.093174,0.13765,-0.073619,-0.029731,-0.152697,-0.124824,-0.036467,0.047569,-0.112672,-0.046869,0.02282,-0.010386,-0.008436,0.004791,-0.041079,-0.118372,0.168635,-0.038064,0.056756,-0.005559,-0.015135,-0.001105,0.029182,0.040854,-0.060622,0.019215,0.006401,-0.10699,-0.170367,-0.074672,-0.015811,0.084054,-0.040342,-0.108756,-0.018751,-0.082803,-0.005999,0.097727,0.014055,-0.022124,-0.011859,-0.019989,0.020139,-0.041977,0.039228,0.020992,-0.11994,0.025181,-0.156329,-0.116277,0.002889,0.092675,0.088411,-0.051748,-0.089279,0.004292,0.016916,0.000232,0.127939,-0.025122,-0.002232,-0.019563,-0.079752,0.095204,0.033463,0.142966,-0.011525,-0.162236,0.035901,0.045502,0.097637,0.100396,-0.129969,0.053247,-0.03991,-0.045281,0.121393,0.068551,0.14423,0.02736,-0.123207,0.122043,0.039461,-0.11789,0.154571,0.147519,0.044882,0.035296,0.032265,-0.048235,-0.01277,-0.109336,0.055759,-0.022262,-0.082607,0.036855,-0.017858,-0.074509,-0.042283,0.085034,-0.105745,0.127639,-0.081453,-0.111437,-0.017558,-0.00683,0.067082,-0.032631,-0.113948,-0.126541,0.042632,0.088647,-0.034739,-0.104288,EN,0,0
group_3033,-0.038942,-0.147532,-0.055107,-0.089317,0.097465,0.103049,-0.165371,0.157368,0.018393,-0.09678,0.166341,-0.169644,-0.003236,-0.005566,0.229726,0.064467,-0.016467,-0.030181,-0.036171,0.092771,0.022296,0.195449,0.013813,-0.121553,-0.055865,-0.106683,-0.089772,-0.056859,0.171961,0.076029,0.05715,-0.135645,0.105412,0.003687,0.020563,-0.082816,0.007812,-0.048614,0.130914,0.038718,-0.121003,-0.101865,-0.05179,0.062153,0.09964,-0.123601,-0.137036,0.0067,0.028518,0.016868,0.154683,0.068797,0.032292,-0.016875,-0.12404,-0.068771,-0.006329,0.022041,0.034614,0.00698,0.21999,-0.146806,0.22958,0.175842,0.018596,0.054112,-0.142217,0.076749,-0.209731,0.199862,0.130001,-0.236119,-0.011495,0.097701,-0.102159,-0.114173,0.017261,0.068043,0.109062,0.130596,-0.195613,0.027937,-0.074713,-0.11258,0.033464,0.192731,-0.074418,-0.050331,-0.090069,-0.139047,0.04456,-0.036251,-0.191606,-0.150311,-0.077842,-0.062386,0.049066,0.025073,-0.147416,-0.143981,-0.053522,-0.113355,-0.13636,-0.174416,0.023976,-0.033007,-0.1302,0.147175,0.081834,-0.234057,0.014823,0.052326,-0.011627,-0.092741,0.206687,-0.143992,0.133312,-0.037791,-0.021403,-0.167296,0.096332,-0.072217,-0.051028,-0.002261,0.116203,-0.155668,0.048255,0.109202,EN,1,0
group_3734,-0.022126,-0.058558,-0.042632,0.106741,-0.10383,-0.054345,-0.115038,0.057884,-0.063983,-0.098857,0.118715,0.060533,0.064442,-0.035452,0.064076,-0.041799,0.060443,-0.185629,0.013691,0.039843,-0.053873,0.090358,-0.064992,-0.055,0.017918,-0.01665,-0.170384,-0.164703,-0.05088,0.076274,-0.080559,-0.010869,0.056935,-0.099574,0.062359,-0.053331,-0.108403,0.051862,-0.08744,0.050189,0.010221,-0.105379,0.016747,-0.108684,0.031327,0.062639,-0.031706,-0.158321,0.081314,0.003171,-0.105045,-0.057878,0.186767,0.051711,-0.130011,-0.001823,0.023668,-0.056326,0.024917,-0.103268,-0.053404,-0.028469,-0.051751,0.143124,-0.01145,-0.071134,-0.100166,0.172283,-0.168177,-0.028021,-0.058698,0.017366,0.00263,0.135307,-0.006312,-0.097567,-0.088717,-0.012608,0.010342,0.037506,-0.125779,0.05442,-0.180204,-0.106167,-0.136963,-0.008813,0.174691,0.005918,-0.136394,-0.04976,0.162065,0.014879,-0.142702,0.150251,-0.071402,0.046953,-0.015146,0.019609,0.005744,0.10773,-0.129261,0.088292,-0.066442,-0.063101,0.030252,0.118528,0.097085,-0.091282,0.018194,-0.175552,0.167051,-0.127778,0.10302,0.040738,0.132751,-0.066011,0.078929,0.03635,0.180766,-0.025316,-0.133175,0.01821,-0.002034,0.127815,0.041151,-0.050526,-0.131093,0.054874,EN,0,0
group_3034,-0.07282,-0.132398,-0.153697,0.035918,-0.000439,-0.061943,-0.067079,0.025262,0.095457,-0.14937,0.031246,-0.10708,-0.174825,0.036158,0.035888,-0.090478,-0.091925,-0.038064,-0.093051,0.00214,0.057501,0.150172,-0.014113,-0.012223,-0.127846,-0.10704,-0.098316,-0.019663,-0.098712,0.038068,0.080774,-0.201154,0.029438,-0.128242,-0.041631,-0.057504,0.126124,-0.068689,0.057473,0.054563,-0.056329,-0.071325,-0.049082,-0.079329,0.036657,0.015761,-0.071164,-0.193507,0.136396,0.076058,0.082763,0.097091,-0.003107,0.012415,-0.019585,0.180397,-0.011366,0.165671,0.009972,0.012717,0.11469,-0.080812,-0.010627,0.04354,0.154209,-0.063169,-0.117802,-0.089512,-0.052118,0.000755,0.082773,-0.043197,0.117114,0.068284,-0.003962,-0.193866,-0.193751,-0.029801,0.063552,0.024229,-0.090978,-0.141556,-0.076452,-0.169967,-0.053536,0.096067,-0.023597,-0.111436,-0.098641,-0.104036,0.029376,-0.027783,-0.079888,-0.105608,0.123599,-0.094595,0.130511,0.242014,-0.037042,-0.166533,-0.203752,-0.176443,-0.139936,-0.133658,0.024754,-0.107309,-0.196544,0.180444,0.014805,-0.068718,0.062977,-0.207659,0.037975,-0.088608,0.038511,-0.205829,0.104258,0.158278,-0.046539,0.052996,0.136785,0.000874,-0.071226,0.020614,0.04952,-0.159867,-0.047571,0.119915,EN,1,0
group_385,-0.010222,-0.012435,-0.056408,-0.011548,-0.017331,-0.167036,-0.136162,-0.003734,-0.065492,0.073937,0.015005,0.12953,-0.001492,-0.000648,-0.058993,0.034275,0.057496,-0.080438,-0.009881,0.018833,-0.076615,0.036401,0.053053,0.005394,0.120029,0.00938,0.116531,0.137579,-0.004874,-0.10336,0.075482,0.153959,0.073952,-0.022916,-0.140211,-0.164991,-0.044689,-0.098004,-0.012016,-0.012656,-0.072306,0.025613,0.031942,-0.130982,-0.113236,-0.014641,-0.096729,-0.052345,-0.042387,0.079853,-0.114899,0.045242,-0.045205,-0.126651,-0.05403,-0.092392,-0.034781,0.015173,-0.027151,0.031398,0.176523,-0.01207,-0.016353,0.007176,-0.051736,-0.028952,0.145941,0.045401,-0.078689,-0.054595,-0.07013,0.025641,0.069705,0.13249,0.118318,0.022942,0.01527,0.084462,-0.061822,0.077327,0.011991,-0.020513,-0.10792,-0.062799,-0.020739,-0.005763,-0.086817,-0.136308,-0.065546,-0.11379,-0.029774,-0.124685,0.052862,-0.094563,0.014725,0.124149,-0.028058,-0.012739,-0.169349,-0.023297,-0.124217,0.003674,0.0222,0.114603,-0.007204,0.086832,-0.006447,-0.070414,0.000843,0.086006,-0.023237,-0.131766,0.060927,0.027575,-0.092784,-0.016277,-0.013802,-0.104627,0.024751,0.086489,-0.078982,-0.075266,0.045743,-0.121111,-0.140428,0.021579,0.084382,0.010953,EN,0,0
group_3035,-0.019792,0.035032,-0.103686,0.023919,0.000983,0.08878,-0.118356,0.21674,0.126396,-0.141414,0.00811,-0.232992,0.008973,0.114209,0.104861,0.04174,-0.14774,-0.156844,-0.052876,-0.06184,-0.019418,0.065605,-0.070506,-0.184884,-0.235248,-0.083517,-0.237274,0.058329,-0.01481,0.152721,0.058515,0.042465,-0.083679,-0.061288,0.080917,0.23543,0.07083,-0.000236,-0.011216,0.2432,0.054328,-0.205295,-0.11148,0.079757,-0.011254,-0.038022,0.082773,-0.067333,0.17866,0.013482,0.238437,-0.006097,0.054935,0.128396,-0.161697,0.059346,0.137747,-0.06205,-0.0652,0.02898,0.13613,-0.037433,0.041529,-0.065734,0.107335,-0.081859,-0.117505,0.091602,-0.037807,0.145417,0.205595,0.044398,0.227717,0.09312,0.041173,-0.137563,-0.080493,0.004184,-0.054793,0.228975,-0.058607,-0.073455,-0.006029,-0.087419,-0.116151,0.02947,0.012253,-0.029571,0.005331,-0.076006,0.003098,-0.055724,-0.007499,-0.107049,0.221689,-0.021982,0.213044,0.02351,-0.155434,-0.046337,-0.030083,-0.010178,-0.027152,-0.18163,0.086342,-0.203439,-0.046777,-0.038414,-0.026211,-0.052744,0.219365,0.004006,-0.04627,-0.158581,0.031294,-0.089906,0.026305,0.017385,0.168426,-0.006385,0.132015,0.065277,-0.00664,0.012597,0.116318,0.061814,-0.181831,0.040658,EN,1,0
group_386,0.0081,0.09151,-0.018806,0.044894,0.072288,0.100123,0.030269,-0.134278,0.159607,-0.024573,-0.065447,0.154804,-0.065844,-0.125885,0.05157,0.132843,-0.171106,0.013368,-0.025617,-0.012752,-0.089438,0.150909,0.096255,0.048779,0.11421,0.130613,-0.027669,-0.046908,-0.047574,-0.027063,0.003641,0.017459,0.04769,-0.09807,-0.030824,0.129411,-0.005142,0.105682,0.074243,0.140384,-0.056049,-0.062248,-0.030009,-0.056258,-0.032511,-0.018375,0.019201,-0.130471,-0.083975,0.009902,0.070268,-0.161011,-0.163963,-0.049502,0.032736,-0.001281,-0.031874,-0.120259,0.043664,-0.013772,0.013385,-0.090067,0.094927,0.013835,0.006986,0.11731,-0.146393,-0.147272,0.032437,-0.007291,0.06404,-0.065562,0.089602,0.091354,0.051583,0.12327,-0.00075,-0.037595,-0.040649,-0.05267,0.015086,0.009931,-0.105478,-0.01283,0.066883,0.027769,0.070464,0.003749,-0.014163,0.102562,-0.043375,-0.025283,0.138732,0.020796,0.017676,-0.067597,-0.155902,0.03008,-0.038458,0.166404,0.069216,-0.11145,-0.05655,0.107129,-0.172627,0.076337,0.039276,0.147175,0.027552,-0.020305,-0.097061,0.008856,-0.096912,-0.062114,-0.082414,0.058313,-0.140061,-0.021684,0.121331,-0.055594,-0.074204,0.065786,0.076238,0.058167,0.07697,-0.117903,-0.040094,0.001679,EN,0,0
group_3036,-0.056436,0.002513,-0.247084,-0.007095,0.114807,-0.027261,-0.100995,-0.01064,0.222317,-0.061755,0.09629,-0.013362,-0.151987,0.011708,0.150486,-0.076266,0.08573,-0.088612,-0.0731,-0.136412,0.080064,0.044302,-0.08746,0.015802,-0.092763,0.048163,-0.06686,-0.06683,-0.007611,-0.090619,0.057367,-0.167391,-0.049889,-0.164509,0.089938,0.130101,-0.00718,-0.142939,0.059768,0.21481,-0.076973,-0.139957,-0.030464,-0.067745,0.004906,-0.123245,-0.044081,-0.093725,0.056081,-0.084139,0.09063,0.172472,0.226686,-0.057137,0.020176,-0.00782,0.107498,-0.061993,0.0269,0.066681,0.024892,-0.232498,0.143923,-0.106038,0.156848,0.028887,-0.00514,-0.030533,-0.074072,0.167996,-0.017711,-0.122917,0.060442,0.111425,0.07492,-0.068251,-0.004631,0.011408,-0.050135,0.088629,0.023801,-0.151869,0.057139,0.004785,-0.125965,0.038153,-0.129447,0.024918,-0.048941,-0.021606,-0.028401,-0.085589,0.049276,-0.145241,0.071553,0.000418,0.055088,0.073277,-0.200166,-0.166907,-0.104825,-0.114074,-0.015762,0.086132,0.069382,-0.154048,-0.103487,0.18039,0.097823,-0.158929,-0.035397,-0.065465,0.032949,-0.156735,0.065402,-0.051758,0.117147,0.082665,0.099982,0.084152,0.127059,0.113479,-0.108112,0.106392,0.101891,-0.176615,-0.022986,0.110914,EN,1,0
group_3948,-0.030345,0.14212,0.00024,-0.000431,0.11116,0.017322,-0.135942,0.009823,-0.035429,-0.076752,-0.053419,0.092512,-0.059976,-0.050271,-0.040828,0.083766,-0.027743,-0.003994,0.027514,-0.090941,0.096067,-0.013372,-0.163123,-0.060665,-0.101594,-0.091097,0.012688,-0.021987,0.079762,-0.006746,-0.046539,0.039748,-0.007033,0.056593,-0.081336,-0.071332,0.033093,0.001876,-0.000383,0.063527,0.00207,-0.055949,-0.103675,-0.03095,-0.001637,-0.01312,0.016247,-0.102312,0.137639,-0.099303,-0.008816,0.031411,0.029909,-0.020573,-0.082991,0.103192,-0.047931,-0.044953,-0.003184,0.098642,-0.062333,-0.022969,0.087438,0.034186,-0.060232,-0.100811,0.010589,0.127925,0.05134,0.022099,0.084203,0.014439,-0.014023,-0.144699,0.017715,-0.055258,-0.030868,0.021393,0.042096,0.002934,0.069063,0.003186,0.005027,0.1192,0.02926,-0.085833,-0.012714,-0.050249,-0.105901,-0.16033,-0.027024,0.034087,-0.018155,-0.051544,0.048927,0.021961,0.085253,0.068536,0.093754,0.104579,-0.06934,0.113859,-0.001098,0.160134,-0.052692,0.024399,-0.075417,0.073613,-0.054613,0.044151,0.05994,0.005162,-0.04974,-0.021661,-0.123339,0.039327,-0.103797,0.053862,-0.063542,0.034834,0.17577,0.166092,0.147506,0.034837,0.111786,0.138878,-0.122425,0.102806,EN,0,0
group_3037,-0.02036,-0.113785,-0.152943,0.14288,-0.073005,0.03342,0.096237,-0.047122,0.054219,-0.023535,0.094068,0.042923,-0.127291,0.181338,0.204123,-0.140578,-0.156087,-0.031463,-0.058099,-0.013376,0.125784,0.044407,-0.034013,0.013698,-0.063102,-0.067387,-0.0957,-0.23533,-0.011276,0.041835,0.061812,-0.060943,0.14813,-0.036813,-0.088373,0.045796,0.197133,0.016601,0.153878,-0.019861,-0.107161,-0.138933,-0.148659,-0.192694,0.01086,-0.050378,-0.066239,0.04518,0.149262,-0.078641,0.001446,0.175222,0.185765,0.148365,0.058932,0.102928,0.015266,-0.08564,0.114778,0.134684,0.006791,0.032656,0.08651,0.018245,-0.110394,0.135889,-0.100797,0.101013,-0.007983,-0.052169,-0.052655,-0.135879,-0.063674,-0.015099,0.064402,-0.009817,-0.043761,-0.026929,0.006915,0.102924,-0.091923,-0.220423,-0.17881,-0.070976,0.058122,0.177601,-0.184205,-0.190436,-0.014234,-0.017671,0.156629,-0.23146,-0.029644,-0.053261,0.040378,0.007176,0.167374,0.111428,-0.153033,0.002767,-0.086416,-0.059076,-0.174277,-0.145793,-0.01986,-0.024095,-0.051778,0.113091,0.004441,0.092385,0.129868,-0.110077,-0.023237,-0.067553,0.122754,0.018096,-0.009624,0.0393,0.112042,-0.13894,0.174748,0.095687,-0.171606,0.032309,0.076087,-0.089028,-0.088948,0.074594,EN,1,0
group_395,0.01962,0.076528,0.015793,-0.053354,-0.038686,-0.005006,0.058909,0.060508,-0.099934,-0.078599,0.060394,-0.073665,-0.054801,0.106059,0.025701,0.021491,0.017237,-0.031514,-0.049993,-0.038987,0.009265,0.087978,-0.108599,0.037729,-0.010597,0.023092,0.08913,0.060805,-0.120619,0.023269,0.041216,0.125233,0.021436,-0.081844,-0.080593,-0.094694,0.044977,-0.030769,0.03609,0.143564,-0.029096,0.056724,-0.058736,0.095859,-0.081454,0.050709,0.073801,-0.031507,-0.121099,-0.039666,0.064643,-0.051691,-0.030934,-0.048625,0.057115,-0.007566,0.029404,-0.040078,0.019474,-0.117956,0.021026,0.044847,0.019628,0.023818,0.039593,-0.14551,0.016133,0.003503,-0.056081,-0.075725,-0.043105,-0.012711,0.00779,-0.020675,0.115371,-0.032391,-0.056676,-0.06171,0.022767,0.030511,-0.15553,0.07843,-0.103138,0.12586,0.130902,0.018587,-0.043823,0.048267,-0.100861,0.062447,0.126941,-0.036417,0.029768,-0.008339,-0.076437,-0.001698,-0.002622,0.043078,0.10738,-0.07319,-0.070642,-0.098975,-0.083666,-0.029683,-0.063632,0.099047,0.051784,0.026624,0.013909,0.010071,-0.124401,0.103001,0.141187,0.021834,0.033287,-0.11991,-0.031546,-0.040134,-0.110662,0.026812,-0.029422,0.064151,-0.121279,-0.133928,-0.020643,-0.046792,-0.008246,-0.037187,EN,0,0
group_3038,0.028224,-0.184655,-0.101671,0.096495,0.045601,-0.074113,-0.173531,0.141042,0.102169,-0.137853,0.030655,-0.037686,-0.134689,0.146862,0.171188,-0.081462,-0.069217,-0.024779,0.070839,-0.180724,0.238877,0.116052,-0.138256,-0.000678,-0.002459,0.078564,-0.112398,-0.18728,0.223322,0.036697,0.131372,-0.163827,0.166437,-0.032542,0.099518,0.169266,0.006243,-0.010347,0.064825,0.145219,0.054451,-0.160013,-0.171989,-0.145662,0.12194,-0.01026,-0.200012,-0.082641,0.148383,-0.026421,0.053907,0.055169,0.032559,-0.019762,-0.20213,0.118122,0.203285,0.10767,0.099808,-0.00622,-0.036038,-0.063049,0.013148,0.117319,-0.029034,0.12992,-0.078888,0.101287,-0.066067,-0.06131,0.144882,-0.000799,-0.089003,0.117056,0.130409,-0.102156,-0.125896,-0.038298,-0.076405,-0.017351,-0.070956,-0.206378,0.089824,-0.078541,-0.087488,0.079814,-0.105369,-0.070383,-0.117414,-0.018881,0.160149,0.071744,-0.069298,-0.071791,0.100813,-0.087697,0.082895,-0.100238,-0.032171,-0.073173,-0.027101,-0.145459,-0.162324,-0.066239,0.113845,-0.101053,-0.13589,-0.028751,-0.080853,-0.107929,-0.015651,-0.089935,-0.019582,-0.093041,0.162573,-0.192676,0.010441,0.048727,0.056788,0.019008,0.08626,0.040041,0.040262,0.186384,0.152627,-0.093638,-0.123246,-0.055577,EN,1,0
group_4084,-0.08922,0.089971,-0.036516,0.008635,-0.064005,-0.142501,0.037884,-0.140077,0.069397,-0.139196,0.02117,-0.069862,-0.152262,-0.016128,-0.004175,0.117654,0.041134,-0.160185,0.049933,-0.074617,0.044125,0.11586,0.11004,0.034828,-0.032442,0.145309,-0.002127,-0.023003,0.053224,-0.099416,0.00265,0.147272,-0.053266,-0.021639,-0.029693,0.013404,-0.088228,0.105005,0.113439,0.136245,-0.005014,0.048778,0.12027,-0.01899,-0.116623,-0.012585,0.074869,-0.035915,-0.033168,0.134004,-0.101844,0.149451,0.140697,0.07013,0.037503,-0.019627,-0.061578,0.015245,0.057038,0.110654,-0.059397,0.07083,-0.018968,0.041958,-0.01727,0.065179,-0.02412,0.040992,0.086808,0.07998,0.015884,0.094515,0.169174,0.015305,-0.072679,-0.017478,0.088407,0.06834,0.015373,0.025084,0.086164,0.063754,-0.054081,-0.07717,0.098733,-0.00836,0.127233,0.039187,0.078325,-0.023059,0.167683,-0.033377,0.152711,0.024544,0.036956,-0.099764,-0.110768,-0.163302,0.097847,0.089551,0.061738,-0.148155,-0.132595,-0.095551,0.050426,-0.098561,0.104989,0.157132,0.058464,-0.034113,-0.063542,-0.042367,-0.135488,-0.026269,-0.0325,-0.108999,-0.071946,0.051214,0.067978,-0.172484,-0.124078,0.140134,-0.075658,-0.054209,-0.090225,-0.003075,-0.019769,-0.070579,EN,0,0
group_3039,-0.062183,0.056221,0.046289,0.113969,-0.030798,0.18663,-0.12237,-0.049002,0.223935,-0.065713,0.13047,-0.078387,-0.070117,0.126881,0.065409,-0.068389,-0.114138,0.008453,-0.155663,-0.05287,0.022002,0.119728,0.074526,-0.14924,-0.060063,0.029163,0.038626,-0.017131,0.146617,0.018634,0.225804,-0.217543,0.107687,-0.07497,0.105593,-0.02351,0.006721,-0.112267,0.166468,0.183321,0.093111,-0.086566,-0.219086,-0.043753,0.018673,-0.10648,-0.039405,-0.012791,-0.00651,-0.07127,0.03369,0.188069,0.067898,0.156655,-0.032624,0.154069,0.134671,0.176339,0.21486,-0.057435,0.048798,-0.082724,-0.061821,0.011011,0.144289,0.136339,-0.035863,-0.035338,-0.140824,0.008754,0.047926,0.000556,-0.006941,0.099045,0.04886,-0.004909,0.032027,-0.021031,-0.099331,0.089196,-0.063944,-0.136924,-0.131035,-0.10274,-0.055276,-0.023831,-0.12427,-0.118996,-0.061286,-0.113021,0.119805,-0.084896,-0.174493,-0.082606,0.064063,-0.166464,0.108632,0.109806,-0.000972,-0.017364,-0.194794,-0.181933,-0.019048,-0.187,0.074748,-0.134703,-0.03977,0.05525,0.130927,-0.10429,0.04775,-0.053243,0.13362,-0.106516,-0.044808,-0.107544,0.177121,0.005219,-0.004549,-0.056974,0.158762,0.042108,0.044818,0.08778,0.142413,-0.126829,-0.089127,0.002204,EN,1,0
group_4104,0.07951,-0.16432,-0.003166,-0.009499,0.073918,0.030962,0.004997,-0.024846,-0.171253,0.042784,-0.041751,-0.026947,0.043924,0.056444,-0.016861,-0.026257,-0.037856,-0.16016,-0.018395,0.071418,0.055913,-0.070649,0.001178,0.040196,-0.071003,0.011339,0.117481,0.002249,-0.036282,-0.04898,0.155723,-0.154257,0.05069,0.165945,0.069418,0.096287,-0.070066,0.115023,0.003337,-0.07932,-0.066032,-0.058019,0.062451,-0.02851,0.06653,0.067981,-0.088342,0.070553,0.170062,0.05415,0.126874,0.094027,0.002534,-0.083922,0.068181,0.045863,-0.094582,-0.050168,-0.131412,0.162103,0.036625,-0.029815,-0.115043,0.092798,-0.113286,0.079054,-0.058818,-0.124835,-0.049466,-0.160058,0.009435,-0.101454,0.078306,-0.130995,-0.034518,-0.037447,-0.002945,-0.080787,-0.029621,0.092628,-0.000252,0.121588,0.058192,0.091815,-0.005297,0.031726,0.052724,0.050016,0.151444,-0.058336,-0.075337,-0.067558,0.000171,-0.002508,0.12865,0.153473,0.041184,0.120339,-0.028944,0.052902,0.150364,0.088207,-0.033146,0.161948,0.004276,-0.068158,-0.084067,0.054701,0.053839,0.056552,-0.122595,-0.025207,0.052766,0.032665,0.014123,-0.111834,-0.044176,0.021943,0.027774,-0.11042,0.088531,-0.165334,0.09087,0.134162,-0.12014,-0.072871,0.034822,0.076711,EN,0,0
group_3289,-0.046422,-0.114839,-0.081196,0.063646,0.078226,0.123227,-0.060545,-0.06124,0.150321,-0.204861,0.235688,-0.095532,-0.104316,0.099299,0.075381,-0.127143,-0.026778,-0.179609,-0.079607,-0.094296,-0.00777,0.12608,-0.242159,0.042992,-0.064601,-0.113757,-0.011349,-0.037403,0.052291,0.10216,0.205098,-0.030242,0.127253,-0.151075,0.214138,0.106752,0.070742,-0.090043,0.023816,-0.053653,-0.068544,-0.223753,-0.10456,-0.093575,0.005469,-0.064203,-0.039727,-0.103465,-0.032802,-0.097569,0.159246,-0.050394,0.110269,-0.021937,-0.037091,-0.015067,0.008097,0.155713,0.063821,0.094121,0.039098,0.031662,-0.093988,0.041566,0.110407,-0.011563,-0.169948,0.065604,-0.102808,0.03278,-0.061893,-0.012553,0.078424,0.087886,0.133926,-0.045706,-0.148815,-0.012112,0.095209,0.07686,-0.104101,0.082029,-0.147919,-0.118657,-0.010546,0.213262,0.010899,-0.080553,0.018138,-0.181818,0.204887,-0.07833,-0.124523,0.00072,-0.012291,-0.111837,0.107612,0.053655,-0.071428,-0.151521,-0.063108,-0.07548,-0.130859,-0.124838,-0.099371,-0.021709,-0.12917,0.042771,0.109929,-0.136106,0.022618,-0.055542,0.106401,-0.210792,0.045105,-0.189998,0.091027,0.143541,0.084102,0.044879,0.03026,0.080013,-0.073477,0.097583,-0.050769,-0.171306,-0.175143,0.025426,EN,1,0
group_4147,-0.026786,-0.086804,0.129245,-0.04735,-0.005453,-0.10223,0.026986,-0.076221,0.131368,-0.008202,0.05393,0.080672,-0.024725,-0.175611,0.03437,0.007308,-0.108617,-0.044811,0.041595,-0.00956,-0.012624,0.019604,0.076174,0.02143,0.075185,-2.4E-05,-0.040265,-0.058163,-0.115943,0.045621,-0.038568,-0.097759,-0.038019,0.027705,-0.083629,0.100407,0.022808,0.046713,-0.027395,-0.02411,0.110936,-0.158203,-0.105509,0.000166,0.020026,0.114902,-0.056311,0.050217,-0.036778,0.12842,0.06338,0.060105,0.120086,-0.034127,0.061356,-0.088728,-0.049821,-0.15001,0.086676,0.040973,-0.0473,0.022462,0.041398,0.028522,0.048866,-0.011649,0.176196,-0.050773,-0.04289,0.013592,0.055749,0.133744,-0.005722,0.12405,-0.044305,-0.021307,0.039255,0.028831,0.012187,0.042371,-0.048427,-0.020447,0.081348,0.062966,0.117012,0.017462,0.06356,-0.053062,-0.050928,0.027733,-0.038482,-0.028852,-0.069162,0.026835,-0.089084,0.072435,-0.066898,0.154537,0.048842,-0.039969,0.039616,-0.014174,0.036104,-0.006245,0.041523,0.017398,0.007799,0.004574,-0.093088,-0.160228,0.092911,0.107551,-0.03036,-0.150011,-0.045261,0.041672,-0.012552,-0.109699,-0.01496,0.039898,0.035321,0.098032,-0.010689,0.091475,-0.021875,-0.040738,0.023408,0.120622,EN,0,0
group_3763,-0.140336,-0.130137,-0.12748,0.009672,-0.046635,-0.049659,-0.103593,0.09675,0.012272,0.07955,0.030646,-0.087314,-0.121647,0.025046,0.145136,-0.167384,-0.019746,-0.099375,-0.09625,-0.108831,-0.092414,0.065194,-0.140945,0.016601,-0.051365,-0.16219,-0.063073,-0.057597,-0.022548,0.079313,0.190855,-0.196575,0.046475,-0.068328,0.075891,0.044121,0.031398,-0.147488,0.149619,0.05883,-0.009132,-0.030325,-0.093897,0.001089,0.190807,-0.032475,0.047379,-0.132001,-0.052677,-0.020515,0.09254,-0.004377,-0.068163,0.080948,-0.095702,0.074214,0.060665,0.169888,0.139676,0.010457,-0.033574,-0.170439,-0.02997,0.053288,-0.047233,0.157561,0.001798,-0.028439,0.025799,0.083451,0.16346,-0.084508,0.209471,0.061798,0.166436,0.070988,0.085858,-0.167044,0.199797,-0.027229,0.079922,-0.149321,-0.207355,-0.047857,-0.15219,0.039039,-0.052128,-0.118765,0.017779,-0.074658,0.163322,-0.030494,-0.129326,-0.016834,0.12086,0.057541,0.097606,0.175803,-0.211971,-0.125017,-0.007668,-0.034158,-0.059195,-0.15578,0.041693,-0.097136,-0.108976,0.051537,0.16327,-0.175595,0.14221,-0.068376,-0.124825,-0.188583,0.014447,0.015486,-0.020649,0.149678,-0.016474,-0.006417,0.015944,0.070159,-0.082138,0.131883,0.152906,-0.085317,-0.072652,0.002792,EN,1,0
group_437,0.033407,-0.100908,-0.08867,-0.053595,0.038568,0.075833,0.086252,0.043794,0.068864,0.045887,-0.011602,-0.000987,-0.00449,0.033094,-0.136724,0.161624,-0.104146,0.085598,0.058915,0.035363,-0.081494,-0.076561,0.154876,0.180743,0.111571,0.070085,0.040052,0.068624,-0.013546,-0.195237,0.133884,0.115488,0.096858,-0.019479,-0.113674,-0.05495,-0.012963,-0.002447,0.097484,-0.006711,0.016976,0.077996,-0.07555,-0.098044,0.061755,0.003345,0.146776,-0.008776,0.047316,0.067832,0.030705,-0.020472,0.000715,0.007925,0.115793,-0.010454,-0.059186,-0.012836,-0.192512,-0.08455,-0.103181,0.027722,-0.07903,-0.150922,-0.041008,0.077021,-0.079712,-0.049097,0.055182,-0.117008,-0.110617,0.21208,-0.029057,-0.097243,0.109501,-0.018446,0.061656,0.065616,-0.114749,0.02354,-0.034116,-0.050705,0.098522,0.054969,0.162982,0.039664,-0.123654,0.047003,0.04002,0.045141,-0.139135,0.181587,-0.041155,0.046644,0.023365,0.049276,-0.064763,0.002473,0.079429,-0.020961,-0.048187,0.083527,0.00743,0.062734,-0.07324,-0.015184,-0.014931,-0.152328,-0.059813,0.168073,-0.008252,0.113423,-0.122248,-0.036123,-0.093126,-0.120471,-0.040531,0.011099,0.046603,0.040761,0.066142,-0.115068,0.136086,0.143765,-0.117159,0.003265,-0.025268,0.07634,EN,0,0
group_3764,0.02284,0.013826,-0.088113,0.025653,0.129447,0.028838,0.013812,0.119828,0.060509,-0.122642,-0.024617,0.009498,-0.10884,-0.008187,-0.003428,0.03808,-0.087694,-0.187581,-0.109727,-0.062379,-0.083115,0.14017,0.019395,-0.191534,0.016158,0.029332,0.028679,0.021355,0.237015,0.118707,-0.076179,-0.177981,0.070125,0.022657,-0.04661,0.048073,0.167991,0.021718,0.068908,0.16187,-0.183775,-0.215136,-0.083365,0.071109,0.074612,-0.03752,0.041378,-0.132016,0.099922,-0.039452,-0.079548,0.05495,0.1106,0.102493,-0.175163,0.065896,0.009055,0.040239,-0.064822,0.078834,-0.018872,-0.110587,0.141757,0.103302,0.182974,0.070694,-0.047165,0.169952,-0.074986,0.01908,-0.100348,0.008147,0.047663,0.093553,0.074349,0.096593,-0.128034,-0.117072,0.001185,0.031517,-0.200693,0.088146,-0.033269,-0.054616,0.039064,0.089853,-0.131056,-0.155444,0.087891,-0.082602,0.046643,-0.053471,-0.019638,-0.099779,0.10954,-0.171455,0.123397,0.194122,0.013703,-0.045443,0.00242,-0.010226,-0.113523,-0.059567,0.084219,-0.047081,0.015307,0.010156,0.051813,-0.047502,0.200192,0.040616,-0.036547,-0.038816,-0.038568,-0.098136,-0.034324,0.118533,-0.000641,-0.043803,0.056116,0.002708,-0.127062,0.161119,-0.100933,-0.205504,-0.158951,0.129794,EN,1,0
group_4597,0.013384,0.042236,-0.012306,-0.056066,-0.118153,-0.076739,-0.07548,-0.117871,0.142998,0.116057,-0.128434,-0.077708,0.006548,-0.14841,-0.002079,-0.032856,-0.002051,-0.034195,0.10006,-0.134217,-0.0109,-0.055949,0.1648,-0.074425,-0.152099,0.035396,0.17187,0.021094,-0.030935,-0.096635,0.100513,0.091283,-0.086043,-0.116102,-0.041457,-0.126433,0.176616,0.005926,0.089391,-0.039643,0.006982,0.07049,0.04335,-0.052842,-0.152636,0.013752,0.083096,-0.021217,0.119783,0.133682,0.044964,-0.159935,-0.034865,0.007356,-0.073949,-0.077023,-0.023275,-0.00166,0.003648,0.096696,0.074116,-0.046964,0.171892,0.033331,-0.171378,-0.001739,-0.097118,-0.166628,-0.067251,0.043533,0.034298,0.016864,0.096107,-0.15024,-0.054172,-0.147698,0.026722,-0.118901,-0.127044,0.086231,-0.084496,0.009213,0.014922,0.055086,0.113636,0.070057,-0.074439,0.054377,0.014463,0.048372,-0.093957,0.057788,-0.082035,-0.163158,0.021919,-0.105481,0.103645,0.030103,-0.127366,-0.119165,0.149052,-0.058025,0.021802,-0.149282,0.046106,0.058006,-0.166273,-0.071099,0.058936,0.066197,0.037219,0.17574,-0.068053,-0.057787,0.086506,0.032302,-0.110372,0.119738,-0.071738,-0.072842,-0.077185,0.086121,0.027567,-0.034895,-0.096495,-0.025208,-0.162758,-0.072659,EN,0,0
group_3765,0.070418,-0.121864,-0.127254,0.144154,0.004989,0.165763,-0.140881,0.067179,-0.066734,0.023969,0.141565,-0.153897,0.103278,0.118794,0.003439,-0.038825,0.026038,-0.036267,-0.033668,-0.009152,-0.044882,0.058351,0.036028,-0.062645,0.00829,-0.161042,-0.210801,0.024192,0.080957,0.155435,0.039058,-0.029476,-0.005307,0.057294,0.062116,0.086538,-0.03999,-0.117494,0.163531,0.123344,0.061041,0.005967,-0.072009,-0.191989,0.03743,0.008715,-0.157113,-0.015729,0.147067,0.106406,-0.013513,-0.059784,0.119783,0.239804,-0.036529,-0.027004,-0.067303,0.169258,-0.00845,0.106984,0.181952,-0.231408,-0.032498,0.083955,0.002452,0.134919,0.056693,0.121033,-0.028394,0.092642,0.044994,0.047587,0.030034,-0.00776,0.135611,-0.083229,-0.184874,-0.04955,-0.002472,0.152674,-0.100237,-0.033019,-0.05946,0.092813,-0.106592,0.147741,-0.01158,-0.093363,-0.043369,-0.056588,-0.015829,-0.063566,0.085837,-0.099206,0.110203,-0.233525,0.134233,-0.01981,-0.122192,-0.083156,-0.065945,0.036945,-0.058211,-0.158971,0.152571,-0.00451,-0.093715,0.226632,-0.033458,-0.182449,0.040772,-0.121891,0.096537,-0.177802,0.219494,-0.198762,0.040426,0.132845,0.128926,-0.031011,0.018529,0.191176,-0.009201,0.179711,-0.051588,-0.11968,-0.035586,0.027914,EN,1,0
group_4847,0.176482,0.027071,-0.003562,0.154474,0.01712,-0.044442,0.006527,-0.103245,0.030487,0.002246,-0.156739,-0.127777,0.083394,-0.003381,0.098269,0.000967,-0.026336,-0.059736,-0.015684,0.043243,-0.036017,0.084286,0.059374,0.083761,-0.045812,0.048056,-0.021538,0.000378,0.122249,0.085879,0.097977,0.12418,-0.099453,-0.157951,-0.140904,-0.03053,0.005187,0.10678,0.131264,0.006297,-0.01575,0.062858,0.108901,0.137555,-0.138218,-0.010221,0.071927,-0.014284,0.026085,-0.126146,0.138431,0.152638,-0.126334,-0.114961,-0.006752,-0.082359,-0.011487,-0.086766,0.141445,-0.094158,-0.087079,-0.150101,-0.097203,0.150266,-0.115285,-0.167154,-0.001874,0.011195,0.089502,0.123406,0.14208,-0.143904,0.003782,0.030081,0.032593,0.039116,0.140118,-0.064652,0.032916,0.041211,0.146434,0.005149,0.031071,0.134495,-0.128033,0.000775,-0.016664,-0.053773,-0.022633,0.051868,0.121296,-0.055878,0.072202,0.125771,-0.126156,-0.104961,0.163338,-0.114054,-0.168292,-0.016521,-0.081557,0.164791,-0.050614,0.01972,0.166147,0.02667,0.035932,0.027673,-0.043976,0.042957,-0.077611,-0.092089,0.065941,-0.060568,0.006548,0.066919,-0.018124,-0.032531,0.007594,0.044666,0.090022,-0.133174,-0.01256,-0.089007,-0.084598,-0.038226,0.10746,0.043996,EN,0,0
group_3771,-0.151962,-0.180434,-0.044578,0.021093,0.111905,0.028277,-0.139164,0.095104,0.119121,-0.043773,0.087411,-0.137357,-0.051174,0.147041,0.118078,-0.046337,-0.114992,-0.17381,0.006144,-0.024056,0.047286,0.077306,-0.018672,-0.019496,-0.160247,-0.010796,-0.068601,0.028159,0.060804,0.208105,-0.040912,-0.192141,0.163879,-0.162617,0.069322,0.102551,0.056182,-0.152351,0.159407,0.097792,-0.150485,-0.07592,-0.160978,-0.058875,0.074079,-0.122882,-0.107946,-0.025249,0.123234,-0.208873,0.023528,-0.01768,0.002216,-0.005777,0.012531,-0.025378,0.024466,0.019246,-0.036481,0.198897,0.043701,0.067348,0.096066,0.044986,0.141837,-0.047587,-0.004448,-0.011733,-0.094713,0.025483,0.07813,-0.184482,-0.003828,0.046935,0.020103,-0.094023,-0.080969,0.018267,0.084954,0.24479,-0.127172,-0.119872,-0.127824,-0.191893,0.059053,0.115191,-0.07697,-0.15675,0.04535,-0.037365,0.102893,-0.145036,0.067182,0.064419,0.147308,-0.223742,0.168487,0.072715,0.061303,-0.130547,0.038557,-0.017158,-0.09162,-0.123749,0.038783,-0.103034,-0.153001,0.228369,0.147577,-0.234543,0.054277,-0.201055,0.0822,-0.000295,0.105042,-0.01591,0.145785,0.077407,-0.050129,-0.155664,0.022723,0.123654,-0.104081,0.125707,0.073207,-0.145303,-0.181129,0.126184,EN,1,0
group_5067,-0.125749,-0.13515,0.14662,0.014591,0.06652,-0.139647,-0.098003,0.108867,0.011767,0.047004,-0.176159,0.09094,0.098824,-0.153488,0.12739,0.006761,-0.103385,0.010544,-0.033121,-0.077648,0.042242,-0.007151,-0.038492,-0.09563,0.161905,0.075161,0.00401,0.090732,-0.086862,-0.023937,0.030918,0.110978,-0.114834,-0.0522,-0.102535,-0.02839,0.041292,0.066361,-0.017119,0.025607,-0.003472,0.02036,0.105395,0.030371,0.096919,0.102177,0.109125,-0.11026,0.025103,-0.045183,0.036489,-0.076645,-0.048975,-0.023745,0.119593,-0.018112,-0.028548,-0.171295,-0.179835,0.145381,-0.023233,0.051722,0.107585,-0.086731,-0.052706,0.020242,-0.098544,0.018886,0.038252,0.044451,-0.105239,0.162811,-0.022124,-0.063799,-0.072907,0.026342,0.184808,0.01193,0.101105,-0.04585,-0.015053,-0.049787,-0.084049,0.034066,-0.04018,0.010141,0.084563,0.08819,0.050479,-0.052638,0.026805,0.111616,0.042035,0.060284,0.018428,-0.008536,-0.04721,-0.029235,-0.060914,-0.038116,-0.038911,0.002894,0.032338,0.122533,-0.202205,-0.050001,0.037046,-0.126605,-0.070183,0.089153,-0.036222,-0.091777,-0.086021,0.113172,-0.156653,-0.035552,-0.032408,-0.184893,0.053839,-0.094859,0.045586,0.108161,0.04129,0.066649,-0.141912,0.151809,-0.124875,-0.027067,EN,0,0
group_3773,-0.22882,-0.122957,-0.055064,0.003887,-0.006409,0.111785,-0.079347,0.107385,0.09393,-0.168683,0.01014,-0.167928,-0.115308,0.079395,0.041686,-0.115775,-0.080163,-0.015706,-0.177581,-0.140822,0.135459,0.096683,-0.142056,-0.101814,0.003232,-0.061426,-0.056477,-0.066621,0.102455,0.074975,0.110924,0.061473,0.065227,0.020268,0.140841,-0.048926,0.16923,-0.08219,0.088271,0.071799,-0.06745,-0.026438,-0.174479,-0.066566,0.137158,0.047593,-0.102521,-0.17776,-0.038294,-0.069467,0.12489,-0.048167,0.20319,-0.001322,-0.029519,0.084366,0.063751,0.029421,0.079733,0.065339,0.143503,-0.114058,0.059528,0.014667,-0.04189,0.146128,0.006331,0.033327,-0.103314,0.018037,0.086898,-0.011851,0.147575,0.18103,0.053199,0.030123,0.009317,-0.222432,0.100785,0.000709,-0.039283,-0.055238,-0.137015,-0.083723,-0.231964,0.151776,-0.118022,-0.14785,-0.170453,0.050095,0.029449,0.015828,-0.132033,-0.01025,0.064999,-0.057322,0.117839,0.025958,-0.212974,-0.033628,-0.016989,-0.076718,-0.22009,0.076619,0.123456,0.075902,-0.004014,0.108968,0.04216,-0.143252,0.052925,-0.185153,-0.057966,-0.027188,0.101523,-0.081719,-0.048083,0.096285,0.066078,-0.069217,-0.00875,0.072682,-0.217557,0.093863,0.024108,-0.044381,-0.208893,-0.039639,EN,1,0
group_5068,-0.119558,-0.094864,-0.112771,0.070293,0.056964,0.12722,-0.135098,-0.068562,0.1802,-0.029775,-0.088819,0.032488,-0.064743,-0.001659,-0.023043,-0.012401,-0.017917,-0.160194,0.026848,-0.109206,0.163452,0.099648,-0.0692,0.126332,-0.020648,0.120703,0.036523,0.081312,-0.009509,-0.016385,0.040456,-0.09613,0.074465,-0.099569,-0.011479,0.022751,0.028013,0.010049,0.068565,-0.087107,-0.016618,-0.022258,-0.022475,0.040216,0.010934,-0.007314,-0.033558,-0.0184,-0.054668,0.020789,-0.005401,0.029436,-0.096745,0.066211,-0.176914,0.111903,-0.123585,-0.058305,-0.017852,-0.059823,0.09216,0.027147,-0.003143,-0.031779,0.009306,0.064185,-0.164745,0.195,-0.12018,0.001179,-0.136123,0.080078,0.006542,0.091855,-0.067516,-0.126823,-0.187114,-0.145487,-0.124045,-0.067724,-0.034945,0.062725,0.032628,0.048387,0.03506,0.072658,-0.105563,-0.18924,-0.068804,0.037544,-0.073627,-0.093635,0.090009,0.15109,-0.1213,-0.083115,-0.05071,-0.027211,0.003039,-0.035397,-0.083787,-0.090651,0.058752,0.137556,0.107019,-0.054514,-0.018741,-0.103573,0.049163,-0.015715,-0.112453,-0.015197,-0.034336,-0.034813,0.114316,0.074795,0.17797,0.069675,0.153279,-0.147322,0.035969,0.04897,-0.007126,-0.120207,-0.083586,-0.070372,0.117529,0.018632,EN,0,0
group_3775,-0.152,0.001281,-0.047402,0.200197,0.079879,-0.010017,-0.137988,0.092846,-0.034616,0.001401,0.004084,-0.022683,-0.057035,0.077344,0.020424,-0.081714,-0.058415,-0.192985,0.07118,-0.078854,-0.042722,0.021001,-0.161421,-0.140251,-0.045652,-0.180743,-0.238075,-0.030321,0.099398,0.12597,0.040608,-0.049688,0.059764,-0.100661,0.035489,-0.087481,0.177544,-0.079759,0.147777,0.10455,0.017837,-0.14307,0.068344,0.012087,-0.01032,-0.037508,-0.118529,-0.066376,0.09494,0.003798,0.080258,0.140675,0.155215,0.1242,-0.209224,0.19066,0.101298,0.227827,0.212192,0.117674,0.034298,-0.237064,0.068669,-0.006479,0.045953,0.203028,-0.097481,0.137499,0.009202,0.173368,-0.086302,-0.10176,0.116852,0.149638,0.190097,-0.0837,-0.136537,0.030712,0.066978,0.094555,-0.039718,-0.081144,-0.128752,-0.085896,-0.097325,0.108191,-0.028279,-0.063391,-0.144458,-0.172988,-0.064677,-0.060712,-0.118108,-0.04352,0.048962,-0.03101,0.015178,0.188422,-0.167566,0.0778,0.006616,-0.167643,-0.055878,-0.057644,0.092742,-0.046348,-0.152876,0.019675,0.00799,-0.15135,0.185817,-0.166093,-0.028855,-0.05898,0.13576,-0.070527,0.103833,0.205627,-0.031356,-0.159531,0.199233,0.121986,-0.186931,0.150768,0.219303,-0.06391,-0.083069,0.143713,EN,1,0
group_5247,-0.024309,0.140058,0.098644,0.012827,0.029954,-0.148568,-0.112275,-0.047235,-0.011994,0.011821,0.086589,0.03166,-0.147884,-0.055236,-0.104083,-0.008691,0.081979,0.056562,0.035704,-0.04143,-0.038027,-0.006304,0.0321,-0.052309,-0.061847,0.164126,0.033406,0.025578,0.116706,-0.028494,0.014439,-0.041255,0.048953,-0.051654,0.068786,0.110708,0.033429,-0.128449,-0.143708,-0.142757,-0.006158,-0.006602,-0.013979,-0.157544,0.053765,0.012475,-0.139211,0.128772,-0.035878,-0.049727,0.065063,-0.040128,0.035931,-0.040589,-0.088482,0.017983,0.111152,0.00724,-0.12804,0.059558,0.006812,-0.007701,-0.047122,0.064622,-0.015384,-0.017429,-0.054976,0.090482,-0.039867,-0.107928,0.057216,0.014401,-0.096518,0.048519,0.142755,-0.007215,-0.065398,0.124761,0.042659,-0.133208,-0.022484,-0.161494,0.058268,0.106487,0.125418,-0.06224,-0.086137,-0.09771,0.128955,0.156943,-0.152936,-0.061199,-0.01836,-0.164424,0.158314,0.002964,0.142004,-0.153805,-0.070344,0.087726,0.002086,-0.14057,0.162701,0.128249,0.157612,-0.139526,-0.054541,-0.10258,0.087434,-0.142526,0.124683,-0.066206,0.086573,-0.003566,0.03585,-0.081161,0.052732,-0.130217,0.14927,-0.146939,0.042495,-0.004239,-0.09843,0.098443,-0.096977,0.041398,0.056299,0.153895,EN,0,0
group_3947,-0.16191,-0.102373,-0.168549,0.055875,0.163261,0.079937,-0.19632,-0.050506,0.028003,0.033344,0.192511,-0.084316,-0.079011,0.234073,-0.025589,0.063886,-0.056651,-0.234278,-0.209318,-0.142528,-0.019572,0.014629,-0.130222,-0.07536,-0.143183,0.034626,-0.122611,-0.097833,-0.013893,-0.029228,0.181883,-0.004506,-0.028324,-0.02238,0.076327,-0.013944,0.073502,-0.008154,-0.024072,0.024085,-0.046512,0.05091,-0.200687,0.032001,-0.012229,-0.091214,-0.088221,-0.030853,0.062391,0.035435,0.160006,0.083067,0.129918,0.061868,-0.170616,0.125756,0.145846,0.10653,0.011155,-0.045434,-0.007713,-0.159497,0.198571,0.001595,0.034719,0.181312,0.039795,0.039171,-0.108425,0.078193,0.213948,-0.063702,0.151982,0.009008,0.078244,-0.174613,0.055954,0.036512,0.025134,0.103819,-0.048297,-0.032228,0.012196,-0.141786,-0.039275,0.069338,-0.226853,-0.216874,0.081206,0.012975,0.052659,-0.155709,-0.160352,-0.104502,0.024828,0.017974,-0.008773,0.196543,0.018696,-0.020008,-0.233833,0.016975,0.08757,-0.092215,-0.029131,-0.183151,-0.170783,0.132667,0.10577,-0.071169,0.104368,-0.158676,0.062411,-0.008625,-0.053998,-0.115682,0.187182,0.022099,0.230359,0.009949,0.068155,-0.039885,-0.128466,0.059194,-0.042844,-0.085513,-0.078042,0.151494,EN,1,0
group_5572,0.137632,0.081537,0.158981,0.013436,0.061064,0.133343,0.138763,-0.09423,-0.159881,0.063633,0.140643,-0.09844,-0.03228,-0.133505,0.127383,0.054117,0.119771,-0.060509,-0.110508,-0.106315,-0.054843,-0.032732,0.117671,-0.105188,-0.120517,0.068972,0.009817,-0.056907,-0.057651,-0.006532,0.035106,0.171067,-0.106681,-0.106175,0.047253,-0.103211,0.084835,-0.030132,-0.021649,0.126029,0.062821,-0.08432,-0.078932,0.118404,0.002722,0.164021,-0.042596,0.09,-0.123885,0.034962,0.074044,0.042495,-0.028295,0.093548,-0.014986,0.05318,0.055365,-0.121074,-0.065537,0.022378,-0.037659,-0.051374,-0.035421,-0.051128,0.087254,0.074956,-0.025854,0.053045,-0.125031,-0.171809,0.109867,-0.076504,-0.060494,-0.038563,-0.053093,-0.082014,0.075382,0.132066,0.099879,0.044453,0.084912,0.089642,0.089798,0.004667,0.068497,0.058703,0.074021,-0.025749,-0.100122,-0.014172,-0.156645,-0.045721,0.084164,0.034064,-0.104688,-0.011056,0.132173,-0.025977,-0.172533,0.078776,0.096873,-0.143002,0.060252,-0.10734,-0.017928,-0.020007,0.04715,0.016461,0.152782,-0.146904,0.074766,-0.057431,0.014927,0.050832,-0.009443,0.043362,0.056629,0.034601,0.029025,-0.095201,0.176599,-0.082787,-0.160756,0.097114,0.050389,0.082446,0.114486,0.112442,EN,0,0
group_3949,-0.097517,-0.01721,-0.092884,0.028387,-0.025236,0.041837,-0.135956,0.220561,-0.107145,-0.184222,-0.020124,-0.047558,0.000589,0.035149,0.01573,-0.090117,0.041873,-0.223708,-0.11336,-0.06387,0.072555,0.01446,-0.226953,0.041596,-0.022132,0.033902,-0.084134,-0.131837,0.111036,-0.009544,-0.0208,-0.002925,0.002001,-0.216269,-0.101398,-0.065636,-0.003285,-0.096386,0.157045,0.136799,-0.072193,-0.147288,-0.111702,-0.135703,0.10167,-0.162824,-0.140566,0.00788,0.124158,-0.16131,0.168771,0.128423,0.055308,0.173057,0.073101,-0.087888,0.039274,0.123763,0.220489,0.237963,0.037254,-0.075173,0.071542,0.02135,0.057521,0.031265,-0.135355,-0.030686,-0.189208,0.158634,-0.02759,-0.192354,0.0911,-0.028078,0.137325,-0.042999,-0.12169,-0.020699,0.224841,-0.020219,-0.001029,-0.152022,-0.081672,-0.080185,-0.216337,0.039332,-0.086191,-0.190031,-0.029342,-0.07629,0.169024,-0.15611,-0.004744,0.059466,-0.089128,-0.026868,-0.062971,0.10691,-0.150909,-0.038014,-0.186058,-0.011633,-0.174412,-0.153323,0.141621,-0.11462,0.082012,0.226159,0.111915,0.090915,0.157379,-0.154241,0.143258,-0.025896,0.095504,-0.113271,0.03487,0.175618,0.037131,-0.19222,0.125544,0.076088,-0.22489,0.178503,0.027856,-0.041407,-0.052725,0.036661,EN,1,0
group_5967,0.032171,-0.076489,-0.032233,0.133737,-0.042629,0.116242,-0.076433,0.00266,-0.0638,-0.017255,-0.014294,-0.158109,-0.001407,0.078841,-0.082416,0.016874,-0.060654,-0.082048,0.098981,-0.067009,0.005276,-0.032159,-0.025432,-0.135631,-0.157974,-0.064179,-0.029919,0.069261,-0.001828,0.063143,0.089261,0.164335,-0.038745,-0.037556,0.052632,-0.046812,0.003269,-0.0557,0.02645,0.007715,-0.017827,-0.075325,-0.105887,0.037499,0.160141,-0.08943,-0.158483,0.065444,0.003374,-0.01874,-0.141009,-0.055736,0.073364,0.024626,0.044442,0.024852,0.056148,-0.049736,-0.029965,-0.045848,0.12522,-0.007067,-0.017204,-0.063441,0.098857,0.118589,0.017897,-0.015512,-0.002469,-0.041957,-0.117036,0.134431,-0.004988,0.073277,0.111251,-0.049378,0.051181,-0.059568,0.082189,0.08675,0.00692,-0.099691,0.058072,0.08085,0.026057,0.038221,0.141682,0.101438,-0.017515,-0.029814,0.024664,0.002614,-0.115827,-0.121035,0.077386,0.109777,0.018694,-0.038877,-0.149534,0.020438,-0.002188,0.004756,0.076941,-0.029523,-0.024924,-0.083831,-0.006931,-0.002131,-0.104672,-0.093405,0.019739,0.0966,-0.075044,0.166223,0.01127,-0.058551,0.001409,-0.017471,0.120277,0.086175,-0.076639,0.140714,-0.156967,0.014814,-0.053121,-0.057391,0.037143,0.081365,EN,0,0
group_4148,-0.103042,-0.175125,-0.080192,-0.088772,-0.049838,0.123043,-0.078533,0.15019,0.181766,-0.114083,-0.024216,-0.047231,-0.078429,0.067228,0.11125,-0.216436,0.027053,-0.152775,-0.079373,0.053689,0.033404,0.187771,0.053145,-0.01029,-0.221096,-0.031715,-0.133233,-0.181118,0.161571,0.099235,0.213629,-0.06113,-0.059391,-0.187878,0.164758,0.127768,0.014755,-0.109371,0.02041,0.025613,-0.148505,0.006314,0.094316,-0.040722,-0.034366,0.054854,-0.084611,-0.026734,-0.021007,-0.000534,0.039311,-0.094127,-0.038938,-0.016573,-0.020594,0.224023,0.106551,0.07148,0.072177,0.028424,0.028163,-0.092906,0.118196,0.030576,0.149301,0.077241,-0.102613,0.017593,-0.075999,0.232872,0.014069,-0.185371,0.201282,0.11268,0.082788,0.000345,-0.024516,0.046563,-0.018898,0.234624,-0.070178,-0.141299,-0.075913,-0.097657,-0.110692,-0.022977,-0.093976,-0.033387,0.068339,-0.09436,-0.081646,-0.039183,-0.169905,-0.103388,0.119467,-0.170556,0.057249,0.069112,-0.195032,-0.111932,0.005676,-0.103025,0.033053,0.06771,0.052995,-0.058111,-0.127995,0.008826,0.005885,-0.010466,0.028192,-0.060178,0.137134,-0.173329,0.110136,-0.128285,0.060433,0.079421,0.034511,0.02653,0.084536,0.115715,-0.038297,0.099445,0.048051,-0.181329,-0.031194,0.06733,EN,1,0
group_6071,0.134299,0.149309,0.138629,0.174883,0.033127,-0.157092,-0.009392,-0.037385,-0.042493,-0.024896,-0.038736,-0.009768,-0.134032,-0.074944,-0.068759,0.122906,-0.062233,-0.156333,0.091861,0.099885,-0.078747,0.057051,0.130639,0.017754,-0.028309,-0.006155,-0.10094,-0.042736,0.070019,0.054003,-0.01236,-0.009279,0.077081,-0.007041,0.043573,0.049505,-0.013833,0.082321,0.109344,-0.128866,-0.104058,-0.011431,-0.023147,-0.016404,-0.035758,-0.015053,0.156776,-0.040122,0.019374,-0.083389,0.034048,0.002894,0.010196,-0.005335,-0.107743,-0.014173,0.14973,-0.135615,-0.066508,0.000814,0.029017,0.098642,0.079732,0.023431,0.073377,-0.062338,0.12118,-0.039281,-0.052715,0.008744,0.162106,-0.113785,0.092762,-0.169085,-0.152753,0.152636,0.013396,-0.070958,-0.019379,-0.167661,-0.033518,-0.019119,0.006273,-0.006849,0.0336,0.053414,-0.14482,0.158854,-0.16618,-0.106618,-0.06725,-0.088068,0.176051,-0.112166,0.065306,0.006904,0.031724,-0.063401,-0.111429,0.069259,0.103707,-0.088358,0.170591,0.048487,-0.019509,-0.143102,0.137092,-0.022882,-0.095393,0.081279,-0.06253,-0.071529,0.098381,0.058575,-0.066379,-0.131238,0.023905,-0.017404,0.106812,-0.086459,0.028894,0.144488,-0.170849,-0.038314,-0.01018,-0.094574,-0.147192,-0.031583,EN,0,0
group_4152,0.014476,-0.058707,-0.026877,0.149952,0.122665,-0.053391,-0.025377,-0.023439,0.144791,-0.075952,-0.000908,-0.097303,-0.151409,0.060059,0.119786,-0.165586,-0.036656,-0.014244,0.085897,-0.073078,0.004613,0.121692,-0.168391,-0.095574,-0.080017,-0.078533,-0.093029,0.056842,0.23551,0.180551,0.134269,0.033817,0.131855,0.083676,0.066457,0.081686,0.115861,-0.171723,0.101282,0.038036,-0.036635,-0.171262,-0.170974,-0.202702,0.08809,-0.188572,-0.157109,0.099371,0.175545,-0.120824,-0.103548,0.120809,0.116734,0.014329,-0.057612,0.158126,0.147204,0.035348,0.156145,0.045145,0.002434,-0.061837,-0.059157,0.112261,0.079943,0.092605,-0.189849,0.086763,-0.125802,-0.074991,0.120291,-0.137942,0.100344,0.172387,0.038547,-0.08381,-0.026345,-0.074891,0.041547,0.024705,-0.046304,-0.103545,-0.243211,-0.031142,-0.209946,-0.057217,-0.057812,-0.026392,-0.020598,-0.095709,-0.000357,-0.07165,-0.142982,0.055288,0.113561,-0.074051,0.13902,0.15596,-0.018099,-0.098611,-0.050049,-0.220981,-0.110482,-0.033703,0.134762,-0.03674,-0.012322,0.087367,0.047685,-0.100062,0.108897,-0.034401,0.026895,-0.069341,-0.050995,0.027302,0.103321,0.065736,0.097856,-0.044462,0.068573,0.088248,-0.044227,0.059747,0.009994,-0.157727,-0.105095,0.047829,EN,1,0
group_6323,-0.051078,-0.011523,-0.099478,-0.005507,0.065432,0.024191,0.050212,0.026823,-0.017413,-0.03306,0.00862,-0.011759,-0.034878,0.079417,-0.005236,0.010883,0.02595,-0.076439,0.075526,0.206123,0.077305,-0.127008,-0.096405,-0.001085,-0.001638,-0.028044,0.052536,0.185429,-0.082913,0.103946,0.011805,0.217399,0.017919,0.029783,0.102825,-0.192899,-0.225731,-0.011642,-0.052289,-0.051207,-0.130368,-0.039061,0.060631,-0.019871,0.045993,-0.04551,0.205585,-0.032039,-0.042986,-0.038571,-0.113747,0.044099,0.009258,-0.007035,0.143717,-0.031819,0.07925,-0.020003,-0.03654,0.053511,-0.087208,0.052346,0.002403,0.069881,-0.137528,-0.076068,0.157559,-0.025173,0.090107,-0.04295,-0.104271,0.034393,-0.106679,-0.042329,0.01471,0.10393,0.183879,0.004462,-0.073856,-0.129601,0.032311,0.179555,-0.057784,-0.069066,0.08507,-0.115739,0.154915,0.098341,-0.100674,0.126391,-0.174303,-0.060131,0.044834,0.194769,-0.22234,-0.059365,-0.056166,-0.043728,-0.018185,0.18781,-0.020084,0.146271,-0.085179,0.080253,0.065721,0.080707,0.126968,0.080879,-0.085849,0.064251,-0.031031,0.144985,-0.041206,0.081358,-0.060067,0.040122,-0.106743,0.057361,0.037417,-0.025308,0.104672,0.020841,-0.061512,0.064763,-0.011596,0.091875,-0.051834,-0.025612,EN,0,0
group_4749,-0.078468,-0.170907,-0.092253,0.083425,-0.023755,0.158125,-0.012559,0.000766,0.069983,0.009023,0.130609,0.028777,-0.104115,-0.035216,-0.055959,-0.025065,0.040841,-0.005444,0.017315,-0.218662,0.042436,0.075902,-0.095273,-0.108704,0.02534,-0.098618,-0.049536,-0.133757,0.160904,0.059761,0.052215,-0.178368,0.070626,-0.126747,-0.067619,0.005927,0.05821,0.005228,0.178611,0.022361,0.056847,-0.108612,-0.023417,-0.128534,0.049663,-0.101207,-0.062048,0.005866,0.198958,-0.205512,-0.034396,0.168711,0.110408,-0.087595,-0.04266,0.066407,0.043239,0.123254,0.128522,0.03652,0.183238,-0.063231,0.168123,0.072097,-0.070884,-0.02815,-0.052378,0.109679,-0.000434,-0.011913,0.064602,-0.14087,0.035362,0.029474,0.189017,-0.165297,-0.193652,-0.048396,0.155539,0.123208,-0.113401,-0.108634,0.047508,-0.049568,-0.091796,0.141601,-0.090724,-0.004945,-0.06328,0.017542,0.031997,-0.217755,-0.203815,-0.087606,0.085666,-0.06324,0.183938,0.003634,0.026757,-0.18395,0.013123,-0.199212,-0.081537,-0.142829,-0.073107,0.00481,-0.108324,0.204704,0.103892,-0.114444,0.031322,-0.129092,-0.050181,-0.023642,0.14912,0.060997,0.18413,0.198204,0.018932,-0.062149,0.002717,0.194843,-0.090188,0.166874,0.037157,0.035383,-0.044589,0.215561,EN,1,0
group_6390,-0.039191,0.085645,0.122663,-0.202281,0.044341,-0.149827,0.059904,-0.072092,0.007063,0.019812,0.038628,0.028301,0.068941,-0.008947,-0.051116,0.161587,0.044445,0.084511,-0.027929,-0.11593,0.095347,-0.161273,-0.015858,0.082117,0.050294,-0.039803,-0.10611,0.064839,-0.084177,-0.072535,-0.043331,0.091137,0.091727,-0.005474,-0.02902,-0.026148,-0.036176,0.011512,-0.124514,0.102319,-0.059666,0.070165,0.119715,-0.108721,-0.010468,0.044352,0.15547,-0.04557,-0.000407,0.092523,0.035279,0.034012,0.060362,-0.001714,0.046145,-0.040134,0.121564,-0.002414,0.039589,0.104703,0.042667,0.092734,-0.157341,-0.067491,-0.130441,-0.075672,-0.019441,0.087843,0.016637,-0.100305,0.04072,-0.044808,-0.211623,-0.053186,-0.128941,0.181507,0.062732,-0.145556,-0.204338,-0.065531,0.066234,-0.052826,0.164756,0.049986,-0.140371,0.093953,0.071172,0.185926,0.060728,-0.009098,-0.122636,0.111868,0.086223,-0.006419,-0.111208,-0.018107,0.031645,0.043562,-0.119926,-0.074127,-0.075369,0.118793,0.145961,-0.050972,-0.019515,-0.03414,0.204027,0.047651,0.018725,-0.011816,-0.153299,0.153132,-0.116762,0.010105,-0.004512,0.010365,-0.041704,0.044933,-0.158789,0.030714,0.046757,-0.033511,-0.080157,0.021221,-0.180868,0.029327,-0.127888,-0.00509,EN,0,0
group_505,-0.030131,-0.001235,-0.030146,0.029555,-0.011766,0.059301,0.002561,0.182136,0.047485,0.076236,0.063666,-0.136025,0.010895,0.11854,-0.063749,-0.014073,0.049769,-0.083793,-0.224183,-0.077041,0.046558,0.076486,-0.118115,0.062675,-0.028573,-0.201532,-0.127024,-0.022842,0.078286,-0.061818,0.138091,0.058628,0.075188,-0.100605,0.225806,0.05014,-0.047366,0.057111,0.080746,-0.066039,-0.093403,-0.08015,-0.225882,-0.161544,0.110417,-0.015444,-0.142274,-0.085658,-0.10864,-0.17441,0.10627,0.143549,-0.051299,0.113412,-0.220609,0.185371,0.102043,0.212374,0.091039,0.196803,0.177063,-0.064048,0.113372,0.126845,-0.020205,0.090318,-0.101689,-0.096548,-0.169189,-0.053101,0.080542,-0.116069,0.109608,0.160271,0.151481,-0.024403,-0.221322,0.007547,0.015776,-0.050845,-0.089947,-0.217343,-0.100407,0.081924,0.064553,0.146275,-0.053164,-0.13935,-0.219359,0.006947,-0.02401,-0.102022,-0.019417,-0.02864,-0.072622,-0.171393,0.061856,-0.078912,-0.046655,-0.040364,-0.142226,-0.201186,0.033278,-0.185824,0.002909,-0.071659,-0.030632,0.104902,-0.065479,-0.158923,-0.048772,-0.078399,-0.070987,-0.106758,0.042532,0.030463,0.067784,0.091952,0.006612,-0.225454,0.157705,0.081798,-0.004921,-0.046443,0.17858,-0.204702,0.063482,0.016202,EN,1,0
group_6514,-0.051323,0.049641,0.133438,-0.067958,-0.003735,0.064917,-0.011528,-0.128458,-0.142802,-0.052812,0.021538,-0.105279,0.102302,0.108917,0.097834,-0.070638,0.065435,-0.012493,-0.108223,0.028009,0.047889,-0.086679,0.055338,0.000663,0.038997,-0.0666,0.089861,0.127992,0.074859,0.014024,0.049908,0.035152,-0.015909,0.108936,-0.029173,0.02202,-0.076725,0.090067,-0.084657,-0.022615,0.039322,-0.004783,-0.147392,-0.010989,0.141641,-0.051718,0.031231,-0.116809,-0.009162,-0.05243,-0.018716,0.084869,-0.073617,0.10334,0.099608,0.063723,-0.039482,0.080436,0.019228,-0.02005,0.151077,-0.04085,-0.045624,0.018678,0.000672,-0.095375,0.042423,0.030234,-0.037965,-0.137242,-0.034483,-0.026309,-0.016142,-0.046619,0.070154,0.050327,-0.020766,-0.035341,-0.122548,0.166761,-0.138475,0.104177,-0.121692,-0.026552,0.084442,0.021121,-0.095593,-0.115013,0.047821,0.012507,-0.156615,-0.152318,0.113169,-0.170233,0.054597,0.032538,-0.058589,0.089786,-0.011683,0.019077,0.048029,-0.056911,0.116213,-0.063132,0.039725,-0.077448,0.165632,-0.045704,-0.012523,0.143498,0.008304,0.113186,-0.079886,0.098387,0.044059,-0.172059,0.045414,-0.024399,-0.023543,0.09045,0.046754,-0.007714,0.015594,-0.064656,0.068844,0.116408,0.043485,0.013884,EN,0,0
group_5179,-0.206487,-0.007092,-0.081661,0.105281,0.226345,0.070824,-0.161878,0.047609,0.085309,-0.059442,-0.051027,-0.120103,-0.222473,0.136483,0.097346,-0.102004,-0.071344,0.064677,-0.170563,-0.148237,0.042226,0.06805,-0.05775,-0.019036,0.007833,-0.02262,-0.122552,-0.213396,0.01755,0.060703,0.247117,0.013529,0.111962,-0.033858,0.08556,0.048776,-0.026814,0.067274,0.173392,0.074391,-0.100647,-0.024474,-0.116979,-0.041346,0.107862,-0.154542,-0.106619,-0.125387,0.002787,-0.108981,0.130779,0.029023,-0.012624,0.0063,-0.04351,0.107747,0.11463,0.123972,0.031492,-0.05835,0.039309,-0.148911,-0.01809,0.08773,0.083306,0.157593,-0.062777,0.248048,-0.014573,0.158897,0.017286,-0.052094,0.00127,-0.014058,0.039473,-0.193282,0.060915,-0.029886,0.061057,0.001019,-0.018691,0.068324,-0.228056,0.035625,-0.003924,0.15073,-0.093523,0.083184,-0.080634,-0.01731,0.108239,-0.018811,-0.055299,-0.136939,0.165765,-0.03342,-0.016847,0.111896,0.083626,-0.089507,-0.015814,-0.147859,-0.003132,-0.187862,0.133718,0.02457,-0.097025,0.124844,0.08335,-0.208276,0.215035,-0.132354,0.075031,-0.177654,0.202599,-0.107811,0.132332,0.046306,0.120104,-0.143353,0.146811,0.035933,-0.015611,0.131273,-0.004456,-0.20917,-0.005969,0.049971,EN,1,0
group_6642,-0.077499,-0.091031,-0.027805,-0.133328,0.070264,-0.171643,0.026916,-0.155239,0.059394,-0.046991,-0.047427,-0.071751,0.162304,0.102848,0.081166,0.101328,0.041449,-0.037334,0.094596,0.00834,-0.100056,0.033317,-0.03734,0.046869,-0.07804,-0.140125,-0.090005,-0.078615,0.026018,0.002,0.097281,-0.118162,0.030302,0.043284,0.016268,-0.019577,-0.050191,0.044596,0.068205,-0.0194,-0.073302,-0.004998,-0.051499,0.059955,0.027449,0.102244,-0.058887,0.176193,0.015976,0.012157,-0.055896,-0.104106,0.027935,0.154631,-0.015967,-0.11944,0.01651,-0.013572,0.011962,-0.014623,-0.060023,0.004647,0.020933,0.114558,-0.093052,0.085042,0.04253,0.001561,0.135236,0.003027,0.037915,0.032267,-0.008382,-0.00869,0.067366,-0.149879,0.149529,0.044183,0.051764,0.034297,0.090337,0.019557,0.080945,0.048117,-0.039914,-0.086341,0.062555,-0.075322,0.119942,-0.037818,0.088962,0.073919,0.166948,0.045948,0.029877,0.027775,-0.03931,-0.103731,0.068008,0.125301,-0.009211,-0.061647,-0.070654,0.081304,-0.15376,-0.012043,-0.05533,-0.054003,-0.033303,-0.004519,0.026377,-0.047832,0.019848,0.038988,-0.074687,0.094814,0.020045,-0.02599,-0.097568,0.026416,0.084267,0.119092,-0.03197,0.092163,-0.036719,-0.014834,-0.082,-0.124093,EN,0,0
group_5359,-0.077908,-0.182098,0.002625,0.018952,-0.066618,0.067449,-0.181408,0.146566,0.040322,-0.111207,-0.064586,0.022687,-0.130401,0.229252,0.139559,0.029067,-0.134622,-0.069493,-0.108214,-0.09712,0.098939,0.017369,-0.061347,-0.103748,-0.042448,-0.117577,0.023715,-0.086567,0.048031,0.210686,0.02109,-0.070437,0.149365,-0.160968,0.222929,0.119259,0.204908,-0.072477,0.055249,0.202628,-0.23196,0.098229,-0.097256,-0.05705,-0.00391,-0.141784,-0.041404,0.05673,0.098973,-0.04936,-0.090906,0.009811,0.056131,0.01945,0.00568,-0.062443,-0.006666,0.012115,-0.094522,0.045795,0.062694,-0.075807,0.01706,0.17754,0.110501,-0.020431,-0.068132,0.078887,-0.040087,0.138166,-0.082277,-0.097979,-0.028688,0.089124,0.039651,-0.018637,-0.18157,-0.162809,0.148458,-0.039374,-0.141177,0.015679,-0.038863,-0.126165,-0.109355,0.066122,-0.059313,-0.004329,-0.127214,-0.093162,-0.003777,-0.185423,0.023134,-0.011483,0.055285,0.064962,0.027881,0.069004,0.034377,-0.031842,0.023448,-0.102229,-0.037733,-0.093955,0.00398,-0.067293,-0.166292,0.151631,0.107632,-0.154996,0.001543,0.077949,-0.14131,-0.055781,0.137814,-0.195293,0.000516,0.116154,0.147902,0.09227,0.117266,-0.029848,-0.185359,0.151597,0.027512,0.032213,-0.200049,0.094309,EN,1,0
group_6837,-0.0346,-0.151808,0.171204,0.04117,0.092802,-0.005154,-0.042721,-0.107858,0.001486,0.085644,-0.070932,0.065738,0.046111,-0.047536,0.015749,0.094905,0.008106,0.16527,0.067648,-0.050719,0.153327,-0.005709,-0.076482,0.009013,0.127965,-0.032537,0.034623,0.019747,-0.024365,-0.084121,-0.067689,-0.016903,0.134598,-0.016287,0.094439,-0.136247,0.159471,0.051443,0.048336,-0.076531,-0.00088,0.092297,-0.126158,0.098844,-0.067867,0.115292,0.064286,0.012522,0.129498,0.047128,-0.10126,0.019866,0.002249,0.051266,0.014893,0.086526,0.00494,0.071299,0.030064,-0.013921,0.023939,0.043859,0.036283,0.01767,0.167318,-0.077844,0.026487,0.093998,-0.02226,0.043025,-0.04852,-0.01864,0.006696,0.019153,-0.067778,0.033972,-0.002501,0.014756,0.072613,-0.012243,-0.105343,-0.088335,-0.087388,-0.058779,0.01605,0.086283,-0.013319,0.084728,0.036208,-0.011736,-0.137872,0.080699,0.163773,-0.000308,-0.072981,0.112212,0.167049,-0.060757,-0.031537,-0.001567,0.062209,0.136129,0.01776,-0.022201,-0.041857,0.046351,-0.173992,0.073271,-0.020591,0.154135,-0.162737,-0.030005,-0.118957,0.038349,0.045758,0.154642,-0.03689,0.105761,-0.073147,0.116199,-0.050806,-0.055768,-0.024421,-0.030658,-0.111377,0.078455,0.08955,0.096952,EN,0,0
group_5360,-0.088556,0.014293,-0.135159,0.180773,-0.003541,0.079646,-0.155057,0.19999,0.18153,-0.101887,0.057366,-0.239632,-0.128866,0.139614,0.003136,-0.017975,-0.228046,0.100833,-0.084409,0.044637,0.183161,0.036372,-0.051167,0.087816,-0.233512,0.017756,-0.150295,-0.120245,0.03655,0.087473,0.095107,-0.033846,0.124423,-0.086486,0.113389,-0.015655,0.119588,-0.152124,-0.055779,0.039593,-0.041172,-0.155716,-0.079446,-0.099247,-0.017054,-0.055566,-0.058273,-0.15043,0.023395,-0.044136,0.132959,0.132838,-0.091132,0.055751,-0.097912,0.142764,0.015129,0.220033,0.157252,0.057563,0.062342,-0.09078,0.082482,0.02796,0.125768,-0.029895,-0.057269,0.19253,-0.004123,0.14977,0.154594,0.053933,0.0688,0.188854,0.030124,-0.020183,-0.169076,0.0194,-0.0349,0.067169,0.018916,-0.232816,-0.209166,0.033757,-0.184936,-0.044387,-0.036433,-0.079851,-0.046144,-0.02672,-0.016964,-0.142483,0.012199,-0.012527,-0.063028,0.001289,0.139826,0.084139,-0.114893,0.069382,-0.071297,-0.11441,0.007353,-0.056424,0.118359,-0.082871,-0.105467,0.022938,-0.031651,-0.061851,0.085812,-0.105365,-0.119,-0.038436,0.166346,-0.005021,-0.039351,-0.00576,0.134627,-0.075322,0.108325,0.019653,0.023989,0.202807,0.107915,-0.115102,-0.176207,0.041683,EN,1,0
group_6841,-0.014348,0.038619,0.006912,-0.037911,-0.030964,0.063063,-0.057918,0.057481,-0.082119,-0.129916,-0.159334,0.174578,0.085291,0.05859,0.003125,0.04726,0.07029,-0.072101,-0.072604,-0.024289,-0.045533,-0.010744,-0.003002,-0.060237,-0.074329,0.006559,0.026377,-0.054258,-0.153101,-0.097951,-0.040254,0.024748,-0.056399,0.009173,-0.017963,0.045356,0.000675,0.14555,-0.066927,-0.105275,0.003402,0.063132,-0.003266,-0.04441,0.016286,0.05881,0.0531,-0.069044,-0.096429,0.020939,-0.132329,-0.018252,-0.019721,0.006366,-0.056446,-0.065921,-0.07927,-0.051404,0.061655,0.036388,-0.174799,0.050974,0.0228,-0.170309,0.152239,-0.174461,0.091131,0.013437,-0.019442,-0.0465,0.023491,-0.014453,0.092327,0.075393,-0.037046,-0.130405,-0.025974,-0.119296,-0.016256,-0.037163,-0.11763,-0.101774,0.067674,-0.096331,-0.003319,-0.127929,-0.011092,0.146784,-0.081314,-0.149236,0.01074,0.020265,-0.082174,-0.149614,-0.114714,-0.116284,-0.064276,-0.032583,0.048235,-0.081016,-0.07769,-0.086687,0.004259,0.133312,-0.108495,0.104758,0.145379,0.148737,-0.081497,0.107504,-0.026281,0.020748,-0.007046,-0.164234,0.101728,0.001835,-0.056718,-0.008635,0.003437,0.071853,-0.018988,0.033983,0.021452,-0.061153,-0.034602,-0.068432,0.139891,0.050323,EN,0,0
group_5495,0.084623,-0.04907,-0.09695,0.050201,0.110638,0.055306,-0.231449,0.180124,0.052603,0.045903,-0.025282,-0.089459,-0.173358,0.134935,0.076008,-0.105703,-0.046711,-0.126871,-0.135467,-0.166953,0.070957,0.169328,0.031811,-0.04087,-0.06101,-0.15113,-0.052498,-0.007248,-0.070178,0.176208,0.06262,-0.191324,-0.048916,-0.113918,0.059907,-0.006574,0.145335,-0.143087,0.032835,-0.040459,-0.11096,-0.038846,-0.082824,-0.054314,0.135268,0.000136,-0.1577,-0.0893,0.007042,-0.106168,0.126527,0.022423,0.154476,-0.059903,-0.057732,0.088828,0.182364,0.05974,0.005502,-0.017709,-0.068826,-0.18134,0.099005,0.110169,0.045549,0.113707,-0.134428,0.139955,-0.108976,-0.04833,0.006476,-0.018862,-0.059026,0.07827,0.084209,-0.113859,-0.13677,-0.006054,-0.055031,-0.018504,-0.077194,-0.048118,-0.169554,0.057848,-0.039032,0.079489,-0.163588,-0.17645,-0.062932,0.065233,0.149166,-0.031171,-0.086347,-0.123218,0.104119,-0.138747,0.062111,0.01839,-0.125761,-0.216898,-0.136974,-0.127209,-0.185023,0.058479,0.163413,-0.042107,0.03136,0.042203,0.085309,0.059375,0.1358,-0.032029,-0.111091,-0.242125,0.139973,-0.075353,0.013606,0.026203,0.037461,0.017476,0.066126,0.071958,-0.179317,0.021437,0.049852,-0.063349,0.049537,-0.018955,EN,1,0
group_6849,-0.077247,0.118425,0.016544,-0.034994,0.053012,-0.096274,-0.002361,0.005034,0.075801,0.025265,-0.040088,0.010937,-0.076306,-0.011905,0.060622,-0.070939,0.063117,-0.038816,0.124629,-0.020445,-0.000478,0.041364,-0.035845,-0.027581,-0.128595,-0.006853,0.063557,-0.052438,-0.010407,-0.075161,0.145609,-0.003408,-0.091153,-0.047034,0.098203,-0.048902,0.08133,0.040624,0.017097,-0.154694,0.053026,0.022719,-0.020697,0.081187,0.116446,0.065611,0.026669,-0.001067,0.026115,0.028447,-0.059835,0.064414,-0.092444,0.088246,-0.020055,0.135064,-0.140593,0.038112,0.007859,0.173182,0.011842,0.041968,0.154991,0.008062,0.019768,0.13931,-0.037523,0.007442,0.055168,-0.133197,-0.06903,0.013994,-0.020887,-0.114791,-0.046219,0.045511,-0.140628,0.014234,0.01769,0.087527,0.024702,-0.077791,0.041102,-0.005662,0.126922,0.134752,-0.016805,0.073058,0.099529,0.034837,-0.049066,0.123681,0.07285,-0.131021,-0.022758,-0.036424,-0.037768,-0.048015,-0.164922,0.01145,-0.144022,0.129424,-0.160108,0.000652,-0.01987,-0.013496,0.076255,-0.030218,0.144196,0.074386,0.101491,0.157875,0.084059,-0.044437,-0.012782,-0.031944,-0.002412,0.051367,-0.057062,-0.087543,0.126405,-0.014123,0.089943,-0.105293,-0.028802,0.073207,-0.139061,-0.078283,EN,0,0
group_5496,0.070632,-0.088864,-0.055427,0.099597,0.177085,0.007208,0.037672,0.015056,0.217259,-0.096609,-0.040461,-0.091509,-0.002034,0.144681,0.154622,-0.104281,-0.014759,0.009828,0.077478,0.046326,0.165578,0.025518,0.046538,-0.100034,-0.086671,0.042127,-0.125662,-0.181392,0.069951,0.068407,0.088388,-0.108257,0.140256,-0.083373,0.023238,-0.030732,-0.048858,-0.046681,-0.024083,0.062341,0.094013,-0.12228,0.076463,-0.090867,0.051022,-0.094943,-0.092659,-0.080813,0.117204,0.022245,0.174618,0.172884,0.128733,0.092534,0.043853,0.141819,-0.009999,-0.055794,0.095605,0.052677,0.022273,0.009695,0.025498,0.190506,0.034619,0.210295,-0.067203,0.03239,-0.044896,0.079682,0.194545,-0.046971,0.003547,0.036016,-0.023444,-0.099827,-0.071157,-0.208896,0.080134,0.01915,-0.013699,-0.078802,0.02561,-0.035638,0.09818,0.039663,-0.081895,-0.056963,-0.165882,-0.120645,0.002327,-0.084232,-0.090417,-0.028592,0.073128,0.03979,0.084124,0.179263,-0.040637,-0.167033,-0.057866,-0.026838,0.027361,-0.091952,0.078687,0.026024,-0.240364,0.057491,-0.068245,-0.074928,0.127598,-0.007284,0.03229,-0.112088,0.225793,-0.090103,0.033728,0.088125,-0.026699,0.051102,0.183604,0.052575,-0.212311,-0.043062,0.051152,-0.073277,-0.163053,0.156133,EN,1,0
group_7402,0.015193,0.090547,-0.103817,0.092218,0.095775,0.066905,-0.027463,0.100119,0.071959,-0.120465,0.046323,-0.12618,-0.083312,0.076346,0.02482,0.135664,0.111977,-0.050158,-0.178847,-0.011611,-0.017971,0.028159,0.072689,0.120684,0.023256,0.023641,0.09228,-0.192456,0.093238,0.096442,0.09164,-0.154824,-0.039613,-0.016828,0.093044,0.0916,-0.028458,-0.020212,0.079847,0.086727,0.008092,-0.190563,-0.016319,0.161735,0.182893,-0.092296,0.009447,-0.147279,-0.018453,-0.045092,-0.065531,0.050563,0.198702,0.178177,0.029402,0.082395,-0.105384,-0.021468,0.083379,0.155169,0.111807,0.034996,0.11374,-0.103447,-0.037696,0.193529,-0.073024,0.063683,-0.102368,0.00931,-0.047822,-0.093439,0.1032,0.177272,-0.073729,0.056001,0.095757,-0.035939,0.131984,0.025838,0.015851,0.053371,-0.013965,-0.069791,-0.030676,-0.023031,0.040249,-0.0353,0.001592,-0.088381,-0.02341,-0.152582,-0.135494,0.001337,0.067502,0.064876,0.006693,-0.132791,-0.125686,0.086189,0.048047,0.048452,-0.07638,-0.078646,0.014619,0.048356,0.071532,-0.149869,0.053511,0.089058,-0.146457,-0.001526,-0.05342,-0.068174,-0.076065,-0.053455,0.048466,0.160691,0.033758,0.036599,0.054196,-0.096287,-0.035193,-0.016342,-0.07847,-0.037886,-0.176177,0.075927,EN,0,0
group_5497,-0.108022,0.007785,-0.022773,0.081505,-0.009203,0.066488,-0.195665,0.158461,0.034369,-0.165295,-0.034616,-0.176802,-0.034614,0.176154,-0.074313,-0.140831,-0.020881,-0.106978,-0.056665,-0.050246,-0.014562,0.083621,-0.130727,-0.081437,-0.10806,-0.000888,-0.036023,-0.109149,-0.01096,-0.098052,0.150925,-0.066425,0.082794,-0.02526,0.082144,0.076526,0.037187,0.020464,0.040532,0.116646,-0.111838,-0.090314,-0.001165,-0.043998,0.114734,0.029703,0.064304,-0.0941,0.036006,-0.025094,0.005849,0.106727,0.140675,0.180545,-0.060721,-0.033134,-0.038159,0.092462,-0.090956,0.085384,0.233175,0.028773,0.121505,-0.002845,0.150534,0.12813,-0.116939,0.131916,-0.192934,0.095755,0.078642,-0.124267,-0.006133,0.202158,0.041288,-0.110646,-0.103331,-0.092647,0.13377,0.042289,-0.059163,0.053704,-0.038416,-0.209749,-0.035637,0.145406,-0.002442,-0.084851,-0.026292,-0.106686,-0.033569,-0.156042,-0.111839,-0.032532,0.091915,-0.139403,0.031645,-0.034629,0.00096,-0.064289,-0.085138,-0.138002,-0.112793,-0.102404,0.038895,-0.097556,-0.237374,-0.099035,-0.043891,0.100032,-0.03981,-0.160665,0.167617,-0.031966,0.088704,-0.072209,0.166029,0.06075,-0.019316,-0.191123,0.124266,0.088865,-0.142672,-0.021089,0.158261,0.06576,-0.021092,0.048909,EN,1,0
group_80,-0.133884,-0.019762,-0.129114,-0.119209,-0.071916,-0.021563,-0.157582,-0.029616,-0.000676,0.158055,0.004236,0.080976,0.029875,-0.069788,0.01137,-0.089781,-0.031061,0.06741,0.109884,0.027504,0.056498,0.040762,0.161414,0.084676,-0.039094,-0.083876,-0.152607,0.073242,0.153884,0.144397,0.129911,-0.155333,-0.110365,-0.089724,0.131383,0.105305,0.009091,-0.175106,-0.040985,-0.02286,0.009534,0.082761,-0.086501,0.133288,0.015342,0.008127,0.081596,0.070668,0.013881,-0.04472,-0.119516,0.111143,0.049511,0.008957,0.016531,-0.011657,-0.000339,0.15901,0.171314,-0.115629,-0.050812,-0.023333,0.109933,-0.050766,-0.03453,0.003761,0.163984,0.131167,-0.024268,8.2E-05,0.032811,-0.101278,-0.09103,0.14052,-0.077008,0.136526,-0.022646,-0.08643,-0.111271,-0.031841,0.129151,-0.032167,-0.056907,-0.015892,0.080923,0.123386,-0.006425,0.0245,-0.096757,-0.024725,0.076425,-0.053698,0.063312,0.097159,-0.078927,-0.018556,0.036987,0.05239,-0.148601,-0.021273,-0.106408,-0.143064,-0.116531,0.0754,-0.06583,-0.027863,-0.032697,-0.045871,0.015097,0.101083,0.109612,-0.03307,0.048099,-0.110453,-0.112422,-0.048206,-0.055025,0.076545,-0.075409,0.044493,-0.035392,-0.023368,0.040119,-0.01713,-0.066914,-0.036618,0.00848,0.134478,EN,0,0
group_5971,-0.129462,0.019586,-0.064571,0.185232,0.035659,-0.103101,-0.142513,-0.001622,0.039954,-0.142676,0.061018,-0.173716,-0.042837,0.03641,0.164778,0.096133,-0.222278,0.049179,-0.069837,-0.067057,0.138596,0.019539,-0.121446,-0.014608,-0.150962,-0.076922,0.001314,-0.154163,0.135459,0.113689,-0.011422,-0.04193,0.065632,-0.009028,-0.004073,-0.058626,0.098135,-0.175371,0.020433,0.050072,0.04619,-0.051706,-0.14416,-0.053658,0.21263,-0.024159,-0.133541,-0.226488,0.160683,-0.08815,-0.004115,0.080757,0.12488,0.12229,-0.060852,0.176343,0.032914,0.10707,0.02225,-0.053524,0.157872,-0.054345,0.081728,-0.018716,-0.012152,0.124269,0.054778,0.198794,-0.158487,-0.025745,0.111778,-0.137666,0.129093,-0.016509,0.207432,-0.039098,-0.136998,0.072727,0.032657,0.13176,-0.207559,-0.041958,-0.134424,-0.23568,-0.121838,0.199053,-0.064172,0.031747,-0.065554,-0.120667,0.091932,-0.089639,-0.135739,-0.161089,0.116224,-0.170507,0.093496,0.07233,-0.129492,-0.121106,-0.108589,-0.220323,0.024385,-0.073017,0.232803,-0.099932,-0.070148,-0.078832,0.069765,-0.014026,0.080099,-0.148308,0.070365,-0.100741,0.052386,-0.039171,-0.017451,0.114487,0.030114,-0.036887,-0.067444,0.085219,-0.066616,0.132259,0.054922,-0.061971,0.004533,0.001286,EN,1,0
group_93,-0.024483,-0.112434,-0.082469,0.025301,0.092685,0.031672,0.147562,-0.117413,0.008988,-0.106678,0.107222,-0.018148,-0.120206,-0.094594,0.022614,-0.108344,-0.161794,-0.11691,-0.05447,-0.150914,-0.022717,0.033664,0.082723,0.007763,-0.090161,0.022942,-0.09768,-0.129371,0.165986,-0.002329,0.129695,0.104145,0.148498,-0.047151,0.096522,-0.029655,-0.101528,0.038747,0.004326,0.046246,-0.039515,0.11652,-0.081532,-0.118433,0.037045,-0.047949,-0.027901,-0.04262,-0.052526,0.132751,-0.124656,0.163877,0.017418,0.032995,0.15055,-0.121746,0.021402,-0.104386,0.013323,-0.158345,0.006944,0.063546,0.037358,0.130704,0.099972,0.057585,0.098353,0.000279,-0.006,-0.054004,0.027541,0.102077,0.040149,-0.057839,0.016214,-0.05328,-0.130369,-0.0951,-0.083974,-0.110858,0.0977,-0.017838,0.000395,0.118242,-0.030265,-0.078725,0.102476,-0.015272,0.101375,0.049077,-0.000615,0.089664,-0.123246,-0.037143,-0.07902,-0.116427,-0.024729,-0.042841,-0.014162,-0.104187,0.09661,-0.069996,-0.048664,0.107691,-0.04787,0.086753,-0.01108,-0.043777,0.033665,-0.112521,-0.063991,0.043238,-0.080754,-0.009657,0.022915,-0.174446,-0.014388,0.172235,-0.103355,-0.100839,-0.065743,0.00929,0.012718,0.039138,0.006668,-0.130533,-0.018857,0.0433,EN,0,0
group_626,-0.157274,-0.008478,-0.138435,-0.063259,0.187817,0.19069,-0.082144,0.059656,0.024528,-0.058713,0.12888,0.091293,-0.007391,0.175969,0.010329,-0.17584,-0.039694,-0.124302,-0.180941,-0.098725,0.157051,0.070594,-0.155906,-0.059534,-0.168442,0.104622,-0.148194,-0.000486,-0.039695,0.10254,0.083173,0.020993,0.012575,0.017961,0.187777,-0.057274,-0.041948,-0.219602,0.136636,0.178407,-0.183098,-0.142299,-0.077393,-0.09646,0.126906,-0.179712,-0.100476,-0.058451,0.086176,-0.082701,0.04403,0.025864,0.050855,-0.038628,0.028733,0.074333,-0.005066,-0.056175,-0.054499,-0.046418,0.051371,0.023415,0.034507,0.097842,0.161401,0.184929,-0.225621,0.028231,-0.196729,0.090387,0.151226,-0.106237,-0.006345,-0.00075,0.119423,-0.123872,-0.032005,-0.14004,0.233654,0.080397,-0.062335,2.2E-05,-0.171467,-0.185742,-0.082931,0.054661,-0.185579,0.003955,0.054205,0.068471,0.136525,-0.031872,-0.037046,-0.121777,0.049339,-0.078946,0.096677,-0.016206,0.094509,-0.083991,-0.020694,-0.015027,0.019834,-0.02316,0.040687,-0.066669,-0.174037,0.10058,0.061373,-0.13381,0.068659,-0.219945,0.011562,-0.049251,-0.002878,0.093217,0.030163,0.208136,0.117342,-0.042248,0.187784,0.003342,-0.153576,-0.000821,0.166472,-0.008531,0.04322,-0.019921,EN,1,0
group_966,0.159106,-0.049889,0.062566,-0.122582,0.066187,-0.021038,-0.171268,0.009061,0.156805,0.004615,-0.039915,0.023314,-0.123719,0.010219,0.038508,0.037836,-0.031241,0.133213,0.020249,0.019321,0.040128,0.045685,-0.037175,-0.051625,0.056988,0.094538,0.111235,-0.020858,-0.149992,-0.140259,-0.062386,-0.080495,-0.01505,-0.146612,0.08424,-0.129476,-0.086036,-0.024094,-0.102345,0.032308,-0.027316,0.086918,0.009121,-0.014706,-0.001416,0.013139,0.144183,-0.012432,0.070282,-0.143999,-0.015903,0.010039,-0.063799,-0.121061,-0.017657,0.044575,0.147103,-0.001533,-0.055362,0.035899,-0.071805,-0.07307,0.069802,0.071845,0.08081,0.0034,0.06596,0.016875,-0.082859,0.092611,0.12159,0.109969,0.04986,0.076063,0.155021,0.075095,-0.034738,-0.025856,-0.064963,-0.041208,0.00848,-0.032299,-0.011407,0.017009,-0.134814,0.009249,-0.166494,0.096948,-0.069711,0.046828,-0.043663,0.055614,0.013056,-0.063424,0.01979,-0.104872,0.025724,0.08727,-0.003375,-0.021196,0.052328,-0.097487,-0.118177,-0.01332,-0.092562,-0.073607,-0.025144,0.062863,-0.079528,0.015603,-0.073295,0.047419,-0.039268,-0.077238,-0.139402,0.117427,0.015695,0.028705,0.059521,0.122865,-0.136763,0.008606,0.038928,-0.133673,-0.03453,-0.043815,-0.028847,-0.045088,EN,0,0
