GeneSymbol,V0,V1,V2,V3,V4,V5,V6,V7,V8,V9,V10,V11,V12,V13,V14,V15,V16,V17,V18,V19,V20,V21,V22,V23,V24,V25,V26,V27,V28,V29,V30,V31,V32,V33,V34,V35,V36,V37,V38,V39,V40,V41,V42,V43,V44,V45,V46,V47,V48,V49,V50,V51,V52,V53,V54,V55,V56,V57,V58,V59,V60,V61,V62,V63,V64,V65,V66,V67,V68,V69,V70,V71,V72,V73,V74,V75,V76,V77,V78,V79,V80,V81,V82,V83,V84,V85,V86,V87,V88,V89,V90,V91,V92,V93,V94,V95,V96,V97,V98,V99,V100,V101,V102,V103,V104,V105,V106,V107,V108,V109,V110,V111,V112,V113,V114,V115,V116,V117,V118,V119,V120,V121,V122,V123,V124,V125,V126,V127,SpeciesPrefix,LGroup,GeneLabel
aadK_2,-0.042429,0.015509,-0.111175,-0.128799,-0.040688,0.144153,-0.077486,0.061017,0.088609,-0.094589,0.028218,-0.024901,0.008773,-0.025869,0.153245,0.068541,-0.05904,-0.048856,0.012944,-0.043901,-0.021116,0.066457,-0.018796,-0.056661,0.082514,-0.114198,0.029607,0.035364,-0.167024,-0.042981,-0.075379,-0.013216,-0.043594,-0.07429,-0.128259,0.036204,-0.045981,-0.050954,-0.109864,0.073724,0.071345,-0.03439,-0.102907,-0.134642,0.049995,0.020831,0.095344,0.047646,0.059974,0.161616,-0.121245,0.106778,-0.054809,0.049644,0.12765,0.117441,0.006912,-0.006437,-0.050947,0.001138,-0.089217,0.034864,-0.012706,0.154457,0.021516,-0.001565,-0.05718,-0.066413,0.163638,-0.122328,-0.00971,0.082507,0.049259,-0.036112,-0.064083,0.100256,-0.071226,0.148586,0.054522,0.108543,-0.056244,-0.048794,0.082916,-0.058732,0.083257,-0.043492,0.069594,-0.078257,0.098284,0.009611,0.03497,0.021103,0.02551,0.006404,0.106561,-0.058026,0.023894,-0.101021,0.096508,0.034323,-0.061927,0.001291,-0.028927,0.083594,0.072318,-0.00072,-0.004401,0.002286,0.041642,0.08346,0.005797,-0.139438,-0.06428,0.072414,0.085032,-0.039735,-0.05977,0.015368,-0.098451,0.029959,-0.165991,-0.049638,-0.049718,0.125676,-0.022223,-0.095442,0.178989,0.180839,EN,0,1
aacA-aphD_2,0.001051,-0.045544,0.040491,-0.105416,0.064662,0.030903,0.135875,0.089221,0.135696,0.017932,-0.09182,-0.02923,-0.066784,0.056686,0.050183,-0.189236,0.194231,-0.108811,0.021444,-0.093458,0.093782,0.065761,0.020603,-0.007884,-0.020593,0.102487,0.060528,0.00551,0.063559,-0.038092,-0.062913,-0.047714,0.048164,-0.10394,-0.01878,0.04443,-0.084394,0.084731,-0.06925,-0.013041,-0.150118,-0.041882,0.006183,-0.040976,-0.122045,-0.05457,-0.009268,-0.006959,0.093709,0.001882,-0.063646,-0.017899,0.159625,-0.024716,0.124092,-0.066997,-0.106614,0.016198,0.026362,0.094365,-0.058457,-0.174345,-0.038541,0.119423,0.09197,0.049842,-0.125783,0.074968,0.16277,0.106792,0.128648,0.033312,-0.022231,0.181941,0.043578,0.038953,-0.024342,0.116541,-0.086808,-0.025501,0.106541,-0.052977,0.039891,0.101742,0.064648,-0.076557,-0.087317,-0.052682,0.052533,0.045603,0.038352,0.05088,-0.037785,-0.035392,-0.030834,0.104728,0.025956,-0.074449,0.152981,-0.018098,0.037174,0.099839,-0.006297,-0.042439,-0.149242,0.035886,0.077744,0.022532,-0.075128,0.08898,-0.105895,-0.053101,0.049466,-0.045811,-0.047873,-0.078367,0.119758,-0.100883,-0.087811,0.031229,0.103776,-0.029187,-0.109574,-0.074559,0.021857,-0.129813,-0.094935,-0.089508,EN,1,1
erm_3,-0.01225,0.050699,0.155399,-0.000346,0.043791,-0.008767,0.072638,-0.046125,0.073761,0.037531,0.046778,0.00664,0.084426,0.060689,-0.152559,0.035933,-0.052175,-0.025475,0.085134,-0.047655,0.062067,-0.053733,0.090758,-0.02132,0.125305,0.018628,0.092666,-0.070833,-0.059857,-0.024315,0.079439,-0.087407,0.121889,0.044865,0.054142,-0.064712,-0.113707,0.096508,0.112397,0.033452,-0.107268,0.065162,-0.067367,-0.10312,-0.056422,0.079368,-0.058168,0.010768,0.025634,-0.047909,-0.036872,0.033582,-0.013257,0.039202,-0.029938,-0.142347,-0.078412,-0.044429,0.039376,-0.040409,0.026249,-0.147967,-0.084752,0.068493,0.130164,0.086419,0.068983,0.074114,0.018939,0.013428,0.102296,0.118553,-0.037915,-0.010604,-0.019511,-0.170729,-0.064804,0.02339,0.027811,-0.080472,-0.021025,0.032483,-0.041399,-0.091844,0.108365,-0.050095,0.111418,0.077923,-0.033647,-0.137631,0.043846,-0.004736,0.046411,-0.05228,0.033834,-0.089321,-0.095062,-0.025282,0.039551,0.022809,-0.163823,0.027272,-0.088509,0.114733,0.01335,0.094955,-0.058845,0.020018,0.087602,-0.003065,-0.000627,0.080151,0.071626,0.101121,0.115504,0.124469,0.049353,-0.058798,0.091443,-0.176363,0.0774,-0.134428,0.063029,-0.023788,-0.046007,0.075148,0.03541,0.079514,EN,0,1
aphA,0.14999,-0.031861,-0.156299,-0.062987,-0.173272,0.067777,0.016201,0.006817,0.117203,-0.106803,-0.029894,0.05772,0.072795,-0.036211,0.004758,-0.041507,-0.01121,-0.043982,0.141197,0.084189,-0.005351,-0.014637,-0.103941,-0.010259,0.072276,0.079907,0.001737,0.021128,-0.162913,0.048672,-0.117715,0.048029,0.018929,0.01556,-0.046909,-0.096841,-0.163255,-0.136343,-0.044244,-0.078614,0.01552,0.13408,0.094489,0.087074,-0.100377,0.109703,0.011912,-0.15885,0.020539,-0.104507,-0.050942,0.089629,-0.055619,-0.015717,0.122269,-0.005461,-0.083224,0.053403,0.059486,-0.047245,0.004318,-0.039762,0.035997,0.109457,-0.055838,0.096971,-0.139418,-0.011473,-0.115096,-0.038389,-0.03025,0.048286,-0.078668,0.10184,0.166838,0.050634,0.060617,0.077876,0.061308,0.033808,0.05148,0.018686,0.003137,0.116551,0.003872,-0.063504,-0.027372,-0.060643,-0.125115,-0.062863,-0.027342,-0.045516,0.002584,-0.057577,0.085488,0.097529,0.051935,0.00897,-0.095961,-0.020985,0.014416,-0.088616,-0.160198,0.173491,0.112165,0.043122,-0.063561,0.111206,0.023748,-0.123392,0.065808,-0.029598,-0.095974,0.014974,-0.059264,-0.165667,-0.007643,-0.189196,0.04107,-0.059438,0.132604,-0.021609,0.062063,-0.015105,0.021933,-0.029075,-0.016337,0.044926,EN,1,1
group_1477,-0.010548,0.09594,0.018227,-0.020592,0.058564,0.023506,-0.027338,-0.01918,0.075391,0.042344,-0.028077,-0.056427,0.012244,-0.140941,0.049315,0.048654,0.07118,0.128533,-0.120053,0.066463,-0.010393,0.039115,0.021892,0.057368,0.032401,-0.140204,-0.106196,-0.030661,-0.066652,-0.144326,-0.090543,-0.15715,0.031152,-0.121997,-0.055096,0.01089,-0.06807,0.033002,-0.070597,0.029971,-0.148716,-0.077229,0.075403,0.052673,0.088011,-0.107977,-0.056612,0.041166,-0.074535,-0.123029,-0.062884,-0.125979,0.066301,-0.106565,-0.018561,0.036523,-0.06617,0.021442,0.04783,-0.113496,0.032158,-0.027325,-0.033604,-0.055828,-0.101635,0.105529,0.100778,0.150738,-0.097211,0.06164,-0.025864,-0.065366,0.030123,0.008431,-0.095425,-0.091199,-0.026437,-0.017416,0.036914,0.078602,-0.023931,-0.123045,0.044921,0.154637,0.076623,0.044917,0.002853,-0.012899,-0.034988,-0.056415,-0.024253,0.087263,-0.029056,0.135671,-0.096376,-0.004227,0.030291,0.014224,0.009515,-0.007759,-0.133474,-0.030021,-0.024753,0.045942,0.06394,0.101757,-0.107064,-0.069605,-0.101356,0.041976,0.024918,0.055776,0.041319,0.030496,0.117707,-0.032971,0.079537,-0.009695,0.019455,-0.038501,-0.043008,0.101639,0.157989,-0.105836,0.027924,-0.03436,-0.139463,-0.117784,EN,0,0
birA_3,-0.016794,-0.037827,0.015453,0.034146,0.091789,0.130166,0.08411,-0.002189,0.010645,-0.030809,-0.09822,0.120898,-0.081934,0.011078,-0.100029,-0.033965,0.051595,0.023024,0.028665,0.006488,-0.113759,0.051038,0.149041,0.173204,0.104387,-0.012197,-0.057015,-0.141593,0.084356,-0.188554,0.04246,-0.053422,-0.156489,-0.002282,0.018926,0.01527,-0.035541,-0.004749,0.077317,0.141629,0.122457,0.006756,-0.061487,0.015547,0.000509,0.096146,0.005903,0.051812,-0.038224,-0.164919,-0.00272,0.032786,0.011608,0.075525,-0.005014,-0.008041,-0.138706,0.003797,0.016293,0.038631,0.10509,-0.111621,0.033333,0.157007,0.07339,0.02243,-0.010704,-0.050308,-0.084426,0.040793,0.071274,0.00073,0.131513,0.109501,-0.006384,0.050297,-0.080599,0.062159,-0.077605,-0.097653,0.184517,-0.101916,0.040222,0.066199,0.105285,0.097752,-0.009796,-0.005255,-0.099233,0.069244,-0.074276,0.084916,0.025099,-0.02874,-0.111469,0.126541,0.078129,-0.139365,-0.158251,0.065109,0.130144,-0.085418,0.016406,-0.01232,-0.137655,-0.043318,-0.019347,-0.056267,-0.08516,0.020569,-0.009132,0.15617,-0.132914,-0.013312,0.129352,-0.071693,-0.048683,-0.104582,0.128061,0.030498,0.033417,0.106834,0.031746,-0.118328,-0.057787,-0.023293,-0.083257,-0.004048,EN,1,0
group_1479,0.092777,-0.037193,0.010887,-0.110334,-0.110361,-0.02924,-0.094552,-0.094269,0.065477,0.055867,0.023241,-0.126599,-0.020766,-0.131887,0.01202,-0.080606,-0.141575,-0.037104,-0.047216,-0.031599,-0.104532,-0.070773,-0.058449,-0.049468,0.100348,-0.10116,-0.169833,-0.037252,-0.135594,-0.121232,0.010957,-0.076179,0.005394,0.137313,-0.006074,-0.080897,0.039352,0.100125,-0.012369,0.141604,0.148143,-0.039508,0.021941,0.115642,0.024281,0.035165,0.037446,0.015166,-0.085848,0.050307,-0.172029,-0.085899,0.105244,-0.079338,0.085637,0.059688,-0.005486,0.07168,-0.164244,0.061851,-0.128813,-0.094021,-0.1061,-0.102102,0.063844,-0.041491,-0.093159,0.045173,-0.007391,0.012151,-0.141703,0.097742,0.018469,0.003095,-0.065069,-0.037132,-0.096164,0.073479,-0.097253,-0.096237,-0.082264,0.078438,-0.171679,-0.105564,0.059059,-0.023703,0.006482,0.097159,0.149664,-0.157982,0.064139,0.089524,-0.046183,-0.16339,-0.070925,0.063016,-0.077487,0.052241,-0.081628,-0.00219,-0.019325,-0.119506,0.10574,0.157579,0.044985,-0.040854,0.070405,-0.026335,-0.058546,-0.032154,-0.022078,0.157246,0.152475,-0.065097,-0.06453,0.048164,0.076163,0.147648,0.105568,0.078512,-0.086195,0.085499,-0.104477,0.084483,0.116311,-0.00136,-0.063552,0.153054,EN,0,0
dnaJ_2,0.078902,-0.042697,0.015918,-0.127607,-0.019194,-0.088876,0.085922,0.029389,-0.010378,-0.048462,0.025609,-0.001987,-0.119512,-0.081574,-0.057473,0.077937,0.056177,-0.042989,-0.044852,-0.026972,-0.134059,-0.036104,-0.163521,-0.048852,-0.02552,0.109173,0.033042,0.076453,-0.070205,-0.051174,-0.076803,-0.168099,-0.03016,0.086029,-0.061259,-0.087458,-0.109455,0.112563,-0.088693,0.002154,0.001705,-0.02754,0.079944,0.134948,-0.152252,-0.099577,-0.061963,-0.011369,0.006774,0.044132,-0.011107,0.030046,0.022641,0.084822,-0.00198,0.081505,0.170105,-0.022575,0.073437,-0.057867,0.033318,0.027054,0.048648,-0.030207,-0.034625,0.011973,0.046425,-0.069709,0.05748,0.133878,-0.14963,0.091427,-0.041782,0.057217,-0.118873,-0.172863,0.118888,0.027814,-0.127185,0.057353,0.176375,-0.082853,-0.160158,0.004002,0.016648,0.016889,0.066791,0.036851,0.051114,-0.04938,0.171752,0.055125,0.135372,-0.030115,-0.117278,-0.02564,-0.06603,-0.193685,0.05785,-0.00759,-0.00645,-0.027207,-0.043959,-0.116341,-0.004967,-0.066148,0.008867,0.125257,-0.02653,0.018563,0.022264,-0.045494,-0.039237,-0.138641,-0.095208,-0.063578,-0.038386,-0.136411,0.120137,0.081534,0.097023,-0.113546,0.010128,0.078386,-0.083494,-0.090629,-0.023785,-0.022085,EN,1,0
group_1728,-0.026203,0.024018,-0.033521,0.095417,0.081526,0.00888,-0.181406,-0.045412,0.003264,-0.146569,-0.064927,-0.010631,0.0708,-0.067712,0.083616,0.155794,-0.016105,0.068126,-0.041624,-0.168536,0.118664,-0.099832,0.063822,0.068684,-0.126838,0.028619,0.156343,-0.035318,-0.018112,0.117712,-0.138533,0.116982,0.060791,-0.024015,-0.13067,-0.054648,-0.016404,-0.085795,0.135138,-0.032725,0.037307,0.062125,0.18375,-0.064247,0.099486,-0.015363,-0.114561,-0.058597,-0.056734,-0.13407,0.119584,0.144785,-0.082498,-0.096542,-0.041456,0.075646,-0.09356,0.033446,-0.064161,0.026356,-0.15943,0.018782,-0.173511,0.074625,0.004862,-0.15087,-0.006326,0.059083,-0.005866,0.110385,0.011822,-0.093813,0.112427,-0.074034,-0.083161,0.127437,-0.16934,0.056605,0.051615,0.036725,0.032167,-0.060682,0.109048,0.020004,0.020961,-0.050681,0.0812,-0.078084,-0.00144,0.030716,0.123832,0.137604,0.100001,-0.031951,-0.055395,0.088627,-0.096098,-0.020673,-0.126544,-0.004575,0.107268,0.112573,0.145829,-0.046972,0.0833,0.063546,0.042031,-0.144115,0.008543,0.093122,0.147835,0.009682,-0.046256,0.047095,-0.090585,-0.128563,0.099641,0.024003,0.011286,-0.102484,-0.103961,0.025806,0.09194,0.023546,0.038998,0.10949,-0.049192,-0.043151,EN,0,0
fosB,0.027165,0.022184,-0.159133,-0.168815,0.133665,0.032644,-0.014823,-0.079221,0.145711,0.01506,-0.074463,0.029818,-0.090888,-0.15074,0.061453,0.113254,0.045111,0.00051,-0.046405,0.061964,-0.047785,-0.032497,0.17506,-0.007135,-0.152572,-0.004159,-0.066528,0.022532,-0.048903,-0.046106,-0.142451,-0.037961,0.07545,0.123882,-0.03745,-0.016463,-0.165741,0.034369,-0.05447,-0.058271,-0.008606,0.064139,0.088518,-0.136229,-0.159294,-0.119332,-0.022635,-0.033219,-0.011287,-0.144647,-0.043382,0.009188,-0.145741,-0.045966,-0.10393,0.115957,-0.083128,-0.050111,0.057535,0.006162,-0.088444,-0.15368,0.143503,0.112095,-0.113408,-0.096205,-0.039945,-0.1478,-0.051781,-0.039265,0.139771,0.073367,0.081435,-0.044187,0.097209,-0.114533,0.022748,0.122924,-0.019684,0.063637,0.159561,-0.050676,-0.028621,-0.024363,-0.083776,-0.024475,-0.073856,0.042045,0.041163,-0.078013,0.138001,-0.062924,0.074874,0.020633,-0.02786,-0.032253,-0.048601,0.013443,0.105332,0.035036,-0.112479,0.023131,-0.13834,-0.012087,-0.00221,-0.005232,0.1214,0.001072,-0.171714,0.06243,0.050801,-0.03199,0.021925,-0.155271,-0.128096,0.130091,0.19385,-0.180614,0.061678,-0.033827,-0.080953,-0.056638,-0.04748,-0.013143,-0.122765,-0.04011,-0.049304,-4.9E-05,EN,1,1
group_1837,0.099671,0.11166,-0.123537,-0.027019,0.17708,0.053461,-0.106032,0.102592,-0.084352,-0.113956,0.027506,0.051664,-0.134058,0.017687,0.019342,-0.025204,-0.107117,-0.102904,0.00579,-0.021088,0.10109,0.063966,-0.065321,0.033857,0.031921,0.151769,-0.024398,0.057686,0.019834,0.095784,0.046298,-0.105223,-0.073914,0.072743,-0.039197,-0.046769,0.04433,-0.020213,-0.07866,-0.060419,0.032959,-0.152207,0.044219,0.062231,0.046526,0.014786,-0.025961,0.062959,-0.019152,-0.076001,0.102069,-0.075837,-0.03258,-0.158183,0.038799,0.051838,-0.180397,0.033408,-0.009376,0.13395,-0.061103,0.101344,-0.084451,0.161489,0.135253,-0.06249,-0.047842,-0.108066,-0.156059,0.104282,-0.129653,0.024535,0.011904,-0.130791,0.152502,0.071062,0.042964,-0.057187,-0.133367,-0.013342,0.099385,0.175267,-0.117523,0.100939,-0.041857,-0.060425,0.006446,-0.088574,-0.02588,0.149228,0.017415,0.152652,-0.096051,0.120795,-0.079429,0.081806,-0.103734,0.13437,-0.108881,0.038091,-0.011577,-0.003449,0.126793,-0.023795,0.054453,0.051836,-0.091883,0.141566,-0.035889,-0.095921,-0.036707,0.103793,0.141839,0.088989,-0.075311,-0.034523,0.124949,0.095128,-0.066106,-0.111395,-0.054006,0.042999,0.111627,-0.028445,-0.019661,0.107876,0.022148,0.004335,EN,0,0
group_2182,-0.011254,-0.193665,-0.069784,0.121855,-0.131812,0.019014,0.0166,0.101637,-0.085087,-0.103952,0.083922,0.135173,-0.074051,-0.015434,-0.068928,-0.050031,-0.095184,0.081021,-0.08061,0.095962,0.049997,-0.113543,0.165459,0.024719,-0.011984,-0.069147,-0.050496,0.133722,-0.01466,0.005157,0.027272,0.145511,-0.029253,0.010709,-0.002395,0.067328,0.020001,0.05605,-0.010977,-0.089413,0.010586,-0.14199,-0.08956,0.008292,-0.113873,0.023703,0.100849,-0.050483,0.158379,0.067334,-0.060199,0.038866,0.094706,0.032994,-0.080234,-0.012621,0.044017,-0.040708,0.058961,-0.083013,-0.080164,0.009445,0.011436,-0.155803,0.071019,0.002861,0.031797,0.06798,0.059213,0.108992,0.136771,0.038883,-0.058368,0.114126,0.058987,0.007827,-0.063733,0.050126,-0.015393,-0.026579,0.010974,-0.024586,-0.078888,-0.058868,0.155092,0.064788,0.026102,-0.023998,0.05483,-0.108319,0.026898,0.088508,-0.017052,0.062524,0.019825,0.146405,0.181778,-0.08249,-0.044036,0.046789,0.113662,-0.053585,0.154107,0.133576,0.074561,-0.009336,0.034632,-0.035235,0.062202,-0.15347,-0.096058,-0.009259,0.10009,-0.07316,0.102071,0.018575,-0.051651,0.04912,0.101849,0.087831,0.134464,-0.036008,0.086734,0.089672,-0.11794,-0.028387,-0.110721,-0.018565,EN,1,0
group_1868,0.009729,-0.077523,-0.03794,0.161989,-0.036819,0.006135,0.060666,0.141149,-0.047273,0.007217,-0.047842,-0.040037,-0.009427,0.089321,-0.026152,0.069575,-0.059971,-0.033707,-0.007211,0.027561,-0.027147,0.152213,-0.0593,-0.039596,-0.149724,0.093323,-0.075189,-0.042122,0.121595,-0.075889,0.035931,-0.153153,-0.077608,0.135183,-0.114887,0.068341,0.003979,0.110059,0.056247,0.126705,-0.011479,0.048608,-0.004696,-0.003469,0.048474,0.150981,0.078272,-0.114248,-0.018712,0.07793,-0.100667,-0.065867,-0.150358,0.043652,-0.025287,-0.103305,-0.053805,-0.135522,-0.136764,-0.007798,-0.030532,0.10524,0.036683,0.009413,-0.049982,0.083512,-0.127638,-0.04902,0.119381,0.079838,-0.154526,-0.084789,-0.095409,-0.050584,-0.150007,0.082977,0.075598,-0.00501,-0.0174,-0.016863,0.008341,0.024345,-0.08188,-0.071699,0.098081,0.176747,0.114404,-0.039494,-0.057085,0.095271,0.093512,0.120144,0.02164,0.163137,-0.033646,0.002458,0.126556,-0.084088,0.067863,0.053125,-0.105691,-0.093991,-0.099987,0.059573,-0.162812,0.012554,0.145338,-0.108349,-0.023753,-0.036385,-0.116526,-0.066147,0.115942,0.080468,-0.012907,0.060454,0.125459,-0.019502,0.013847,0.120229,-0.059441,-0.02314,-0.062222,0.092983,0.024325,0.070679,0.024524,0.058709,EN,0,0
group_2184,0.0762,-0.036253,-0.137022,-0.06513,-0.0303,-0.051377,0.173416,0.011539,-0.115828,-0.07249,-0.101897,-0.071516,-0.16261,0.00447,-0.01068,-0.025941,-0.070139,-0.060888,-0.134401,0.101337,-0.101512,-0.004785,-0.089717,0.196268,-0.107088,0.108899,-0.095725,0.125079,-0.036295,0.121787,0.097965,0.035787,-0.020729,0.116362,0.09738,-0.009721,0.002454,0.009044,0.091578,0.103766,0.015345,-0.102867,0.095521,-0.035917,0.005377,-0.083197,0.030921,0.115311,0.011582,-0.113004,0.09716,0.063757,0.057298,0.061893,0.106131,0.058135,0.011948,0.125167,0.02767,-0.065159,0.010287,-0.169838,0.049833,-0.110531,0.126015,0.121649,-0.084224,-0.104273,0.135953,-0.067207,0.117174,0.037166,-0.009403,0.057891,0.041786,0.128998,0.009081,0.050064,-0.02491,-0.061362,-0.126352,-0.017069,-0.08741,-0.071427,0.01953,-0.045713,-0.057546,0.09419,0.033695,-0.09668,-0.047567,-0.157504,-0.114178,0.016562,0.083106,-0.074979,0.047959,-0.099646,-0.018553,-0.123963,0.045877,0.043136,-0.164319,0.127114,0.020848,0.055932,-0.018499,0.024779,-0.070577,0.059264,-0.130682,0.028465,-0.112446,-0.032795,-0.018003,-0.078544,-0.085043,0.0753,-0.04102,-0.090489,0.031203,0.06876,-0.103415,0.015076,-0.163639,0.028959,-0.11269,-0.126466,EN,1,0
group_1878,0.033917,0.0935,-0.121041,-0.001074,0.135192,-0.108308,-0.128836,0.041317,-0.046544,0.029126,-0.037351,-0.1664,-0.056929,0.008831,0.07713,-0.102232,-0.117349,-0.089704,0.080661,-0.054154,0.108589,-0.094846,0.156484,0.109827,-0.174136,-0.0252,0.099011,-0.018009,-0.065172,-0.155987,-0.04049,-0.098823,0.091079,-0.004924,-0.047865,-0.007556,0.077579,0.077368,-0.007019,-0.078491,0.101682,0.140546,0.037142,-0.14895,0.035849,0.091288,-0.067507,-0.049662,0.070362,0.016714,-0.080929,0.016548,0.075016,-0.014053,0.002983,-0.06111,-0.015051,0.051403,0.063438,-0.076535,-0.053303,-0.13834,-0.049416,-0.077787,-0.020439,0.052039,0.076397,-0.042292,-0.009484,0.002172,0.044098,-0.004848,-0.081418,-0.086781,-0.144123,0.090751,0.107211,0.03172,-0.064643,0.06822,-0.026374,0.071343,0.076142,0.026977,-0.04765,0.143138,0.119682,0.174907,-0.133809,0.00866,-0.135594,-0.081554,0.039217,0.049173,-0.104989,-0.081994,0.06757,-0.150485,0.028639,0.106737,-0.036906,0.000966,0.024182,0.168851,0.057493,0.028884,-0.14974,0.147015,0.149463,0.027745,-0.099022,-0.074128,-0.056011,-0.002585,0.036573,-0.117807,0.006284,-0.016955,-0.028551,0.036615,0.136062,0.018552,0.123197,0.015393,0.100593,0.091439,-0.038241,0.056126,EN,0,0
group_2185,-0.020113,-0.00851,-0.05484,-0.071741,0.032611,-0.061988,0.046355,-0.051755,-0.007225,0.032353,-0.128683,0.10399,-0.076972,0.115844,-0.142437,-0.006523,-0.007909,-0.097237,-0.172983,0.156433,0.041179,-0.035199,0.069052,-0.070912,-0.011651,-0.049046,0.135273,-0.103716,0.126224,-0.051818,0.116804,-0.170524,-0.076284,0.18177,0.079465,-0.00565,-0.125682,-0.029943,0.010337,0.084607,0.034108,-0.010405,-0.023548,-0.123697,-0.039616,-0.120565,0.019601,-0.045871,-0.03589,-0.018331,-0.132962,-0.055341,0.048085,0.02145,-0.133769,0.046159,-0.077763,-0.138897,0.021716,-0.03465,-0.047129,0.034243,0.034488,-0.120728,0.101861,-0.086287,-0.008358,-0.160627,-0.080348,0.026096,-0.075661,0.063136,0.002627,-0.12019,0.088305,-0.011051,0.091613,0.062598,0.120229,0.023022,-0.000143,0.006419,-0.143514,0.092643,-0.001123,-0.045016,-0.093008,0.041162,0.032846,-0.096103,-0.064585,0.017541,0.065529,-0.046973,-0.116191,0.029729,0.086128,-0.045191,0.097509,-0.003343,-0.036929,-0.117422,-0.100355,0.050728,-0.134614,-0.123878,-0.094794,0.094877,0.057865,0.116215,0.015746,0.033615,0.12278,0.056319,-0.046304,0.129627,-0.016403,-0.097753,-0.129087,-0.121323,0.02151,0.124386,0.080709,0.133215,-0.116062,-0.038328,-0.098852,0.072392,EN,1,0
group_2034,0.00059,-0.132214,-0.05703,0.000465,0.063305,-0.076499,-0.062588,-0.009661,-0.064471,0.059097,-0.107972,-0.128264,-0.014952,0.182738,-0.078186,0.04352,-0.103961,-0.034504,-0.143045,0.109464,-0.096205,-0.069354,0.000664,0.134795,-0.192243,-0.00571,-0.011646,0.130015,0.023817,0.103301,-0.012219,-0.033485,0.084739,-0.143075,-0.101048,-0.005929,0.011538,0.158174,0.041831,-0.059832,-0.057013,-0.047739,-0.024727,0.050315,0.02062,0.087989,-0.084351,0.085428,0.082372,0.02005,0.056789,0.008123,0.104098,-0.076824,-0.020496,0.024383,0.063576,5.8E-05,0.045098,-0.169564,-0.103493,0.086765,0.053987,-0.05933,0.002304,0.115117,0.154455,0.071256,-0.00601,-0.133697,0.056078,0.012247,0.033898,-0.029309,0.029351,-0.058507,-0.033945,0.089747,-0.047576,-0.148253,-0.15391,-0.026093,-0.095273,-0.050102,-0.029153,-0.151773,-0.137472,0.155236,-0.107889,0.121615,-0.031894,0.008564,-0.027382,0.113086,-0.036332,0.143369,0.07948,0.082008,0.091795,-0.011853,0.013179,0.082341,-0.104285,0.070632,0.045838,0.045299,-0.027958,0.097123,0.040299,0.078964,-0.076478,-0.015181,-0.040222,0.057807,0.112398,-0.106359,0.020717,0.145982,0.091207,-0.057723,0.005215,0.062907,-0.054157,0.049401,0.131704,-0.093714,-0.083339,-0.049176,EN,0,0
group_2186,0.055661,-0.102594,-0.014613,-0.021382,0.059665,-0.112385,0.069022,-0.011791,-0.013888,-0.117277,0.029051,-0.003627,-0.087637,-0.056144,-0.15818,-0.0891,0.18038,-0.145802,-0.169006,-0.000475,-0.050695,0.069337,0.056759,-0.054848,-0.062746,0.038908,-0.135377,0.003185,-0.026854,-0.122791,-0.090483,0.045663,-0.041503,-0.125191,-0.062415,-0.056664,-0.140781,-0.082107,0.08328,-0.034941,0.120433,0.071111,-0.018964,0.073454,-0.065043,0.143633,0.110169,-0.011291,0.099394,-0.117259,0.036766,-0.024224,0.023833,-0.091452,0.068223,0.080013,0.163883,0.068173,0.001058,-0.020916,0.052272,0.04078,-0.058453,-0.023221,-0.043759,0.024529,0.063179,-0.0112,0.082935,0.001019,-0.000212,0.108167,-0.024596,0.155316,0.113551,-0.000363,-0.041626,0.109162,-0.110972,-0.07507,0.13726,-0.167633,0.074701,-0.020552,0.000803,-0.17857,-0.055851,0.153468,-0.016419,0.042013,0.115078,0.040691,-0.027726,-0.021455,0.000321,0.142495,0.135287,0.050684,-0.022081,-0.013385,-0.115699,0.022566,-0.065565,0.002741,-0.120269,0.172277,0.007948,0.036116,0.078396,-0.02341,0.071021,-0.041625,0.046333,-0.021587,-0.00642,-0.184721,-0.009942,-0.033583,-0.054969,0.003225,0.087418,0.023505,0.002704,0.022792,-0.108892,0.090133,-0.06607,0.089186,EN,1,0
group_2556,-0.073899,-0.065975,0.039082,0.063753,-0.081604,0.000273,-0.028516,-0.147899,-0.117863,0.043217,0.03903,0.090442,-0.003331,-0.133741,0.044188,0.045192,0.07828,0.044132,0.089481,0.09963,0.012944,0.087735,-0.085885,-0.086853,-0.095094,-0.075139,-0.110695,-0.158413,-0.093865,-0.056654,-0.070992,-0.10894,0.064545,-0.079602,-0.001676,-0.060483,-0.021807,-0.064261,-0.013086,0.017037,0.016104,0.031742,0.128132,-0.058949,0.12866,-0.013098,-0.147918,0.00864,-0.10148,0.151521,0.07721,-0.042874,-0.108961,-0.058808,0.071031,-0.165489,-0.042709,-0.004901,0.109832,-0.096669,0.007462,0.115357,-0.019409,0.041928,-0.096247,0.085527,-0.145874,0.119592,0.090558,0.150564,0.144788,-0.006377,-0.113022,0.090522,0.080325,-0.085886,0.130426,-0.097069,-0.120543,-0.030696,-0.051245,0.013159,0.149676,-0.085743,-0.045615,-0.152007,0.029815,-0.073674,0.024088,-0.003989,-0.132405,0.070863,-0.097001,-0.164447,-0.061719,0.006892,0.018353,0.002914,-0.027453,-0.015846,-0.085235,0.083205,-0.080709,-0.119109,0.10802,-0.140106,-0.101052,-0.06694,-0.160985,0.016349,0.060954,0.047802,0.019926,-0.109836,-0.097076,0.140079,0.111149,0.080566,-0.149474,0.02832,-0.025229,-0.131339,0.10271,-0.067289,-0.098094,0.123316,-0.093311,0.076723,EN,0,0
group_2566,0.053574,0.017257,-0.118663,0.096598,-0.022964,-0.027123,0.055513,-0.096455,0.165183,-0.149744,-0.141982,-0.151678,0.000147,-0.040599,0.016308,0.050727,0.065761,0.011429,-0.01142,0.123359,0.082252,0.155911,0.003506,-0.048406,-0.088707,0.128328,0.092259,0.018771,0.039801,-0.159911,-0.089496,-0.081711,0.098775,-0.056331,-0.068928,0.089564,-0.029437,-0.030649,-0.046529,0.053845,0.048035,-0.060164,0.069019,-0.029279,-0.046538,-0.022604,-0.054231,-0.10204,0.014571,0.103047,0.072202,0.057255,0.057697,-0.046785,0.035549,0.109365,0.009493,0.107729,0.016197,-0.039002,-0.060349,-0.066437,0.068755,-0.02539,0.112166,0.027332,-0.028677,0.077667,-0.088495,-0.059419,0.157805,0.004486,-0.024828,0.027464,-0.026017,0.107208,0.014446,-0.027642,0.061956,0.104901,0.116061,-0.142486,-0.137229,0.039365,0.002599,-0.052878,-0.058693,-0.039987,-0.040808,0.038005,-0.055446,-0.027876,-0.046835,-0.025958,-0.101228,0.071215,-0.069135,-0.136717,-0.030336,0.114545,0.123441,-0.033723,0.002341,-0.122775,-0.03885,0.093312,-0.010902,0.041082,-0.037653,0.110387,-0.175448,-0.062188,-0.117843,0.126266,0.101688,0.071436,0.073244,0.03534,0.092662,0.052437,0.015434,0.138433,-0.003829,-0.038519,-0.058482,-0.025326,0.129682,-0.109551,EN,1,1
group_2567,0.099141,0.036596,-0.008541,0.058983,0.113522,-0.103235,-0.042321,-0.058298,0.023329,0.113931,0.164867,0.040009,-0.018319,0.043746,0.006635,0.130946,-0.076938,0.017751,-0.152985,-0.003357,-0.093711,0.020008,-0.000154,-0.040821,0.116018,0.029987,0.14955,-0.038041,0.053438,-0.118531,-0.015674,0.015721,-0.035615,0.098971,0.067824,0.158405,-0.06791,-0.027668,-0.121066,-0.057614,0.063153,-0.111973,-0.066567,-0.167207,-0.026552,-0.011143,-8.9E-05,0.008193,0.076603,0.00369,-0.093562,-0.010622,0.06133,0.042641,0.110644,-0.078229,0.173287,0.081038,-0.016161,0.002027,-0.053039,0.067096,0.122673,-0.112855,-0.039968,-0.087182,-0.079586,-0.111864,0.15457,-0.036356,0.101602,0.035907,0.102441,0.03103,0.039133,0.05552,-0.010135,0.029882,0.075328,0.055902,-0.047307,0.047987,-0.071028,-0.014322,-0.093252,0.079272,-0.099853,-0.083421,-0.016142,-0.033226,-0.017868,-0.033395,-0.125537,-0.033401,-0.009954,0.021551,0.043175,-0.00382,-0.030268,0.066979,-0.077266,-0.156579,-0.134765,-0.020526,0.046641,-0.027336,-0.09276,0.067105,-0.139147,-0.12697,0.119474,0.015082,-0.128166,0.08848,0.112654,-0.081276,-0.045783,0.154327,-0.0894,0.063697,-0.054679,0.018542,0.02601,0.033778,0.008813,-0.05928,-0.001941,0.000805,EN,0,0
group_2570,-0.046995,0.155374,0.044104,0.006385,-0.087217,0.07238,0.01037,-0.109669,-0.005683,-0.086692,-0.057548,0.004477,-0.183435,0.147818,-0.160111,0.009315,-0.073885,0.018632,0.010975,-0.081279,-0.09982,-0.008372,0.048837,0.08201,-0.053358,0.03593,0.133141,0.082823,0.094237,-0.07036,0.088813,0.144266,-0.055368,0.057199,0.142377,-0.112484,0.005795,-0.059356,-0.136774,0.092249,0.003438,-0.009941,-0.153097,0.034224,0.035049,-0.130823,0.074017,-0.006343,0.054484,-0.004277,-0.024898,0.173864,0.012196,0.054533,-0.188317,0.048955,0.13363,-0.068924,0.019938,-0.17085,0.017994,-0.12149,-0.14396,-0.184466,0.118918,0.023166,0.058795,-0.06989,-0.021033,-0.028974,0.194484,0.015319,-0.135594,0.183224,-0.096242,-0.055815,-0.011223,0.003319,0.133341,0.010315,0.025509,0.028687,0.038583,0.04046,0.062289,0.038235,0.003182,-0.082292,-0.067941,-0.092599,0.037831,0.114452,0.112467,-0.130095,0.065518,0.044011,0.038535,-0.046921,0.126518,-0.046417,-0.109154,-0.003199,-0.177519,-0.018405,0.010185,0.047978,-0.022753,-0.003544,-0.106807,0.0213,0.054395,0.143433,0.054802,0.062883,0.044836,-0.036518,0.124671,-0.034364,-0.061522,-0.037789,0.053685,0.165243,0.130312,0.150529,-0.018471,-0.075084,-0.009616,-0.037674,EN,1,0
group_3089,0.026669,0.08043,0.064217,-0.062141,-0.01948,-0.019997,-0.103955,-0.01067,0.153389,-0.12489,-0.038044,-0.027576,0.026765,0.128584,0.009008,0.14263,0.00591,0.026927,0.074906,0.016712,0.000756,0.045268,0.099878,-0.052391,-0.113211,0.071401,0.05587,-0.047372,-0.014492,0.15037,-0.031493,0.183898,0.043859,0.06821,-0.032005,-0.148926,0.024978,-0.006082,-0.076826,0.147512,0.145022,-0.101617,0.117199,0.012886,0.012777,0.013527,0.073821,-0.08252,0.112004,-0.083743,-0.067486,0.027217,0.057283,0.029166,0.038943,0.053081,0.157118,0.062621,-0.033212,-0.058636,-0.091879,-0.020015,0.036888,0.054755,-0.074059,-0.077061,0.011393,-0.089477,-0.003873,-0.058416,-0.108372,-0.153266,-0.158283,0.094736,-0.104512,0.079134,-0.073528,0.003484,0.066622,0.02748,-0.162643,-0.087277,0.021305,0.119292,-0.020177,0.141869,0.14174,-0.084438,-0.138558,0.035938,-0.02887,0.093546,-0.023055,-0.125392,0.047931,0.060802,-0.059308,0.157806,0.005927,0.043075,-0.100958,-0.141557,0.023182,0.066528,0.16872,0.145707,-0.071116,-0.064976,-0.031467,-0.101389,0.011911,-0.169423,0.121254,0.001778,0.096756,-0.07549,-0.109425,-0.026622,0.003307,-0.080778,0.068143,-0.170561,0.071459,0.149809,-0.000754,-0.121842,0.065299,0.142398,EN,0,0
group_2572,0.049721,0.003437,0.144194,-0.18261,0.03137,0.113637,-0.030165,-0.156273,-0.03485,-0.094194,-0.024669,-0.067721,0.087979,0.019793,0.010252,-0.031248,-0.132016,0.067967,-0.127769,0.06963,0.031225,-0.086755,0.01638,-0.023877,0.024026,0.002008,0.03538,-0.00403,-0.031833,-0.16334,-0.117674,0.073393,0.032368,-0.011718,0.186957,-0.103626,-0.020479,-0.053186,0.066289,0.137338,-0.157577,-0.055382,-0.013737,0.033008,0.126454,0.049897,-0.002096,-0.038287,0.081479,-0.100713,-0.091632,0.032708,-0.009083,0.148021,-0.007744,-0.074352,-0.021365,0.069453,-0.075127,0.079497,0.183939,0.023934,0.04774,-0.111861,-0.109708,0.00291,0.155108,0.058233,0.022738,0.011134,-0.080055,-0.077136,0.021066,0.005423,0.164682,0.000879,-0.011316,-0.132945,-0.0813,0.109384,0.013924,-0.024809,0.012796,-0.019366,0.057257,-0.073859,-0.081387,-0.119634,-0.023199,0.096773,0.077249,0.078558,-0.049293,-0.119664,0.069595,-0.026573,0.004684,-0.103288,-0.080748,-0.104658,0.099177,-0.191669,-0.175742,0.077607,0.036938,-0.123882,0.047485,-0.053437,-0.04024,0.084747,-0.069159,0.030367,0.074797,0.013046,0.161903,0.128137,0.099341,-0.18581,-0.124539,0.079242,0.027146,-0.061891,-0.065336,-0.011739,-0.126149,-0.079536,-0.098291,0.137328,EN,1,0
group_3209,-0.135486,-0.02527,0.028737,0.157413,-0.049199,0.050143,0.154328,-0.161897,-0.074291,-0.135508,0.065903,0.093326,-0.002639,0.107642,-0.120018,-0.00113,0.090514,-0.052245,-0.081774,0.061066,0.052964,-0.045475,-0.036527,0.075009,0.080115,-0.027839,0.005628,-0.134161,-0.017428,0.011096,0.155663,-0.000357,0.011824,0.080117,-0.137518,-0.011159,0.046857,-0.114477,0.030253,0.136315,-0.096821,-0.008996,0.077794,0.153093,0.026697,-0.047366,-0.061636,0.055751,0.057797,0.044888,0.046945,-0.076146,0.033852,0.139924,0.062158,-0.055074,-0.003639,0.127195,-0.111396,0.009629,-0.052795,-0.005302,0.022539,-0.048547,-0.048436,-0.133971,-0.103049,-0.136373,-0.00443,-0.027751,-0.03032,0.087593,0.045621,0.165062,-0.095433,-0.008466,0.018456,0.013932,-0.008544,0.026062,-0.166252,-0.01174,-0.096289,0.041046,0.02937,0.097098,0.021789,-0.063544,0.124091,0.015712,-0.091371,0.137199,0.058385,0.019337,-0.090598,-0.127255,-0.152224,0.051426,-0.005427,-0.097138,-0.077951,-0.076559,-0.025886,0.096651,-0.002301,-0.084512,-0.082451,-0.172421,-0.094259,-0.124567,-0.135109,-0.115496,-0.026542,-0.072157,-0.040472,-0.116643,0.102484,0.031763,-0.071834,0.015318,0.023094,-0.077426,-0.048491,-0.025211,0.038314,0.02875,-0.007454,0.158286,EN,0,0
group_2627,0.106593,-0.058579,-0.050604,0.068482,-0.063263,0.030603,0.01041,0.094166,0.028456,0.006242,0.028612,-0.118038,-0.100633,0.094942,0.154563,-0.100207,0.089121,-0.071034,-0.07171,-0.058827,-0.061119,0.115146,0.112873,0.041385,0.119326,0.045984,-0.065814,0.004215,-0.136971,0.00886,0.03102,0.05631,0.02189,-0.089474,-0.011805,0.080216,0.003846,-0.172291,-0.069322,0.033922,-0.085412,0.045079,0.00861,-0.013111,0.089681,-0.125954,-0.085977,-0.039406,-0.081444,-0.113595,-0.168609,0.128132,-0.001345,-0.043014,0.008927,0.12109,-0.144447,0.080704,0.075398,-0.166789,-0.045095,-0.061217,-0.137733,-0.094805,-0.08812,0.125702,-0.092683,-0.130282,0.027893,0.082661,0.069707,-0.06401,-0.034148,0.1235,-0.000734,-0.057563,-0.054457,0.085302,-0.025509,0.003922,0.039555,-0.06661,-0.133326,-0.096876,0.00235,0.155888,-0.163164,0.056113,0.025082,0.071432,-0.124273,0.058855,-0.075227,-0.002633,-0.071697,0.016788,0.196103,-0.014921,0.015837,-0.14755,0.055651,-0.062433,0.089327,0.047744,-0.098685,0.034545,-0.024201,-0.047082,-0.050328,0.078413,-0.039001,-0.031866,0.142651,-0.10012,0.01908,-0.163044,-0.029333,0.061589,-0.087093,0.034566,0.106399,-0.118733,-0.050649,-0.0043,-0.129284,-0.017091,0.153087,-0.107051,EN,1,0
group_3253,-0.06776,-0.039156,0.0078,0.092624,-0.133393,0.108381,-0.08117,-0.135969,-0.133767,0.166806,-0.00278,-0.0214,0.097955,-0.047232,-0.028988,-0.104501,-0.009503,0.036757,-0.081471,-0.102461,0.019611,-0.103663,-0.008253,-0.06461,-0.021428,-0.084221,-0.024171,0.094153,0.106049,0.058389,0.123822,-0.016678,0.002369,0.096901,-0.028966,0.101391,0.049409,-0.009483,0.093253,-0.094004,-0.083159,-0.116435,-0.16257,0.031141,0.127283,0.042654,-0.018207,-0.030391,-0.102533,-0.096419,0.108612,-0.118781,0.166714,-0.025262,-0.027351,-0.046036,0.021554,0.103169,0.012028,-0.099682,-0.043844,-0.112687,0.104478,-0.010228,0.036401,0.049625,-0.01438,0.083702,-0.061348,0.112337,0.020538,-0.077737,-0.069501,0.109391,0.107297,0.02883,0.159696,0.119259,0.066938,-0.14542,0.093148,-0.14322,0.117243,0.099678,-0.016575,0.009036,0.019888,0.158083,0.004681,0.059964,-0.140023,-0.071775,0.00586,0.120061,-0.068043,0.141909,0.099135,0.057335,0.119776,0.151039,0.029323,-0.085291,-0.053011,-0.174089,-0.09654,0.041279,0.06751,-0.130895,-0.084398,-0.063609,0.047135,-0.097835,0.087434,0.021179,-0.076164,-0.061377,0.114025,0.081491,-0.014713,0.017798,-0.041063,0.079007,0.167634,0.138455,-0.036526,-0.025418,-0.128165,0.119948,EN,0,0
group_2638,0.171318,-0.118481,0.07222,-0.064981,-0.033109,-0.114486,-0.068463,0.080592,0.034275,0.081203,-0.039998,-0.076518,0.059938,0.133867,-0.192842,-0.064815,-0.136815,0.00743,-0.037398,0.144793,-0.044258,0.101069,0.08176,0.011134,-0.01176,0.032156,0.014535,0.044047,0.059032,-0.051131,-0.171447,-0.138269,-0.038081,-0.055678,-0.080438,0.067815,0.088817,0.025072,0.027225,-0.037459,-0.124802,0.099348,-0.051272,-0.091426,-0.111124,-0.003868,-0.045382,-0.179299,0.076079,-0.124557,-0.127505,-0.050056,-0.042366,0.036525,-0.005489,-0.127115,0.136389,-0.114348,-0.082344,0.000854,0.097307,-0.126848,0.154865,0.002177,-0.008264,-0.139645,-0.054036,-0.008369,-0.062119,-0.106202,0.102147,0.005005,0.021072,0.069502,-0.014536,-0.144699,0.045705,0.088139,0.136186,-0.071005,0.106454,0.108983,-0.146462,-0.017587,0.06554,0.045603,-0.049976,0.01849,0.02277,0.149971,-0.029777,0.071254,-0.0931,-0.112168,-0.140354,-0.048965,0.165358,-0.135576,-0.077619,-0.074004,-0.025946,-0.111577,-0.050677,0.001533,-0.191788,0.062879,0.133413,0.000249,-0.051549,-0.08499,-0.174044,-0.072647,-0.059034,-0.067146,0.054891,0.006266,0.10267,0.034323,0.142324,0.037759,0.031146,-0.029059,0.083049,0.082922,-0.036796,0.034319,0.015518,-0.101655,EN,1,0
group_3347,-0.010775,0.160433,-0.020213,-0.082991,0.11656,0.055452,-0.043997,0.106977,0.104202,0.052487,-0.042905,-0.008533,0.023402,-0.00389,-0.033764,-0.012617,-0.032804,0.16061,-0.066016,0.001897,-0.02089,-0.08421,-0.010774,0.133079,-0.103186,0.046286,0.000223,-0.109243,-0.160951,0.04826,-0.0919,0.142752,0.122133,0.062625,-0.067056,-0.00518,-0.004064,-0.109872,-0.169842,0.131971,-0.029061,0.168659,0.024865,-0.136507,-0.022741,0.149786,0.084042,-0.051059,-0.041751,-0.15476,0.066096,-0.026466,-0.053476,0.065218,-0.047392,-0.057508,-0.103882,-0.034098,-0.160102,-0.041166,-0.149787,-0.021161,0.015325,-0.113722,0.061014,0.00715,-0.023541,-0.055464,-0.114518,0.011747,0.047926,-0.062906,-0.094257,-0.105718,-0.035497,-0.095965,-0.060236,0.07887,-0.149508,-0.02608,-0.012897,0.001711,0.067855,0.024211,-0.170188,0.113634,-0.088152,0.021705,-0.038689,-0.051153,0.117056,0.069441,0.009284,-0.037176,-0.171267,-0.126752,-0.104556,0.039945,0.10822,-0.168889,0.153184,-0.003304,0.003307,-0.001838,-0.028096,0.054285,-0.124052,-0.053348,0.131956,-0.086267,0.115118,-0.162234,-0.001757,-0.003845,0.115869,-0.102536,0.021557,0.066955,0.021942,0.107723,-0.057603,0.02657,-0.165386,0.018179,-0.097532,0.023368,0.024735,0.140308,EN,0,0
group_2639,-0.020994,-0.024127,0.002412,0.03621,0.027847,-0.000413,-0.03088,0.088684,0.033723,-0.022709,-0.103628,-0.118212,0.047529,0.035053,0.145747,0.006895,-0.008019,-0.055259,-0.095997,-0.02363,-0.194485,-0.055906,0.075513,-0.018366,6.3E-05,0.057676,0.088311,0.139514,0.034737,-0.04506,-0.120938,0.073961,0.028667,0.012457,-0.121636,0.022318,-0.148019,-0.039607,0.033841,0.070329,-0.103442,-0.032296,0.031624,0.099767,0.029804,0.154113,-0.110544,-0.037751,-0.136465,0.021979,-0.08285,-0.119619,0.129216,-0.058338,0.054298,-0.068488,-0.101115,0.017975,-0.084339,-0.028029,0.104388,-0.086707,0.018515,0.088196,-0.048159,-0.010363,0.149563,0.006759,0.174589,0.041405,0.070064,0.088487,-0.063242,-0.126998,0.03614,-0.064914,0.152654,-0.09934,-0.011156,-0.07614,-0.045303,0.097641,-0.060055,-0.141322,-0.036047,-0.026912,0.025752,0.120424,-0.073742,0.045018,0.078156,-0.007723,0.108925,-0.056691,0.043061,-0.069495,0.134853,-0.086513,-0.063437,0.007997,0.041692,-0.036315,-0.024132,-0.016793,-0.176318,-0.148259,0.053386,0.154676,0.038719,0.164798,-0.112813,-0.120392,0.112795,0.046212,0.093121,0.014434,0.058201,-0.026092,0.041513,-0.040362,0.137915,0.100266,0.108172,0.026475,-0.170368,0.163246,-0.144714,0.01136,EN,1,0
group_3506,-0.07865,0.01054,0.049633,-0.160211,-0.061623,0.117781,-0.005417,-0.126133,0.001544,-0.096504,0.119538,-0.139086,0.106162,-0.036395,0.065077,-0.020945,-0.105012,-0.126251,0.026622,0.04285,-0.168965,-0.031348,-0.007851,0.13073,0.054271,0.006606,0.053814,-0.00681,0.06426,0.095682,-0.004184,0.163299,-0.056925,-0.121888,0.015874,-0.051606,-0.093651,-0.102193,0.00689,-0.136714,0.082669,-0.028883,-0.042817,0.05756,-0.085003,0.085181,-0.022341,0.127663,-0.115841,0.145372,-0.099629,0.157841,-0.098734,0.035444,0.119967,0.042369,0.082251,-0.013205,-0.130522,-0.01646,-0.051716,-0.05962,-0.119325,-0.042921,-0.135304,-0.16813,0.025701,0.144562,0.031801,-0.132062,-0.175778,0.035275,0.027166,0.127442,0.005231,0.07557,-0.144898,0.01279,-0.079791,-0.167285,-0.015422,-0.015331,-0.079181,0.160044,0.048909,-0.098471,-0.091593,-0.004404,-0.146557,-0.062233,-0.028564,0.016808,0.060521,0.032849,-0.104694,-0.039775,0.023188,-0.040889,-0.099436,-0.094357,0.088234,-0.134767,-0.058346,0.038607,-0.092303,-0.082745,0.055845,-0.021885,-0.115642,0.083529,-0.133112,0.057593,-0.15132,0.151443,0.109195,-0.015416,-0.084344,0.028216,0.025555,-0.045725,-0.117044,0.08949,-0.084166,-0.104219,-0.123705,0.057805,0.052747,0.022679,EN,0,0
group_3024,0.089532,-0.040158,-0.011946,-0.058807,-0.091548,-0.000589,0.021272,0.061584,-0.171716,-0.029119,0.06723,0.060931,-0.141076,0.024357,-0.003088,-0.14217,-0.005746,0.035236,-0.019025,-0.149202,-0.005529,0.119589,-0.067639,0.105626,-0.067614,0.055719,-0.119465,0.163254,0.073922,0.009524,-0.000966,0.049601,-0.086776,-0.100645,0.049328,-0.007865,-0.114436,-0.006463,-0.035798,-0.077638,-0.079351,0.001874,-0.081728,0.069223,-0.110273,0.003109,0.016715,-0.034941,0.063528,-0.066583,-0.176146,-0.075781,0.0027,-0.068313,0.032754,0.107949,-0.025194,0.049677,-0.006718,0.019826,0.059605,0.007286,0.068406,-0.006539,0.04008,-0.068027,0.087907,-0.072862,0.007893,-0.099959,0.191701,-0.113353,-0.016402,0.03315,-0.084642,-0.026292,-0.111504,0.137243,0.086902,-0.159901,-0.112236,-0.131501,0.059948,-0.144745,0.123433,-0.184285,-0.15597,-0.122599,-0.149022,-0.119182,-0.109224,0.022802,0.022549,-0.167284,0.004295,0.053592,0.050102,-0.047957,-0.023447,0.111895,0.109721,0.082429,-0.060745,-0.151597,-0.060333,0.017313,0.083887,0.066684,0.022796,0.08824,-0.131599,0.01599,-0.01263,0.113384,0.112824,-0.054694,0.058028,-0.134067,0.08143,-0.054389,-0.112896,0.092891,0.117911,-0.045545,-0.079035,0.02823,-0.121854,0.009919,EN,1,0
group_3549,0.020969,0.0891,-0.112824,-0.030602,-0.065968,0.056426,-0.073087,-0.096976,0.024134,-0.14725,0.094787,0.037814,0.116966,-0.178849,-0.139217,-0.025425,-0.041682,0.036179,-0.119452,-0.003295,-0.060228,-0.010879,0.059689,-0.062219,-0.115504,-0.008871,0.042818,-0.111566,0.133473,-0.001435,-0.002713,-0.129261,0.013252,0.001221,-0.025722,-0.086747,-0.087126,-0.02466,-0.097706,-0.089105,0.110452,-0.030025,-0.083458,0.002609,-0.039351,-0.161694,0.038767,0.073547,-0.034754,-0.016812,0.133978,-0.046753,-0.14787,-0.081773,-0.025919,-0.089527,0.014169,-0.054112,-0.042326,-0.077546,0.004648,-0.043285,-0.140017,-0.136528,-0.081388,0.078621,-0.023572,-0.004131,-0.147187,-0.061238,0.032285,-0.096074,-0.116276,0.155605,-0.161911,0.026263,-0.005105,0.143168,0.062229,0.066083,-0.12696,0.033067,-0.055355,0.102593,0.027771,0.156494,-0.016269,-0.01882,0.057711,-0.107684,0.005915,0.032701,0.085041,-0.147544,0.097587,-0.108502,0.066968,-0.08742,-0.087461,0.094347,0.095326,0.070481,0.078701,0.021656,0.166069,0.0012,0.027944,-0.17914,-0.072733,-0.029522,0.069449,-0.074824,-0.103579,0.07422,-0.19396,-0.008465,-0.080884,0.149827,-0.112454,0.026761,0.048826,-0.005222,0.033957,0.106372,0.035436,0.048434,0.02301,-0.056972,EN,0,0
group_3025,-0.032092,-0.113324,-0.057396,-0.106798,-0.06518,-0.051635,0.05919,0.117722,-0.095905,0.025234,0.067135,0.044329,0.047214,0.106449,-0.004033,-0.137797,0.078527,-0.063819,0.001424,0.120378,-0.070543,0.035503,-0.100497,0.153823,0.043258,0.046932,-0.052804,-0.029267,-0.056127,0.026645,-0.057065,0.031248,0.01368,-0.076589,0.051324,0.107675,-0.11563,0.139617,0.072931,-0.054697,0.008331,0.138978,0.086553,-0.039667,-0.01353,0.00401,-0.105274,-0.175407,0.028505,0.029522,-0.009101,0.076125,-0.10659,-0.089624,0.0704,-0.054279,-0.119257,0.140253,-0.050743,0.045637,-0.021826,-0.101388,-0.169173,0.095851,0.041526,0.142268,0.101091,0.018745,0.185389,0.164565,0.074844,-0.157006,0.146335,0.105674,0.049246,0.060579,-0.045154,0.012206,-0.005985,-0.159465,-0.017674,-0.050465,-0.07164,0.084151,-0.143304,-0.03788,-0.080572,-0.045812,0.122143,0.078904,-0.075227,-0.131924,-0.047987,0.097244,-0.033868,-0.097433,0.079069,0.011846,0.012247,0.103685,0.005932,0.009035,-0.156453,-0.133403,0.100519,0.028188,0.151134,0.0097,-0.03203,0.032586,-0.001028,0.012444,0.02964,-0.029694,0.00414,0.016938,0.061281,-0.09684,0.012231,-0.021405,0.00065,0.153657,0.040629,0.073731,-0.057243,-0.048882,-0.120161,0.1391,EN,1,0
group_3763,-0.003341,0.016732,0.006033,0.123039,-0.085147,-0.080516,0.074137,0.140127,-0.093528,-0.006703,-0.04754,-0.008207,0.084432,-0.128018,0.054564,0.030029,0.074206,0.05015,0.004476,-0.058855,0.095148,-0.079531,0.098005,0.135132,0.039707,0.062401,0.119229,-0.067635,-0.112981,-0.030872,0.035809,0.086677,-0.060269,0.012765,-0.119224,-0.12675,-0.070572,-0.150192,0.142706,-0.058864,0.038206,0.050142,-0.128839,0.008714,0.136047,0.133412,0.12668,0.006166,0.035349,0.128431,0.069767,-0.108533,-0.00088,-0.041751,-0.11488,-0.065798,-0.035986,0.104463,0.039678,0.033086,0.120322,0.06697,0.016709,-0.033832,-0.008745,0.118653,0.032136,0.024929,0.018922,0.037685,-0.160671,0.106577,-0.046761,-0.075869,0.044069,-0.107328,-0.089484,-0.066389,0.031675,0.125933,-0.035806,-0.035791,0.002807,0.019641,-0.161229,0.022415,-0.075083,0.078085,-0.007671,0.105316,-0.053617,0.0131,0.043706,0.041206,0.082491,0.138217,0.135143,0.089828,-0.072701,-0.000503,0.056233,-0.163884,-0.101349,-0.126733,0.085742,-0.093685,0.068334,-0.057584,0.14472,-0.054364,-0.016792,-0.050724,-0.020591,-0.02951,-0.026157,-0.078673,0.037746,0.159172,0.14664,0.070514,-0.055001,-0.037278,-0.116729,-0.104092,0.12714,-0.074393,0.09074,0.046963,EN,0,0
group_3031,-0.001713,0.096492,-0.031294,-0.159264,0.043057,0.03396,0.036849,0.041635,-0.096671,0.055264,0.121057,-0.046553,-0.073724,-0.097167,0.010139,-0.055119,0.092551,-0.043918,-0.017974,0.003755,-0.046361,0.028462,0.039221,0.073215,-0.137777,0.04909,0.038209,-0.058838,0.037698,-0.092087,-0.019846,-0.062333,-0.094683,0.052694,-0.012354,0.094188,0.059698,-0.005983,-0.006969,0.023257,0.081824,0.074034,-0.163647,-0.061565,0.069059,-0.128663,-0.075733,-0.147908,0.122633,-0.010997,0.053011,0.032888,-0.051658,0.093727,0.10414,0.06377,0.189184,0.108809,0.06654,0.159471,0.019583,-0.136686,0.163429,-0.025818,-0.078152,-0.047438,0.062521,0.06463,-0.099687,0.172784,0.072687,0.106164,-0.100642,-0.099736,-0.038136,0.093006,-0.027377,0.156989,0.02947,0.075217,0.081113,-0.035444,-0.101358,0.093135,-0.044197,-0.110057,0.05954,-0.053746,0.035139,-0.080716,0.077492,0.086528,-0.076244,-0.115987,0.025896,0.024276,-0.024007,0.056019,-0.044493,-0.019162,-0.004139,-0.077515,-0.18556,0.12902,0.118087,0.045975,0.049625,0.084703,-0.131698,0.05913,0.120861,-0.019634,-0.107779,-0.040751,-0.023639,-0.03224,0.099964,-0.062434,-0.028964,0.137556,-0.141868,0.057498,-0.030422,0.063444,-0.067814,0.017389,0.062199,0.108967,EN,1,1
group_3764,0.161978,0.119401,0.046746,-0.008179,-0.060387,-0.105989,-0.0173,-0.134922,-0.116501,0.080441,0.0039,-0.056097,-0.00505,0.032437,0.030382,-0.021615,-0.058897,0.027138,0.030244,-0.155103,0.162473,0.032426,-0.03914,-0.085013,0.050314,0.069419,-0.089916,-0.017673,0.056147,0.008667,0.04693,-0.03069,0.064614,0.049778,0.010751,0.111922,0.090751,0.075016,0.106251,-0.097671,0.113622,-0.003554,-0.10297,0.044701,0.162646,0.059884,0.037257,-0.109506,0.100227,-0.002688,-0.119445,-0.116106,-0.092556,0.044648,-0.053274,-0.020057,0.068884,0.001611,0.016928,-0.035837,-0.036407,0.115803,-0.021722,-0.004155,0.033265,0.132058,0.031605,-0.114144,-0.020576,0.078669,0.057663,0.058356,0.056092,0.143617,-0.093077,0.029559,0.074567,0.011711,0.019414,0.00967,-0.090561,-0.123101,0.055549,0.037939,0.048465,0.147254,-0.065198,-0.032237,-0.082842,-0.073863,-0.022808,-0.156725,0.065241,0.026357,0.112321,0.006266,0.07974,-0.090837,-0.051872,0.068163,0.086179,0.05251,-0.022955,-0.002745,0.017954,0.106766,0.08196,-0.019872,-0.007292,-0.018827,0.071661,-0.152978,-0.130481,-0.049336,0.043061,0.13953,-0.060111,-0.060102,0.001455,-0.051078,-0.003114,-0.120556,0.031821,0.031185,0.140457,-0.096465,0.071907,-0.104723,EN,0,0
group_3033,0.107252,-0.049713,0.064231,0.079619,0.069027,-0.073689,0.041632,-0.132003,0.144211,-0.03923,-0.094058,0.025207,0.045006,-0.133768,0.03731,-0.03396,-0.095181,-0.011493,0.058592,-0.02421,-0.008787,-0.04381,-0.033879,0.061904,0.104462,0.142423,0.058018,-0.048042,0.124729,-0.153059,0.054314,0.088356,-0.162187,0.105851,0.084591,-0.101483,-0.048615,-0.142684,0.089903,-0.010543,-0.008636,0.070287,0.048509,-0.052539,-0.046823,-0.033635,0.13489,-0.094504,0.175879,0.038358,-0.032594,0.104447,0.059793,0.007275,-0.02236,0.145052,-0.152846,0.082401,0.049309,0.07533,0.085709,-0.045182,0.093022,0.090214,-0.070779,-0.010053,0.032191,0.02894,0.017647,0.007897,0.008764,0.025388,-0.122595,-0.004585,0.133809,-0.0461,-0.045962,0.013973,-0.021954,0.104606,0.119886,-0.084499,-0.131209,0.156737,-0.032198,-0.051015,-0.174007,-0.003815,-0.023476,0.030046,0.015627,0.066386,0.027854,-0.006256,0.028393,0.023113,0.031233,-0.033612,-0.090186,-0.029871,-0.017078,0.146317,-0.182499,-0.076764,0.045592,-0.152437,0.074234,0.104291,0.014103,0.011487,0.024597,-0.011272,0.03354,0.026243,0.088184,-0.166541,-0.025838,0.080291,-0.097258,-0.097999,0.074688,-0.114155,-0.071221,-0.050525,0.038359,-0.112979,-0.046221,-0.012321,EN,1,0
group_3813,-0.054249,-0.057694,0.1004,-0.059101,0.020271,-0.025429,-0.03226,0.090656,0.115396,-0.061764,0.0361,0.087181,0.011595,-0.05361,-0.034446,-0.031859,-0.017816,-0.118107,-0.164379,0.050329,0.018702,0.009082,-0.072036,0.079346,0.091552,0.170341,-0.148085,0.014634,-0.1512,0.075777,0.039696,0.157005,0.041777,0.005389,0.068807,-0.079707,0.148307,-0.022007,0.071099,-0.13516,0.053545,-0.077485,-0.068559,-0.054927,0.09824,0.168952,-0.096593,-0.019551,-0.019291,-0.120151,-0.015315,-0.1529,-0.015052,0.110505,0.138588,-0.066015,-0.059559,0.054697,-0.062175,0.051794,-0.123566,0.11237,0.015181,0.060459,0.077188,0.047762,0.035858,-0.068997,-0.055458,-0.097251,-0.050547,0.120663,-0.007142,0.116822,-0.044185,0.062556,0.120596,0.037326,0.097479,0.121306,-0.134859,-0.028283,-0.125304,-0.020911,0.05969,-0.015807,0.162093,-0.044114,-0.077535,-0.098118,0.038136,-0.044022,0.012899,-0.164566,0.039592,0.056997,0.024641,-0.031537,-0.168844,0.027719,-0.097223,-0.081094,-0.001094,0.114685,0.142199,-0.175601,0.023109,-0.059012,0.022995,-0.120724,-0.015854,-0.138494,-0.174359,-0.004332,-0.08407,-0.019633,0.132977,0.022315,0.011377,-0.130797,0.159845,0.060671,0.155225,-0.019192,0.170826,0.101417,-0.107976,-0.037483,EN,0,0
group_3034,0.161815,-0.026227,-0.152824,-0.132896,0.155974,-0.093032,-0.080478,-0.124894,-0.026963,0.035063,-0.055473,0.016814,0.061815,-0.000731,0.010193,0.001717,-0.071134,0.043659,-0.115032,0.065377,-0.007857,0.07901,-0.055009,0.0928,-0.021994,0.031195,-0.070853,-0.091,0.091184,-0.107455,0.045211,0.025234,-0.091531,-0.083637,0.01463,-0.068856,-0.051238,-0.073291,0.171349,0.127465,-0.124151,-0.040615,0.029523,0.138571,-0.077475,-0.040184,-0.035308,-0.032522,-0.039959,0.058253,-0.184711,-0.02874,0.061343,-0.06083,-0.032367,-0.02552,-0.069407,-0.041407,-0.065593,0.087786,-0.008005,-0.085353,-0.135795,-0.148643,0.061481,-0.098401,0.029707,-0.06921,0.109884,-0.106774,-0.000409,0.130305,-0.00525,-0.05937,0.090968,-0.049289,0.019141,-0.005664,-0.054541,0.099302,0.111152,0.000488,0.074114,0.03592,0.013359,0.044298,-0.030463,0.006747,0.141751,0.151176,-0.075919,0.003215,0.107964,0.07679,-0.113593,0.047527,-0.107571,0.001396,-0.056082,-0.129612,-0.099148,-0.059003,-0.012399,0.097141,0.028839,-0.054147,-0.003835,-0.000943,0.004139,-0.134277,0.000934,0.067076,-0.131491,-0.048403,-0.012519,-0.085284,0.000325,-0.053208,0.125364,0.123448,0.088467,-0.040837,0.144086,0.152743,0.035808,0.079945,-0.098322,-0.02649,EN,1,0
group_385,0.02113,0.0178,-0.016452,0.090873,0.009513,-0.157667,0.115433,-0.16405,0.032354,-0.11971,-0.027462,-0.069048,0.042592,0.021513,0.127472,-0.063987,-0.017933,0.10579,-0.026183,0.104115,-0.009124,0.004875,-0.132854,-0.004686,-0.152575,0.070359,0.066763,0.05232,0.074032,-0.086747,-0.014257,0.074618,-0.079192,0.002787,-0.04925,0.146007,0.096427,0.047114,0.021208,0.162205,-0.101715,-0.085009,0.000624,0.072182,0.062407,-0.058257,-0.137283,-0.018131,0.095944,-0.078651,-0.050611,0.088721,0.014809,-0.074521,0.144413,-0.038136,0.155527,0.084517,0.034358,0.020906,0.004944,0.135029,-0.083666,-0.059738,-0.033462,-0.04466,0.05066,-0.010692,-0.014179,0.098113,0.048084,-0.001933,0.16369,0.025252,-0.083973,0.000634,-0.141242,0.054012,0.01723,0.000306,0.085429,0.013981,0.165823,0.138624,0.132055,0.038361,0.062956,-0.124155,0.170062,0.006997,-0.121174,-0.061709,0.062491,0.115146,-0.02201,0.09738,-0.046467,0.071952,0.045752,0.139507,0.029622,0.064601,0.069515,0.145148,0.002262,0.092648,-0.109887,-0.034418,-0.036616,-0.066743,-0.05171,-0.086763,-0.013755,-0.003289,-0.022358,-0.046833,-0.056589,-0.096255,0.075362,-0.079322,-0.010259,-0.107076,-0.109303,0.098395,0.044583,-0.03778,0.071325,-0.169485,EN,0,1
group_3208,0.100879,-0.073301,-0.121993,0.100377,-0.08146,-0.064744,0.006353,0.047184,-0.069037,-0.10111,-0.129892,0.163619,0.079704,-0.04505,-0.058737,0.075414,-0.047676,0.004024,-0.097647,0.1629,-0.009746,-0.039645,-0.107003,0.010358,-0.013764,0.080074,-0.107926,0.004273,-0.037889,0.046465,0.045806,0.024966,-0.075118,0.035556,0.105437,-0.115109,-0.052369,-0.083366,0.016783,0.059758,0.1055,-0.038989,-0.006715,0.083052,-0.105139,0.061902,0.185161,-0.129639,-0.019587,-0.058465,-0.116284,-0.000298,-0.116325,0.014607,-0.000303,0.143115,0.189257,0.017497,0.188893,-0.043886,0.002077,-0.035042,-0.124072,-0.047846,0.036229,-0.02267,0.074765,-0.182554,0.066354,0.046312,0.141022,-0.062767,-0.082059,0.134768,0.095624,-0.073494,-0.025514,0.050201,0.012457,-0.009935,-0.123103,-0.190779,-0.057276,0.109422,-0.046223,-0.040241,-0.01769,-0.138323,0.070023,0.095664,0.092001,-0.132621,-0.140852,-0.056063,0.11163,0.064225,0.177984,0.0501,0.006026,-0.105576,0.085653,-0.093242,0.08595,-0.098647,0.143487,-0.122015,-0.008534,0.083838,0.055115,0.041057,-0.036133,0.015809,-0.063182,0.111101,0.055291,-0.119117,-0.058452,-0.066408,0.049993,0.080104,0.056818,-0.05155,0.125676,0.015718,0.120738,0.033079,-0.085787,0.076249,EN,1,0
group_386,-0.137732,-0.086474,-0.028965,-0.045853,-0.138281,-0.129667,0.002263,0.03876,0.069108,0.080042,-0.031621,0.063355,0.080845,-0.031081,0.001943,-0.098209,0.036271,-0.074894,-0.13023,-0.103583,-0.050079,0.056484,-0.009712,-0.139491,-0.045626,-0.060742,-0.017236,0.007328,-0.034966,0.106129,-0.014112,-0.08337,0.09612,0.014608,0.082248,0.044397,0.051173,0.043146,0.012073,-0.073615,-0.014758,-0.0287,0.061673,0.097382,0.033963,0.027132,-0.089628,0.024101,-0.049516,0.04002,-0.078776,-0.020476,0.002976,-0.017025,0.140004,-0.081579,-0.067148,-0.08351,-0.083693,0.113652,0.009581,0.049742,-0.120187,-0.004472,-0.037056,0.020485,-0.016926,-0.014178,0.148398,0.00043,0.056415,0.001382,-0.066929,-0.056766,0.107602,0.037832,-0.113847,0.05314,0.004777,0.0052,-0.029648,0.07451,-0.045659,0.069395,0.02707,0.131771,-0.039487,-0.031138,0.025095,-0.042022,-0.086307,-0.007377,0.0771,0.02985,0.037286,0.025202,0.124561,0.056571,-0.074875,-0.10243,-0.103066,0.089375,0.028719,0.032824,0.152852,0.105593,0.009386,0.002412,-0.156425,-0.063109,0.099662,0.012177,0.065515,0.092462,-0.035328,-0.019452,-0.117222,-0.131289,0.022645,0.027776,-0.015512,0.091142,0.018021,-0.173229,0.018781,0.035162,-0.114389,-0.170885,EN,0,1
group_3494,-0.11633,0.004554,-0.184153,-0.019635,-0.052582,-0.039349,-0.15826,-0.012261,-0.031812,0.086964,0.020331,0.004433,-0.098339,0.054468,-0.119921,0.150951,-0.000595,-0.08904,0.117204,-0.038637,0.094873,0.149089,0.139366,-0.087321,0.030006,-0.068251,0.092416,0.045015,-0.032299,0.017195,0.060128,0.008162,-0.076455,-0.015687,0.004327,0.008438,-0.063065,-0.02798,0.011285,-0.004884,0.043929,0.007315,0.059011,-0.030333,0.12762,-0.095498,0.019782,-0.057669,-0.010088,0.128472,0.051618,-0.002169,-0.145615,0.069609,-0.082633,0.044733,0.062494,0.074005,0.021479,-0.012297,0.056721,-0.073588,0.079946,0.133325,0.005128,-0.160359,0.007762,0.059568,0.040594,0.004091,0.023437,-0.084473,0.132704,0.106067,-0.006315,-0.016117,-0.000136,0.018332,0.086662,-0.057108,0.131578,-0.065262,-0.163066,0.132303,-0.068719,-0.194492,-0.034511,0.065269,0.018198,0.007621,0.050052,0.074308,0.04651,-0.122961,0.115526,0.086246,0.03106,0.013994,0.050259,-0.008778,0.18585,0.020063,-0.029655,-0.124355,0.035277,0.086498,0.041701,-0.063331,0.00011,-0.076952,0.056628,0.086525,-0.044513,0.052847,0.140753,0.019675,-0.13991,-0.021708,-0.029154,0.058234,-0.033272,-0.019078,0.081214,0.022676,0.017513,-0.032087,-0.102685,0.045989,EN,1,0
group_395,-0.097093,0.042948,0.027478,0.103125,-0.065818,0.077191,-0.049031,0.002144,0.026537,0.117628,-0.003779,-0.13227,0.049472,0.106635,0.007595,-0.147393,0.026183,0.098659,0.10401,0.008857,-0.076984,0.086673,0.038154,0.139731,0.019988,0.056034,0.024413,0.057916,-0.114447,0.024277,0.015827,-0.056373,0.030623,0.167009,0.066699,0.164351,-0.001739,-0.105179,-0.03601,-0.068481,0.064617,0.078564,-0.085385,-0.000694,0.097068,-0.143075,-0.05068,-0.089588,0.011987,0.080626,-0.035908,0.048324,-0.083939,-0.043123,-0.01067,0.063027,-0.105373,-0.051232,-0.034032,0.069343,-0.065881,0.030001,-0.176208,-0.1101,-0.061941,0.046563,-0.121112,-0.006001,0.112034,0.110089,0.020613,-0.115313,-0.005597,-0.034788,-0.051152,0.111532,0.10293,-0.075958,0.03163,0.175544,-0.026935,-0.020077,0.032381,-0.115801,0.00989,0.13021,0.056932,0.021407,-0.010585,0.094289,0.122905,-0.032246,0.052978,0.004225,0.074454,-0.026986,0.020019,-0.024432,-0.013578,0.076776,-0.157334,0.158134,0.072416,-0.146032,0.023822,0.005253,0.113944,0.034125,0.051914,-0.062284,-0.091053,0.138768,0.126677,-0.004439,0.005649,0.00111,-0.021587,0.008782,-0.019174,0.130927,0.169811,-0.001964,-0.131047,-0.061992,-0.100786,-0.13162,-0.103801,-0.160594,EN,0,1
group_3687,0.069039,0.020425,0.014736,-0.079247,0.12022,0.123926,0.061996,-0.002889,0.016024,-0.057033,-0.137819,-0.133884,-0.030031,0.039541,-0.18534,-0.108332,-0.018657,-0.022609,0.037947,0.054807,-0.039217,0.018041,0.103689,-0.104874,-0.084679,0.006489,-0.008713,-0.035924,-0.013164,-0.015235,-0.000823,-0.164737,0.037021,0.169729,0.183326,-0.117248,0.026907,0.047238,0.041451,0.046977,-0.015755,0.00952,-0.075885,-0.098372,-0.013874,-0.095789,-0.048919,-0.143368,-0.019073,-0.035241,-0.194368,0.097777,0.098835,0.15164,-0.046634,-0.045527,0.073197,0.001451,0.059089,-0.113831,0.044678,0.047004,-0.006304,0.006312,-0.054713,-0.073532,0.01254,-0.149223,0.046047,0.025367,-0.131331,0.038281,-0.035013,0.010423,0.119719,0.049163,0.187993,0.027227,-0.093693,-0.11545,-0.003448,-0.063325,-0.192847,0.057258,0.09279,-0.028065,0.011981,-0.004623,-0.053347,-0.029332,-0.008051,0.091638,-0.049503,-0.118183,-0.014314,-0.098952,0.01449,-0.001152,-0.036193,-0.04369,0.137359,0.074394,0.069945,-0.004708,0.110627,0.057223,0.149464,-0.100997,0.052117,-0.024605,-0.008142,-0.043533,-0.020115,-0.116576,-0.102831,0.013283,0.160165,-0.005976,0.045843,-0.072018,-0.075637,0.037812,0.015932,-0.079641,-0.177131,-0.05698,-0.092442,-0.113171,EN,1,0
group_399,0.036186,0.022391,0.154529,0.122805,-0.17346,0.046745,-0.069038,-0.085328,0.085658,0.021175,0.172929,0.001882,-0.152303,-0.134788,0.023615,-0.071445,0.048004,-0.078018,-0.087742,-0.010902,-0.045345,-0.047254,0.056303,0.100698,-0.098392,0.060101,-0.094192,-0.116252,0.14584,-0.119164,0.045322,0.001937,-0.003745,0.172238,0.008475,-0.044376,-0.029058,0.001205,-0.053576,0.122984,0.042018,0.084642,0.03861,-0.017339,0.170873,0.011728,0.037893,-0.097377,0.051767,0.007841,-0.033186,0.007043,-0.084187,-0.020266,0.069609,0.105592,-0.007152,-0.136723,0.117718,0.027918,-0.080582,0.152167,0.104261,-0.001683,0.118853,0.103872,-0.008857,0.073896,-0.013609,0.014097,0.042481,-0.053962,-0.102835,-0.118524,0.002663,-0.152816,-0.032594,-0.159478,-0.073711,-0.147972,0.030742,-0.115773,0.104881,0.010994,-0.099878,-0.074068,-0.032719,-0.099063,0.001104,0.083303,0.095085,0.019214,-0.027278,-0.00543,0.029828,-0.015191,0.170749,-0.065621,0.175398,0.149889,-0.063412,0.155963,-0.153192,0.114948,-0.030997,-0.109202,0.068306,0.096672,0.143692,-0.020956,0.078255,0.025244,0.045098,0.153892,-0.052534,0.034646,0.160645,0.097172,-0.002552,-0.078818,0.153195,0.018429,-0.162878,0.089879,0.060596,-0.10983,0.110636,0.010527,EN,0,0
group_3765,-0.034385,-0.061447,0.075387,-0.134211,-0.176376,-0.044487,-0.061866,0.140295,-0.09517,0.050242,0.100062,0.054725,-0.080699,0.087367,0.154228,0.113596,0.073075,-0.047572,0.058963,0.11846,-0.079567,-0.09632,0.120366,0.14627,-0.151001,0.059284,-0.077259,0.153716,-0.073849,-0.04836,-0.071457,0.046084,0.061013,0.084894,-0.014607,0.092397,-0.03409,-0.014155,5.6E-05,-0.014177,-0.02487,0.066435,-0.091437,0.125618,-0.064772,-0.045764,0.002334,-0.091925,-0.086942,0.062541,0.102533,0.185658,0.048176,-0.022024,0.115486,0.001854,0.125713,0.048838,-0.114918,0.013717,-0.016727,-0.100483,-0.028777,-0.13337,0.045036,0.047264,0.059952,0.087288,0.082482,0.071116,0.03014,-0.01659,0.117893,0.126467,-0.045003,-0.09561,0.159876,-0.03752,0.153438,0.061673,-0.026281,-0.124481,0.053744,0.074122,0.003111,-0.018585,-0.010721,-0.004639,0.058677,0.062759,0.132919,0.071317,-0.043662,0.019953,0.031851,0.027831,-0.031882,-0.062184,0.073822,-0.15029,-0.004468,-0.040282,0.005832,-0.021983,-0.139111,-0.037679,0.118365,-0.061829,0.022948,0.110462,0.102971,0.043014,0.128428,0.003395,0.044396,-0.031688,-0.003562,-0.048601,-0.068843,0.0498,0.016222,-0.027045,-0.067367,0.092292,0.102192,0.019698,-0.08436,-0.040204,EN,1,0
group_4063,0.081262,-0.076997,0.144349,0.09892,0.014109,0.103805,0.061072,-0.028159,-0.085494,0.120582,-0.148123,-0.031925,0.120819,-0.084714,-0.070309,0.006269,0.127004,0.12186,0.137192,-0.055829,0.087084,0.08921,0.040247,0.166422,-0.092728,0.008398,0.172322,-0.070292,0.108061,-0.092659,-0.107972,-0.067853,-0.05795,0.009539,0.00472,0.022768,-0.024781,0.050116,0.021313,-0.010848,-0.114909,-0.070284,-0.057668,-0.057144,0.000434,-0.096172,-0.095911,0.126256,-0.057491,0.012064,0.074035,-0.073862,-0.032256,0.102704,0.056856,-0.015415,0.00457,0.054708,-0.038117,-0.124795,0.062744,-0.107436,0.005754,0.001958,0.168186,0.042547,0.056245,0.063049,-0.065238,-0.122528,0.01714,-0.097971,0.043374,-0.157201,-0.160372,-0.140783,0.138874,0.08398,-0.040248,-0.00505,0.05624,-0.094186,-0.044928,0.164724,-0.123266,0.077937,0.018219,-0.136306,-0.035474,0.01925,-0.142485,-0.101977,-0.052493,0.087713,-0.053041,-0.160567,-0.115427,0.021614,-0.024716,0.08448,-0.027618,-0.085713,-0.011729,0.021594,-0.074614,-0.007352,0.127666,-0.154335,0.046477,0.082568,0.127738,-0.085404,-0.049887,0.04035,-0.024606,0.131958,-0.068713,0.027313,-0.162583,0.12831,0.039133,0.157153,0.076837,0.0773,0.07071,-0.06996,-0.11129,0.032703,EN,0,0
group_3771,-0.025389,0.084024,-0.035992,0.009052,-0.010607,-0.140565,-0.052348,0.004298,-0.131204,-0.157606,0.056235,0.196483,-0.139644,0.018077,-0.072776,-0.087578,-0.057818,-0.115178,-0.015783,0.012433,-0.048986,0.026135,0.143626,-0.154476,-0.085425,-0.060496,0.074743,0.071472,0.007325,-0.095937,0.077968,-0.085973,0.000963,-0.066416,0.096724,0.076474,-0.131764,-0.043596,0.026141,0.064384,0.041375,0.088097,0.018696,0.072671,-0.020966,0.088571,0.120696,-0.088114,0.067982,-0.092976,-0.144275,-0.02833,-0.039418,-0.057451,-0.150052,-0.097758,0.019255,0.048591,0.075508,0.09716,-0.010025,0.026615,-0.015237,-0.044421,0.070475,-0.035646,-0.08299,0.117044,-0.048367,-0.039555,0.053162,0.077024,0.029524,-0.040432,0.005768,-0.151794,0.085279,0.056829,0.014572,0.002919,0.005829,-0.00982,0.096764,-0.023434,-0.099934,-0.109777,-0.069339,0.043748,-0.005716,0.078697,0.137574,-0.016926,-0.024388,0.048688,0.047233,-0.030327,0.122043,-0.144156,-0.123429,-0.043444,0.155639,0.017816,0.155527,0.064238,0.077052,-0.083588,0.145521,-0.12381,-0.089012,0.163025,-0.092398,0.020531,-0.009295,-0.064297,0.037139,0.081655,-0.026224,-0.014651,-0.023935,0.01576,-0.11897,-0.003709,0.029809,0.033329,-0.140284,-0.04002,-0.055709,-0.052578,EN,1,1
group_4150,-0.030037,-0.125129,-0.036311,-0.026328,-0.052214,0.144081,-0.041537,-0.009184,-0.056953,0.085537,0.047152,0.07972,-0.116193,-0.023741,0.113235,0.050818,0.047704,0.006435,0.109983,-0.025206,0.118999,-0.07779,0.049678,-0.022792,-0.025146,-0.035299,0.084146,0.155735,0.043644,-0.142729,0.13449,-0.065188,-0.083203,0.013187,-0.089579,0.174022,0.013835,0.013771,0.056767,-0.127113,0.068971,0.043529,-0.058495,-0.089595,-0.012238,-0.170676,0.090459,0.128712,-0.00382,0.037915,-0.06462,0.093534,-0.051942,-0.028476,0.168599,0.049297,0.161925,-0.143833,-0.012883,-0.031003,-0.006335,0.040304,-0.006436,-0.059266,-0.005099,-0.168684,-0.056094,-0.002545,-0.047389,-0.052007,-0.045017,-0.02339,0.111498,-0.034382,-0.147515,0.030217,-0.107688,0.133742,-0.047149,-0.162619,0.018669,-0.171747,-0.119693,-0.110556,-0.013137,0.001171,0.121152,-0.143185,-0.042283,-0.102567,-0.051082,0.118514,-0.098038,-0.021011,-0.009343,0.088634,0.013526,0.032043,-0.050187,-0.09671,-0.077537,-0.026845,0.061474,-0.059238,-0.002725,-0.004059,0.0256,0.134635,0.165582,-0.049593,-0.005571,-0.11796,0.05246,-0.003292,-0.063375,-0.028208,-0.019427,0.015156,0.120872,-0.175684,-0.112361,0.016134,0.082181,-0.047907,0.073978,0.10016,0.071291,0.011873,EN,0,0
group_3772,0.058867,0.01104,-0.159772,0.032179,-0.054945,0.071573,0.157008,0.13598,-0.151666,0.012569,0.028839,0.004173,0.074394,-0.035139,-0.16504,-0.122144,-0.093968,-0.017046,0.054079,0.011739,-0.15292,-0.011779,-0.038118,-0.035109,-0.136433,0.085001,0.050433,0.073773,-0.001814,-0.043306,-0.027011,-0.019108,0.088265,0.046178,0.053886,0.011946,0.058974,0.113917,0.177604,0.008543,-0.107714,0.033075,0.028722,0.077,0.060287,-0.005598,0.054316,0.019632,0.092888,-0.015732,-0.006148,0.047265,0.08607,-0.029372,0.018537,-0.044275,-0.087512,0.095263,0.00235,-0.010278,-0.106335,0.095702,0.011908,-0.132129,0.047986,-0.052102,0.055694,-0.006183,0.013472,-0.030294,0.015514,-0.068874,0.177797,-0.000548,-0.078717,-0.012319,-0.079875,-0.076239,0.109629,0.058164,0.063951,-0.116269,0.057308,-0.003384,-0.108329,-0.127428,0.105377,-0.067766,-0.052361,0.003568,-0.056848,-0.001115,-0.080175,-0.106751,0.040525,0.12843,-0.095953,0.00094,-0.067033,-0.0014,0.081467,-0.056713,0.102998,0.188474,-0.029743,-0.043432,-0.064654,0.018148,0.078898,-0.04354,0.0095,0.010054,-0.016258,0.05243,-0.054788,-0.053608,-0.002023,0.028275,-0.015916,-0.050509,0.050683,0.075307,0.15258,0.04576,-0.117056,-0.121427,-0.139442,0.094316,EN,1,0
group_4485,0.048447,-0.071065,0.050612,0.015091,-0.011068,-0.173116,0.130763,0.035989,-0.132887,-0.025298,0.064914,0.013318,0.039468,-0.087302,-0.027233,-0.063136,-0.140545,-0.058828,-0.029681,0.161397,-0.090954,-0.04675,-0.093552,-0.089095,-0.071122,0.091077,-0.163928,-0.107943,-0.172894,-0.062369,0.103814,0.102995,-0.039612,0.1391,0.066106,0.157901,0.11096,0.087831,0.149944,0.140986,0.0426,0.076946,0.108451,-0.0543,-0.071161,0.041878,-0.094825,-0.023009,0.003625,0.116025,-0.113875,0.019743,-0.014357,-0.028114,0.017677,0.095569,0.015003,0.089391,0.119145,-0.012899,0.123254,0.04521,-0.094465,0.106651,-0.158544,-0.163429,0.025032,-0.021758,0.146066,-0.023899,0.0363,-0.103198,0.05407,-0.044157,-0.079948,-0.133036,-0.022604,0.079383,0.041486,0.002399,-0.050462,-0.031656,-0.075494,-0.114027,-0.014271,-0.10126,-0.103932,-0.159597,-0.114395,-0.14108,0.086229,-0.091219,0.053988,0.032767,-0.084173,-0.140869,0.004005,0.033717,-0.058822,0.060592,-0.144101,-0.035152,0.048397,-0.156794,0.103845,0.117248,0.046607,0.0291,0.159035,-0.012127,-0.000679,-0.175845,-0.082096,0.108499,0.049796,-0.002578,0.090639,0.074328,-0.07563,0.015266,-0.012119,0.007585,-0.150112,-0.019888,0.050834,0.013212,0.029366,0.05619,EN,0,0
group_3775,-0.047803,0.107018,-0.089052,0.031184,-0.008499,-0.041316,-0.041818,0.038582,0.076949,-0.010059,-0.044093,0.09788,-0.044718,0.017884,0.097073,0.061426,-0.081409,-0.088336,-0.008745,0.107429,0.043086,0.04969,-0.075223,0.061694,-0.002892,0.112646,-0.10682,0.009714,-0.073716,0.016807,-0.047218,-0.041147,0.067455,-0.151974,0.088705,0.037956,0.061422,-0.067703,0.043768,0.150436,-0.084864,0.005904,0.063247,-0.029004,0.037037,-0.104236,-0.091911,-0.111487,0.043688,-0.025343,-0.117738,0.027502,-0.005389,0.153972,-0.071989,0.1418,0.056034,0.070746,-0.064973,-0.138781,0.062278,0.011838,-0.074486,0.089424,-0.027064,-0.047541,0.150018,-0.091355,0.081386,-0.051642,0.104332,-0.048866,0.056397,-0.03669,-0.062579,0.036042,0.073337,-0.002815,0.030586,0.052546,0.130006,-0.112354,-0.030286,-0.03488,0.007124,-0.138995,-0.113002,-0.177296,0.051493,-0.01051,0.053733,0.103665,-0.151651,0.056739,0.093307,0.147743,0.160523,0.012691,-0.101135,0.097038,-0.082055,-0.04547,0.091927,0.151798,-0.058963,0.169249,-0.052808,-0.045593,-0.040284,-0.031933,-0.027491,0.032033,0.002596,0.084868,0.065049,-0.061065,-0.041627,-0.187662,0.119732,0.083538,0.105561,0.035339,0.024365,-0.15116,0.136551,-0.031947,0.009277,-0.09247,EN,1,0
group_4585,0.085784,0.163876,-0.042653,-0.09777,-0.113705,-0.044908,-0.166771,0.14152,0.057451,-0.057397,-0.075838,-0.171943,0.001502,-0.121534,-0.024684,-0.122639,-0.095476,-0.0817,-0.040808,-0.012966,0.014324,-0.040561,0.05329,-0.074863,0.12886,0.080464,-0.048824,-0.068562,-0.031211,-0.171114,-0.0476,-0.008716,-0.01714,0.03774,-0.039979,-0.039672,-0.034997,-0.153785,-0.071411,0.171826,-0.104572,0.100365,-0.014511,0.157097,0.022031,0.047062,-0.065774,-0.036044,0.02351,0.094653,0.119314,-0.009001,0.024962,-0.160403,-0.038594,0.091813,-0.008184,-0.039414,-0.086707,0.039671,0.094608,-0.003411,0.09153,-0.087597,0.01138,-0.051707,0.062552,-0.08242,-0.003675,-0.010618,0.087237,-0.020859,0.07073,0.02876,0.116802,0.165225,-0.078475,-0.155048,0.056903,0.053597,-0.069895,0.120202,-0.009404,-0.043873,-0.035143,0.132721,0.099176,0.039315,0.140205,0.0643,0.076205,-0.118899,-0.028898,-0.172576,-0.063607,-0.016253,0.016595,0.098621,-0.103463,0.009664,-0.133912,0.028674,-0.025693,-0.094305,0.027367,0.040703,0.077554,-0.028163,-0.01206,0.081895,-0.006249,0.023159,0.099987,0.062306,-0.149901,0.127348,-0.102223,-0.151384,-0.075909,-0.067949,0.011677,-0.165827,-0.044259,-0.072453,-0.005841,-0.077671,-0.020519,0.124719,EN,0,0
group_3947,0.167835,-0.021565,0.064979,-0.151307,-0.075635,0.069247,0.161157,0.122823,0.047094,-0.00667,-0.051603,0.018941,0.024675,0.034414,-0.074904,0.13944,0.039283,-0.063241,-0.045192,0.09995,-0.127877,-0.019069,-0.054117,0.141331,-0.02198,0.045653,-0.04171,0.055806,-0.007427,-0.159446,0.14123,0.04873,0.007316,0.138092,0.040569,-0.155236,-0.072596,0.00307,-0.1181,-0.056642,-0.148076,0.004452,0.032115,-0.046515,0.074197,0.010447,-0.056618,0.006876,0.11571,0.120119,0.079204,-0.042761,0.039662,0.016469,-0.096062,0.100433,-0.022601,0.171003,0.16573,0.012145,0.033451,0.070065,0.039245,-0.100631,-0.072946,-0.13443,0.118092,-0.059971,-0.038034,-0.000216,0.095246,-0.009713,0.187862,-0.02156,0.080152,-0.006868,-0.004134,-0.02661,0.060325,-0.056073,-0.053986,-0.108176,0.110474,0.001567,-0.06705,0.025767,0.106018,0.01546,0.176734,-0.14421,0.070394,0.015218,-0.062439,0.143543,-0.018618,0.019863,-0.080803,-0.075731,0.029902,0.124296,0.06347,-0.006729,0.039926,0.003337,-0.068373,0.043165,0.019107,0.018877,-0.129454,0.095922,-0.094148,0.017565,0.035875,-0.007373,-0.000539,0.152987,0.01599,-0.024889,-0.180774,0.120859,0.077827,0.064861,-0.004712,-0.002303,0.05917,0.174278,0.005106,-0.083827,EN,1,0
group_4869,-0.138919,-0.023339,-0.140789,-0.099569,0.009884,-0.055532,-0.130696,-0.010031,-0.077524,-0.014599,-0.118713,-0.008324,-0.0307,-0.011375,0.050734,-0.126434,0.094714,-0.004338,-0.066288,-0.012516,0.064498,-0.022272,-0.057735,0.047752,-0.037203,0.120618,0.061859,-0.074443,-0.142421,-0.060546,-0.036081,0.041421,0.094272,-0.043612,0.053048,0.004414,0.164444,-0.159824,-0.05836,0.169165,-0.008596,0.052536,0.091214,0.092842,0.00717,-0.169159,0.037104,0.094563,-0.158855,0.050159,-0.102594,0.068348,-0.02529,-0.017784,-0.158455,0.032129,-0.027116,0.134019,0.079878,0.062254,-0.036252,0.014431,0.058245,0.096375,0.135703,0.041424,-0.005482,0.028571,0.031279,-0.043201,0.016566,-0.045106,0.040003,-0.079333,0.117932,0.052192,-0.056782,0.050306,-0.084351,0.026898,-0.074521,-0.058084,-0.069461,-0.076431,0.136717,0.088903,-0.123698,0.074274,-0.094042,-0.06989,0.041685,-0.032717,-0.099649,0.0989,0.159456,-0.004814,0.10232,0.096149,-0.173792,-0.051611,-0.048738,-0.073493,0.117624,0.087835,-0.169226,0.054425,-0.13942,0.118072,-0.015835,-0.087259,0.14847,0.074224,-0.012774,-0.176416,-0.141518,0.059319,0.166959,0.046877,-0.011419,-0.081567,0.157528,0.036082,0.126382,-0.051399,0.054361,-0.062653,0.128274,0.038287,EN,0,0
group_4784,0.00122,0.019862,-0.073972,-0.03107,-0.088993,-0.104205,0.093122,0.024403,0.081909,0.059186,-0.009058,-0.132354,-0.141123,0.050671,-0.00427,-0.001605,-0.132351,-0.105481,0.050593,-0.033842,-0.09984,-0.084101,-0.015021,0.087669,-0.017231,0.168353,-0.181384,-0.016689,-0.092821,-0.057796,-0.162202,-0.15515,-0.001157,0.078514,-0.006201,0.041015,-0.177398,0.04305,0.087606,0.061547,-0.147845,0.058501,0.038484,-0.106755,0.03289,0.002233,-0.012514,4.1E-05,0.085528,-0.149171,-0.035626,-0.05255,0.163406,0.005009,0.012551,-0.109391,0.025405,-0.037543,0.00045,0.080306,-0.035823,0.039256,0.088027,-0.04473,0.003803,-0.078645,0.175058,-0.187793,0.126963,0.015894,-0.113543,0.07928,0.069881,-0.026467,0.077306,-0.112873,0.10537,0.13013,0.065238,0.00732,0.03786,0.045434,0.016688,-0.029571,-0.037491,-0.094212,-0.065512,0.108403,0.10945,0.102062,-0.056274,-0.047836,0.072337,-0.015291,0.03028,-0.130814,0.088729,0.013594,0.050294,-0.15851,0.063604,0.070348,-0.02818,0.12454,0.028641,0.150346,-0.024834,-0.039215,-0.118249,0.012161,-0.114722,0.047,0.02324,0.042446,-0.031568,0.094193,0.054173,-0.032952,0.036225,0.049241,-0.140295,-0.004414,-0.045676,-0.042023,0.091098,-0.013891,-0.11651,0.11141,EN,1,0
group_488,-0.1001,-0.064959,0.007432,-0.065334,0.01417,-0.039704,0.031483,-0.050839,-0.059867,0.089084,0.005594,-0.074992,0.056839,-0.037058,0.17516,-0.05988,0.030688,-0.032633,-0.016753,-0.002233,-0.158617,0.021715,-0.082622,0.016763,0.001421,0.02225,0.115737,0.174155,-0.072906,0.069226,0.001877,0.030135,-0.070474,0.109312,0.050448,-0.030468,-0.155816,-0.046636,-0.026164,0.005938,-0.009229,0.041908,0.062447,0.159355,-0.123229,-0.054584,-0.0787,-0.03419,-0.02317,-0.106924,-0.056497,0.086338,-0.111741,0.131582,0.055226,0.109312,0.095007,0.079755,0.069576,0.114561,0.058172,0.044725,-0.109247,0.072107,-0.029902,0.070872,0.049607,-0.09019,-0.057134,-0.161166,-0.066865,0.018414,-0.063192,0.019321,0.051073,-0.123082,0.085904,0.013934,-0.016906,-0.006704,0.030635,-0.138142,-0.035954,-0.140881,-0.046003,-0.005736,0.068936,-0.086502,-0.12937,0.141243,-0.115424,-0.1305,0.009401,0.033343,-0.088731,0.063591,-0.104811,-0.166757,-0.008209,-0.047363,0.010992,-0.119337,0.036475,-0.091675,0.112049,0.077944,-0.10659,-0.039099,0.160551,-0.054084,-0.067592,0.126805,0.07481,-0.143305,0.128848,-0.029779,0.027463,-0.149071,0.043629,-0.1346,0.01014,0.146233,-0.020132,-0.019437,0.006847,0.098336,0.062317,-0.073055,EN,0,0
group_4786,0.125238,0.084162,0.055424,-0.1343,-0.055126,-0.029435,0.149347,0.190253,0.042923,-0.03181,-0.005509,0.179536,-0.00374,-0.09887,-0.113437,-0.1732,0.041821,0.009317,-0.01619,0.16999,-0.017564,-0.046012,-0.016928,0.031956,-0.016232,0.054966,-0.090253,-0.004847,0.058158,-0.179835,-0.094365,0.018358,0.122897,0.099974,0.119875,-0.056038,-0.015735,-0.191073,0.033966,0.10245,-0.038394,-0.036198,0.051252,-0.068826,-0.026408,0.071144,0.021392,-0.092488,-0.040978,-0.012085,-0.076185,-0.010548,0.067004,0.085376,0.021623,0.005512,-0.033311,0.009366,-0.009792,-0.018876,0.069313,-0.136912,0.063319,0.150914,-0.104128,-0.18241,0.019682,0.067958,0.029394,0.034112,0.166303,-0.012398,-0.002581,0.056185,-0.058441,0.073069,-0.019419,-0.040573,-0.100008,-0.082291,0.19171,0.006556,0.061588,0.093044,0.088138,-0.147791,0.021927,-0.102311,0.100874,0.119408,-0.144982,-0.135123,0.013002,-0.130793,-0.068206,0.092033,0.167201,-0.079594,0.076711,0.121527,-0.005022,-0.052251,0.134973,-0.0787,-0.089153,0.163578,-0.081228,-0.006766,-0.134158,0.122422,0.020399,0.101032,-0.098697,-0.043909,-0.072827,0.025623,0.050617,-0.076336,-0.012535,-0.057317,-0.054688,0.177192,-0.006,0.032978,0.096677,-0.025418,0.037296,0.008875,EN,1,0
group_4991,-0.118679,0.097439,0.062044,0.145042,0.076397,-0.020607,-0.1481,-0.003028,0.025331,-0.057384,0.065394,-0.059463,0.092886,-0.018914,0.153252,-0.051254,0.005005,-0.093209,-0.022461,-0.005458,-0.001789,-0.137599,-0.057449,0.033963,0.01324,0.098319,0.030811,-0.05486,0.157387,-0.035362,-0.01388,0.002436,-0.12709,-0.012525,-0.141458,0.024771,-0.039235,-0.158569,0.070433,0.1703,0.007201,0.12046,-0.035799,0.030975,-0.151393,0.02536,0.016352,0.066139,-0.038616,-0.068857,-0.061895,0.053945,-0.080836,-0.130526,-0.090853,0.049576,0.092278,-0.048456,0.104098,0.038558,-0.01783,0.056384,-0.171532,0.067421,-0.034655,-0.153494,0.005083,-0.069436,-0.045664,-0.075282,-0.072078,-0.111795,-0.020751,0.046717,0.002988,0.030286,0.058202,0.042107,-0.156812,-0.095191,0.066515,0.040511,0.067278,-0.069343,-0.084861,0.000165,-0.087501,-0.05,0.001174,0.004482,-0.050159,-0.118321,0.001656,-0.053847,-0.139275,0.035243,-0.070453,-0.134649,-0.110273,0.052078,0.077049,0.165377,0.025065,0.028225,0.038577,-0.045621,-0.16055,0.098579,-0.141095,-0.143108,-0.043583,0.069073,-0.073293,0.029429,0.00969,0.146241,-0.123237,0.155056,0.001336,-0.125753,-0.114453,0.060715,-0.129304,0.043144,-0.158651,-0.169998,0.122194,-0.140203,EN,0,0
group_499,0.144048,0.019058,-0.02608,0.011057,-0.128539,0.094882,-0.084536,-0.071818,0.047516,-0.084686,-0.18757,0.079763,-0.048905,-0.125898,-0.048041,-0.031292,0.113263,-0.103266,0.139828,0.004318,0.050554,0.174032,-0.003676,-0.057423,0.007234,-0.115634,-0.052465,-0.045896,0.107836,-0.017735,0.160084,-0.139774,0.038969,-0.041161,0.060157,0.061226,-0.123079,-0.076791,-0.085125,0.138364,-0.020782,-0.063307,0.002514,0.071588,-0.043211,-0.123392,0.030954,0.072124,0.000472,0.002589,0.03573,0.082599,0.114567,-0.127427,-0.148577,-0.020482,0.083385,0.033762,-0.089175,-0.002327,0.181594,0.047995,-0.039086,-0.156722,0.002782,0.059437,-0.030568,-0.122591,0.009039,-0.040908,-0.052277,0.053524,0.169979,0.056545,0.008858,0.111187,0.00714,-0.020653,0.004447,-0.071109,-0.03873,-0.196347,0.115848,0.086623,0.029069,-0.016282,-0.155236,-0.126476,0.043932,-0.045189,0.14976,-0.120394,-0.106655,-0.103328,-0.137072,0.052771,-0.040987,0.011681,-0.111857,-0.116999,0.056041,-0.170518,-0.040236,0.110487,0.023553,0.068774,0.133124,0.027592,-0.021154,0.155975,0.018358,0.047319,0.012361,-0.095528,0.028763,-0.065529,0.014893,-0.005922,-0.024873,0.134785,0.023459,0.181269,0.071575,-0.010668,-0.012339,0.090787,-0.065817,-0.021255,EN,1,0
group_5287,-0.035873,-0.086275,-0.023253,0.091739,0.11694,-0.068204,0.073957,-0.017791,0.039907,0.011097,-0.143519,0.108837,-0.003405,0.045848,0.084602,-0.003636,0.025012,0.001058,0.170615,0.071694,0.073436,-0.046068,0.077678,-0.106251,0.051417,-0.010868,-0.069965,-0.011295,-0.027311,0.088818,-0.039584,-0.014205,0.153441,-0.004026,-0.058512,0.04162,-0.06579,0.000846,-0.190329,-0.093713,0.126801,0.011192,0.02044,0.015499,-0.103841,0.047724,0.12606,-0.022601,-0.139378,0.020821,-0.134897,-0.124966,0.039566,0.035659,0.079117,-0.114244,0.098395,0.022374,-0.017249,0.164919,-0.183901,-0.127258,0.13854,-0.009363,-0.039808,0.175288,0.116844,-0.079834,-0.171944,0.012671,0.006598,-0.053095,-0.070774,0.04392,-0.042066,0.003383,0.007332,0.036421,0.128958,0.074475,-0.032839,0.067633,0.021546,-0.019601,-0.022192,0.094064,-0.002985,-0.150438,0.058023,-0.032499,0.039726,0.009745,-0.148938,0.108994,-0.15344,-0.17542,-0.01587,0.110355,-0.027154,0.093952,0.094394,-0.04395,0.119304,-0.108036,-0.131752,-0.019982,0.060085,0.003465,-0.057778,-0.057318,0.01688,0.148165,-0.048406,-0.137065,0.001921,-0.013158,0.04829,0.049118,0.021787,-0.084179,0.051632,0.074531,-0.051424,-0.055336,0.116956,0.119539,0.112129,-0.022076,EN,0,0
group_5179,0.092303,0.036077,0.004834,-0.061699,-0.108601,-0.051692,0.043218,-0.114512,0.01673,-0.122317,-0.003422,0.08177,-0.005037,-0.029552,-0.067755,-0.147568,-0.022574,-0.171202,-0.104263,0.011392,-0.007521,0.078021,0.135783,-0.096725,-0.0387,0.149155,-0.013007,0.125409,0.022158,0.142902,0.059734,-0.107074,-0.068707,-0.068493,0.088457,0.021155,-0.150453,-0.137924,-0.050639,0.018554,-0.115504,0.038186,-0.027244,-0.1149,0.055773,-0.049699,-0.010631,-0.039374,0.168167,-0.089587,0.099086,0.057031,0.000885,0.005214,-0.165275,0.014428,-0.033587,0.079075,0.141176,0.012976,-0.100551,0.094319,0.033353,-0.063146,0.151573,-0.07885,-0.049817,0.02734,-0.138117,0.087704,-0.020366,-0.003389,-0.012545,-0.127888,-0.029519,0.122399,0.053818,-0.002175,-0.012463,-0.041686,0.033761,-0.026549,-0.063799,-0.00597,0.057903,-0.043103,0.012949,-0.076774,-0.069898,0.138684,0.0702,0.067469,0.077784,-0.106065,-0.051362,0.032229,0.110298,-0.002401,-0.088947,0.021697,0.053426,0.051665,-0.099978,0.058812,0.058327,-0.01598,-0.156565,-0.122635,-0.046336,0.141487,-0.009096,0.13165,0.055082,-0.079022,0.078685,-0.088866,0.032435,-0.011012,-0.027353,0.062147,0.140372,0.062805,-0.016278,0.133885,-0.01531,0.0592,-0.063744,0.084181,EN,1,0
group_5359,0.078957,-0.102591,-0.026754,-0.005421,-0.137903,0.084753,0.014008,-0.001556,-0.052421,0.040407,0.001161,0.049642,0.042639,0.02842,0.100764,0.090716,0.067528,-0.049587,-0.018306,-0.037004,0.076944,-0.049039,-0.029255,0.00681,-0.133984,0.030256,0.027422,0.011844,-0.046657,0.072516,0.044983,-0.004734,0.092215,0.024298,-0.093942,-0.117453,0.093037,0.167365,0.174485,0.054957,-0.046771,-0.046586,-0.080294,-0.123069,-0.068272,-0.13016,-0.010008,-0.015994,0.015922,0.019981,-0.062656,-0.118276,-0.033427,0.058337,0.076138,-0.089004,-0.022209,0.050432,-0.165412,-0.111816,-0.081975,-0.107941,-0.018382,-0.026598,-0.122224,-0.000746,-0.127424,0.054542,-0.109923,-0.094629,-0.033995,0.031188,-0.099582,-0.029385,-0.152693,0.046463,-0.095624,-0.075109,0.122338,-0.020678,-0.070514,0.074377,-0.022952,0.019355,-0.072797,0.112477,-0.138126,0.003789,-0.099443,0.001535,-0.009853,0.160837,0.058821,-0.020227,0.167003,-0.037805,-0.093717,-0.07842,0.015256,-0.133704,0.048738,0.127216,0.02398,-0.106593,0.0654,-0.132187,-0.03234,-0.048095,-0.045707,0.032821,-0.052803,-0.002802,-0.0216,-0.042478,0.005666,0.131557,0.166861,0.016627,0.122455,0.138517,-0.032447,0.016614,0.049776,0.061777,0.112408,0.009482,0.001869,-0.125459,EN,0,0
group_5187,-0.037743,-0.027322,0.028982,-0.153105,0.004214,-0.072657,0.184733,-0.012183,-0.013747,-0.135053,-0.02746,0.005014,0.087031,0.006575,-0.131798,-0.03332,0.021882,-0.026333,-0.104657,0.094613,-0.050413,0.11415,-0.053097,0.104557,-0.090439,0.085315,0.005738,0.100033,0.015655,-0.145345,-0.007823,-0.029163,-0.028369,-0.089476,0.04452,0.036873,0.07019,-0.189526,0.182636,-0.061762,-0.172422,0.00409,-0.031326,-0.088942,-0.042817,-0.174241,0.028401,0.028851,0.096568,-0.160032,-0.006437,-0.157013,0.042934,0.020954,-0.10045,-0.049984,-0.027436,0.018467,0.031661,0.054032,0.177367,-0.043364,0.084161,-0.015012,0.037343,-0.021682,-0.100441,0.048356,0.049496,0.168912,0.022236,0.121446,0.001424,-0.000209,0.169302,-0.159944,0.041675,0.119343,-0.068553,0.152027,0.067922,-0.019482,-0.084504,-0.05527,-0.00929,-0.0397,-0.033856,-0.060748,-0.040287,0.07944,0.147926,0.023356,-0.105817,-0.155508,-0.018896,0.124084,-0.108525,-0.162096,0.035698,-0.045817,0.077615,0.143288,0.084986,0.15343,-0.109287,-0.019609,-0.135024,-0.006959,-0.077473,-0.122381,-0.099373,0.035438,-0.121611,0.004511,0.0604,-0.045221,0.058197,-0.159168,-0.044414,-0.042615,-0.006458,-0.008757,-0.046621,-0.032084,-0.137935,0.162731,0.080911,-0.019608,EN,1,0
group_5370,0.042548,-0.030043,0.027234,0.002174,0.040027,0.019581,-0.172343,0.066324,0.069146,0.029778,0.025648,0.052193,0.101741,0.060141,0.144364,0.033522,0.121173,0.009659,-0.000528,0.073316,-0.040857,0.153751,0.035135,0.080008,-0.031144,0.042197,0.066243,0.112708,-0.007788,0.042612,-0.087727,-0.047755,-0.141986,-0.092985,-0.11333,-0.078332,0.005246,-0.122299,0.027178,-0.022354,0.021623,-0.031898,0.029968,-0.012875,-0.016361,0.098313,-0.045708,-0.004028,0.130084,0.099219,-0.098244,-0.023208,0.134267,0.174418,-0.003416,0.00505,0.157053,0.002296,0.140276,0.069915,-0.002518,-0.083316,0.017069,0.075985,-0.126626,0.031381,-0.060989,-0.1495,-0.008029,0.059946,-0.055215,0.03411,-0.018234,-0.013241,0.016775,0.129136,-0.058895,0.040004,-0.002669,0.139812,0.074773,-0.011769,0.064625,0.131013,-0.13336,0.137026,0.06287,-0.12257,-0.116928,-0.001917,0.004435,0.069765,-0.16662,0.040488,-0.044832,-0.141902,-0.052339,0.076636,0.04453,0.145329,0.00415,-0.05348,0.066146,0.008285,-0.016644,0.095937,-0.062878,0.014387,0.024089,-0.174576,-0.041377,-0.053102,0.012099,0.163154,0.043548,-0.059565,0.086418,0.052823,0.069955,0.017713,0.025245,0.136669,0.069792,0.098181,0.076583,0.129015,0.053105,-0.175243,EN,0,0
group_5496,-0.081052,-0.136842,-0.030824,0.019574,0.094884,0.114966,-0.109623,0.148563,-0.065726,0.06793,0.140752,0.043593,0.016784,-0.090834,-0.120221,0.085217,-0.026015,-0.020395,0.028264,-0.133465,0.088599,-0.052072,-0.099435,0.112226,-0.022575,0.007946,0.050371,0.120096,-0.077109,0.014105,-0.106246,-0.166205,-0.022416,-0.023695,0.134107,-0.013029,-0.001136,-0.075967,-0.071361,-0.060445,0.152453,-0.017172,0.072573,-0.135382,-0.033357,0.017587,0.01284,-0.119923,0.120472,-0.094322,-0.084519,8.1E-05,0.053214,-0.034401,-0.079044,-0.074664,0.040879,0.080123,-0.104964,-0.056748,0.001043,-0.158233,0.023245,-0.041453,0.154759,-0.014745,0.116058,0.064177,-0.116294,0.027467,-0.030078,-0.063821,0.122262,-0.041926,0.157405,-0.021634,-0.080544,0.143853,-0.052326,0.00129,-0.031537,0.034593,-0.049347,-0.027343,-0.082034,-0.111548,-0.018697,0.077035,0.084097,0.054441,0.157883,-0.066097,0.083259,-0.05705,0.024473,-0.026068,0.084077,0.002677,0.052659,0.117367,-0.017496,-0.078759,0.073385,0.106725,-0.052643,0.077189,-0.131286,0.017299,-0.034239,-0.030698,-0.140686,-0.062207,0.132334,0.010851,0.028818,0.024384,-0.001867,-0.048264,-0.009232,0.020055,0.103833,-0.090286,0.002999,0.1172,-0.096863,0.041444,-0.160064,0.034972,EN,1,0
group_5880,0.018626,0.063078,0.113476,-0.103301,0.052535,0.021531,-0.004556,-0.152523,-0.079922,0.006188,-0.102035,-0.139432,-0.095874,-0.022701,0.144032,-0.038022,-0.08577,-0.054047,0.03933,-0.167436,-0.07678,-0.012549,0.05113,-0.13812,0.025602,-0.159584,0.171621,-0.068489,-0.042045,-0.056589,-0.045567,0.034053,0.079895,-0.092278,-0.132825,-0.068987,0.130289,0.122876,0.027397,-0.079307,0.027948,0.067461,0.027446,0.175098,-0.113539,0.091493,0.035437,0.060981,0.076729,-0.048384,-0.105756,0.024554,0.103915,0.057798,0.064168,-0.059677,-0.009695,-0.087467,0.107818,-0.089301,-0.110605,-0.059576,-0.026678,-0.101525,0.099931,-0.025156,0.029408,0.000792,-0.085953,0.009669,0.000722,-0.033297,0.05426,-0.143121,-0.156507,0.020784,-0.04667,0.085318,0.070127,0.070942,0.033972,-0.022644,-0.079498,-0.05092,-0.070601,0.01242,-0.040745,-0.118142,0.012646,0.00187,0.103088,0.131015,0.139238,0.100721,0.138321,-0.012877,-0.104898,0.130263,0.042343,-0.105718,-0.076444,-0.146399,0.076438,0.029187,-0.082021,0.079294,0.122993,0.126041,-0.128195,0.087798,-0.087847,0.128124,-0.025374,0.031465,0.062514,-0.026934,-0.114824,0.041238,0.159981,-0.16861,0.003489,-0.042722,0.033573,0.11811,0.150342,-0.008473,0.032289,0.079612,EN,0,0
group_5497,0.096719,0.123871,-0.061389,-0.043024,-0.013654,-0.022151,0.007538,-0.016766,0.022582,0.124627,-0.081907,0.10915,-0.061925,0.090596,-0.11716,0.053036,-0.005281,0.000703,0.052075,-0.070624,-0.023355,0.057922,-0.013511,0.107638,-0.016698,0.00697,0.095815,-0.12958,0.076887,0.113451,-0.019047,-0.026528,-0.151606,-0.014857,0.093126,-0.131347,-0.174757,-0.165247,0.040753,-0.046389,-0.033207,0.005445,-0.111083,0.060289,-0.03066,-0.081049,0.033371,0.112105,0.044373,-0.134749,-0.145429,-0.051559,0.004712,-0.067567,0.005837,0.019397,0.063212,-0.098843,0.083461,0.099018,0.017008,-0.142702,-0.014962,-0.060744,0.057967,-0.024607,0.132356,0.103372,-0.036695,-0.045773,0.138963,0.003136,-0.073384,-0.146306,-0.052319,-0.094666,0.048137,0.095628,0.076349,-0.042284,0.108791,-0.144489,0.083266,0.045652,0.117364,-0.043586,-0.006654,-0.028041,-0.082137,-0.061827,-0.1545,0.020751,0.105842,0.047518,-0.037257,-0.011593,0.111379,0.080884,-0.098929,-0.074143,0.152311,0.04346,-0.040899,0.153509,-0.046124,0.016856,0.159881,0.102661,-0.054655,-0.027009,0.019222,0.026375,-0.097992,-0.046545,-0.076185,0.023418,-0.012337,0.070514,-0.013293,0.10231,0.092939,0.048754,0.018834,0.064114,-0.004503,-0.023156,0.003877,-0.194569,EN,1,0
group_61,0.093564,0.079656,0.054024,-0.050377,0.065648,-0.10294,-0.040503,0.131649,0.03693,0.074562,0.110998,-0.074199,0.106936,0.00531,0.091034,-0.054566,0.000141,0.137136,0.057723,-0.026768,-0.041673,0.007833,0.047688,-0.020341,0.065562,0.013786,0.076271,0.068344,-0.048613,0.066636,-0.069455,-0.070928,0.034699,0.02595,-0.073564,-0.119314,0.022105,0.108145,-0.08229,0.009688,-0.052867,-0.079704,0.049243,-0.028499,0.153741,-0.01376,-0.048125,-0.016686,-0.015813,-0.054137,-0.019654,0.08626,-0.138011,0.130264,-0.075545,-0.094384,-0.070078,-0.029386,0.048766,0.062969,-0.008023,0.037291,-0.012234,-0.148119,-0.107797,-0.174464,0.175365,0.066567,0.041512,0.065519,0.056425,0.076457,0.162446,-0.004861,-0.108599,0.003992,-0.079099,-0.121933,-0.00988,-0.094772,-0.024756,-0.045975,0.083343,-0.030629,-0.091374,-0.041998,-0.010693,-0.057699,0.020376,-0.132246,0.007018,0.062377,-0.073876,-0.058952,-0.142777,0.094745,-0.077034,-0.154141,-0.037747,0.058217,-0.065531,0.034674,-0.071971,0.047509,0.000939,-0.034477,-0.109188,0.034513,-0.007329,-0.085475,0.025087,-0.168299,0.029879,0.128482,0.075381,-0.0823,0.134718,-0.112983,-0.071921,-0.103258,0.013377,0.089106,-0.006811,-0.035148,0.059094,0.107201,0.156853,-0.123305,EN,0,0
group_625,0.096978,-0.03018,-0.157578,-0.085671,0.00604,0.011974,0.066199,0.081383,0.002083,-0.066144,0.003982,-0.005488,0.123909,0.01154,-0.113434,-0.110925,0.121937,0.0496,-0.085217,0.026598,0.114191,-0.03839,-0.0973,-0.104456,-0.013584,-0.044485,0.039638,0.041354,-0.133752,0.06017,-0.102675,-0.176504,-0.171585,0.086177,-0.069162,0.137446,-0.083517,-0.135849,-0.003778,-0.129794,0.142202,0.038224,-0.085414,0.105304,-0.030505,0.079507,-0.043511,0.134619,0.134647,-0.051525,0.108869,-0.072262,0.032175,-0.033741,-0.003565,0.109363,0.043967,0.026619,0.188441,-0.001912,0.003075,0.110529,-0.013251,-0.091848,0.067696,-0.066111,0.010286,-0.102213,-0.064682,-0.148974,-0.080605,0.136436,-0.094512,0.014488,-0.018001,0.052732,0.043347,-0.083737,0.155844,0.036741,-0.020913,0.001223,-0.037674,0.035997,0.081349,-0.000444,-0.066204,0.101087,0.094667,0.114443,0.07703,-0.051494,-0.112496,-0.086751,-0.040457,0.020958,-0.010173,0.146212,-0.091521,-0.141273,-0.021467,-0.044665,0.117119,0.059592,0.085223,0.008215,-0.052413,0.085378,0.037842,0.103698,0.047804,-0.116001,-0.060861,-0.031642,0.089428,-0.134169,0.087711,-0.023427,-0.000777,0.102202,-0.017681,0.080955,0.075362,0.002941,-0.005556,-0.009018,0.114263,-0.181935,EN,1,0
group_6229,-0.151406,-0.060011,0.061172,-0.106263,0.087195,0.035962,-0.084224,-0.034153,-0.048168,0.117459,-0.068472,-0.049442,-0.162945,-0.027213,0.150441,0.043891,-0.151256,-0.112832,-0.030514,-0.081662,-0.073988,0.093377,-0.155602,-0.022048,0.020792,0.01694,-0.049557,0.127461,-0.106187,-0.095665,-0.158917,0.069788,-0.025508,0.10705,0.055554,0.036472,-0.110967,-0.006033,0.105966,-0.003021,-0.01918,-0.0454,-0.050258,0.104847,0.077857,0.052259,0.161181,-0.04087,-0.136849,0.014869,-0.108351,-0.048222,-0.088008,-0.118335,0.045168,0.020927,-0.128422,-0.026835,-0.118728,-0.066924,0.081988,-0.157417,0.124133,-0.154628,0.004033,0.12527,-0.00082,0.055477,0.007832,0.028767,0.025385,0.139617,-0.161155,-0.172081,0.066551,-0.070061,0.148165,0.017778,0.023417,0.102876,-0.049218,0.112979,0.08901,-0.160774,0.013227,-0.133013,-0.00612,0.082885,0.006153,0.142488,-0.078184,0.027413,-0.017968,0.025433,0.074892,0.037898,-0.021794,0.15978,0.130908,-0.04773,-0.068236,-0.010403,0.110014,-0.002811,0.046024,0.098961,-0.011876,0.155752,0.007048,0.048043,-0.060812,-0.165265,-0.03963,0.0572,0.07697,-0.022561,-0.107059,0.045262,0.051285,0.012271,0.077794,-0.12185,-0.012076,-0.088407,-0.043494,0.1047,0.15876,-0.051969,EN,0,0
group_626,0.115061,0.072741,0.016472,-0.08232,-0.173345,0.10223,-0.071295,0.109865,-0.092757,0.031783,-0.09348,0.079993,0.037105,-0.001313,-0.050807,-0.078563,-0.047374,0.011417,0.140884,0.194734,0.010569,-0.140108,-0.043635,0.116226,-0.052683,-0.051329,-0.044408,0.028518,-0.120828,0.060093,0.065074,-0.183303,0.101686,-0.030533,0.116324,0.028599,0.071828,-0.153376,-0.029716,-0.137544,-0.057198,-0.054146,0.108387,-0.081373,-0.056215,0.069409,-0.045101,0.056354,-0.068569,-0.012863,-0.094261,-0.10862,-0.065234,0.143055,-0.07921,-0.083968,0.122851,0.112044,-0.143524,0.057212,-0.01863,0.109368,-0.042815,0.090458,0.036831,-0.002071,-0.017263,-0.037144,0.103918,0.119342,0.135527,0.18178,0.148983,0.132821,-0.014615,0.016981,0.099748,0.102925,0.055343,-0.102658,0.114695,-0.036307,-0.067813,0.12029,-0.058651,0.04168,-0.073369,-0.034472,0.098825,0.067412,0.00904,0.050765,-0.065126,-0.076005,-0.135981,0.071578,0.142862,-0.038622,-0.06061,-0.014504,0.017553,-0.064434,0.000588,0.117871,-0.095044,0.093557,0.040543,-0.019775,-0.076073,0.052871,-0.046203,0.019585,-0.116145,-0.0949,-0.019971,-0.031902,0.000995,-0.174938,0.002649,-0.000179,0.136972,0.08469,0.010884,0.022847,-0.108858,0.057418,0.084976,-0.035572,EN,1,0
group_6340,0.111849,-0.005981,0.019845,0.059571,0.024141,-0.028412,-0.0583,0.135829,-0.014711,0.047506,0.105653,0.064935,0.035774,0.01131,0.037143,0.10809,0.096213,0.006085,-0.005958,0.101286,-0.057898,0.079724,-0.091704,-0.095446,0.100203,0.048577,0.044463,0.121329,0.126359,0.001603,-0.084677,-0.088448,-0.045701,-0.013848,-0.074621,-0.022234,0.084213,-0.002638,-0.036722,-0.013667,0.008444,-0.063107,-0.144926,0.074298,0.104731,-0.16134,0.067076,-0.108738,-0.060694,0.025017,0.004452,-0.064715,-0.123209,-0.051969,-0.147473,0.10101,0.018276,-0.005563,0.149988,0.028591,-0.082705,0.032402,0.141742,0.168252,-0.147204,0.130149,-0.008966,0.031185,-0.037222,-0.014157,-0.031333,0.042008,0.061336,-0.032157,0.14496,0.072139,-0.068364,0.102959,-0.082317,0.044419,-0.021928,-0.024229,0.037751,-0.074203,-0.087059,-0.073891,0.099724,-0.113557,0.087143,-0.076767,0.065074,-0.038493,-0.012047,-0.098017,-0.101177,0.078782,0.143658,-0.009825,-0.054592,0.035964,-0.00827,0.062642,0.089974,-0.018903,0.154373,-0.013839,0.058014,-0.111587,-0.035679,0.157442,-0.153944,0.108802,0.09458,-0.106193,0.041499,-0.045405,-0.056499,0.005314,0.014529,0.075989,-0.073021,0.159433,0.019855,-0.06149,0.141315,0.112255,0.033226,0.04837,EN,0,0
group_627,0.044731,0.132012,-0.10746,0.116461,0.059822,0.04005,0.055997,-0.034818,0.014522,0.026907,-0.009683,0.085006,-0.092754,-0.035374,-0.062448,-0.078283,-0.002498,0.07563,-0.023998,-0.023957,-0.018996,0.047515,0.027618,0.067802,-0.083067,0.080383,-0.041838,-0.011514,-0.02722,0.073827,-0.086245,-0.171763,-0.071423,-0.041621,0.192899,0.054574,0.050732,-0.01175,-0.091828,-0.066084,-0.121127,0.06354,0.060876,-0.033861,0.058215,-0.04917,-0.035675,-0.1476,-0.114072,-0.073405,-0.003516,0.102891,-0.031515,-0.123187,-0.049315,-0.05527,-0.060182,-0.04975,0.119113,-0.070672,0.016445,0.157551,-0.131203,0.150358,-0.050313,-0.046084,-0.036973,-0.135815,0.133228,0.082331,-0.028776,-0.017112,0.13733,0.027427,0.075182,-0.044567,0.000501,0.08532,-0.023237,-0.12157,0.120254,-0.014932,-0.070405,0.003847,0.111203,0.060717,-0.128967,-0.18601,-0.078131,0.154931,-0.124082,0.121417,0.005605,-0.116281,-0.104749,-0.035824,0.02772,-0.047703,-0.135081,-0.091407,0.054166,-0.037303,0.084249,0.132814,-0.057877,0.014685,0.077727,-0.009204,-0.02514,0.015967,-0.02767,0.002903,-0.080145,0.056077,0.054539,0.047871,0.188644,-0.059747,0.019459,0.080848,-0.016353,0.040024,0.150934,0.041542,-0.008002,-0.09766,0.028381,-0.102634,EN,1,0
group_6642,-0.048699,0.087404,0.111207,-0.058299,0.026277,0.117765,-0.057076,0.042504,0.060907,0.042093,-0.11975,0.08088,0.146343,-0.064412,0.064885,-0.119891,-0.042235,0.042311,0.019085,-0.117857,-0.028288,0.025277,-0.031262,0.060284,-0.047355,0.065673,-0.160768,0.099135,-0.014259,-0.026108,0.032465,0.106737,-0.061966,0.036161,0.036184,-0.063759,0.041272,-0.141655,-0.004244,-0.108149,-0.033175,-0.145588,0.083707,-0.171324,-0.042972,0.117367,-0.033739,0.160228,-0.116337,-0.114112,0.045289,0.066408,0.019071,-0.032833,0.013698,0.138841,0.032416,0.115822,-0.056765,-0.029856,-0.122609,-0.024072,-0.121737,-0.100949,-0.097076,0.012092,0.09046,-0.103735,-0.037524,-0.01769,-0.063088,0.043454,-0.136937,0.024448,-0.032074,0.130162,-0.047017,-0.161914,0.101415,0.01047,0.005989,-0.065935,0.012947,0.026188,-0.051817,-0.007846,0.007371,0.006784,0.107193,0.012384,-0.101595,0.073735,-0.02413,-0.020549,-0.065145,0.041595,-0.038821,0.145666,-0.01241,-0.067723,-0.072485,0.081763,0.002399,0.057462,-0.161258,-0.033085,-0.066633,-0.025566,-0.033181,0.047035,0.112035,0.050275,-0.076912,0.041417,-0.009778,-0.018999,0.135767,0.007332,0.112948,0.058612,-0.152806,-0.003479,0.077645,-0.110741,-0.066102,0.14952,0.067729,0.134341,EN,0,0
group_6515,0.025723,0.021445,0.067962,-0.028974,0.012958,-0.001317,0.005409,0.00609,-0.073373,-0.026578,-0.105398,0.016488,-0.02014,-0.129832,0.037339,0.012708,0.018265,-0.07165,0.141324,0.107547,-0.0307,-0.059796,-0.02608,0.101333,0.084118,0.044638,0.001683,-0.082911,-0.03247,0.000776,0.042224,-0.011447,-0.108948,-0.074118,0.143115,0.095975,0.045098,-0.076698,0.16169,0.038281,-0.023736,0.006803,0.069677,0.066893,-0.0849,-0.025913,0.095313,-0.038214,0.18955,0.010062,-0.086759,0.046076,0.076048,0.09125,0.024794,0.057769,0.012943,-0.019589,-0.036273,0.079606,-0.008032,0.0061,-0.031848,-0.073236,-0.071563,-0.010721,0.03156,0.093847,0.047085,-0.054137,0.094946,0.000941,0.062722,0.138115,-0.086546,-0.114459,0.024509,0.06082,-0.0318,-0.185242,0.073661,-0.010283,-0.061971,-0.111238,0.156194,-0.06955,-0.044828,-0.057382,0.146458,0.054992,-0.061978,-0.025134,0.037649,-0.019542,0.041577,0.124753,0.019769,0.071303,-0.173881,-0.053638,0.056391,0.07157,0.02216,0.162465,-0.010561,0.042838,0.188072,0.008682,-0.05933,0.163497,-0.084416,-0.046964,-0.05166,-0.12576,0.032537,-0.102498,-0.054236,-0.095689,0.021916,0.047949,0.158716,0.031467,-0.073504,0.073388,-0.179729,0.053287,0.033737,0.067736,EN,1,0
group_6652,-0.085139,0.091838,0.014279,-0.140176,0.019003,0.059095,0.104281,0.002856,0.095108,-0.132393,0.153041,-0.153382,0.117334,0.062349,-0.085534,-0.126113,-0.032071,-0.011899,0.080894,-0.098263,0.048399,-0.043514,-0.04209,0.165961,0.088787,-0.087726,0.070999,0.089359,-0.043305,0.017107,0.155044,0.108236,0.131636,0.11846,0.060138,-0.133011,-0.134198,-0.107489,-0.162388,-0.123794,0.075477,0.051553,-0.052,0.122485,0.016658,-0.097446,-0.156067,-0.031765,-0.141589,-0.136694,-0.074113,0.021837,-0.103243,0.015453,-0.054859,0.135867,0.023606,0.089871,0.027647,-0.013745,-0.124181,0.015814,-0.145437,-0.072547,0.097078,0.13923,0.031471,-0.025407,-0.02732,-0.104332,-0.064149,0.002973,-0.054878,0.010905,0.054328,0.014174,-0.018897,-0.116767,-0.031655,0.012538,-0.070255,-0.0069,0.042194,0.040279,0.049348,0.088178,0.00765,-0.007266,0.032213,0.082669,-0.037836,0.057336,-0.031226,0.064442,0.055794,-0.090254,-0.04396,0.023833,-0.052173,-0.114576,-0.005799,-0.041416,0.011589,-0.122294,0.077072,0.022447,-0.068222,-0.146043,0.040626,0.070981,0.137543,-0.167791,0.007804,0.053621,0.175776,-0.140109,0.148763,-0.038439,-0.071005,-0.093695,-0.039795,0.122468,-0.000838,0.114451,0.111717,-0.148521,-0.053032,-0.131811,EN,0,0
group_6610,0.012895,0.112228,0.055277,-0.068094,0.08448,-0.130689,0.070175,0.082105,-0.032101,0.017791,-0.017173,-0.08059,0.087005,0.018224,0.043155,-0.094263,0.003755,-0.059234,-0.06469,-0.020332,0.101699,0.005318,-0.095522,0.115962,-0.016926,0.083861,-0.016257,0.051295,-0.169432,0.011588,-0.135772,-0.031874,0.074352,0.102929,0.102459,-0.124268,0.05113,0.13192,-0.020991,-0.026765,-0.172067,-0.015518,-0.103347,-0.129119,-0.083968,0.114037,0.094919,0.017904,0.054733,-0.12515,0.08336,-0.042002,-0.053386,0.156255,0.032581,-0.140858,0.074671,0.089321,-0.105985,-0.134135,0.073739,-0.102975,0.079289,-0.023828,0.050293,-0.137252,0.17191,0.037712,-0.03866,0.046011,-0.026501,0.051922,0.133166,0.055093,0.111301,0.084991,0.137235,-0.122771,0.036288,-0.09392,0.044123,0.021616,0.039963,-0.058296,0.061721,-0.05656,-0.028608,-0.006202,0.036209,-0.046494,0.139458,0.125176,-0.145604,-0.053473,-0.185256,0.062899,-0.023968,0.00523,-0.042174,-0.047556,-0.0094,-0.056734,0.037286,0.002949,0.036036,0.176095,0.028178,0.05035,0.008211,-0.109607,-0.153458,0.008521,-0.128057,-0.023995,0.049958,0.017325,-0.118293,-0.175802,0.095854,0.02443,0.092847,0.103076,0.166483,-0.001003,-0.010857,-0.069399,-0.002097,0.120099,EN,1,0
group_7174,-0.089632,-0.046495,0.081525,0.101838,-0.048389,-0.082902,-0.044765,-0.037918,-0.141189,-0.107059,0.02399,0.065671,0.15724,-0.105954,0.001653,0.02634,0.076657,0.015178,0.016518,0.114753,0.038789,0.057754,-0.07419,-0.059951,-0.125589,-0.033574,-0.053732,-0.020185,-0.036158,-0.013915,0.023372,0.071305,-0.079215,0.070514,0.080315,0.098497,-0.102227,-0.146341,0.017574,-0.057198,0.045505,-0.072186,0.054714,-0.095045,-0.077435,-0.108605,-0.133646,-0.013564,-0.018198,-0.016622,0.126902,-0.047111,-0.069755,0.031844,0.143003,-0.16261,-0.039479,0.016395,-0.037315,-0.064516,-0.134424,-0.052171,-0.016437,-0.089433,0.096702,-0.113903,-0.005734,0.112676,-0.083379,0.078195,0.087195,0.093593,-0.145874,0.020563,-0.18873,0.026332,-0.101627,0.044931,0.109486,-0.077832,-0.018238,0.074793,-0.146384,-0.072449,-0.108245,0.101785,-0.032097,0.030091,-0.078997,-0.042955,-0.134188,0.10413,0.053804,0.048396,-0.099571,-0.174978,-0.1591,-0.127055,0.156732,-0.040218,-0.177921,0.106885,-0.078239,0.100026,-0.09547,0.08067,0.04896,-0.103067,0.030487,-0.111094,-0.025965,-0.094738,-0.03162,-0.150057,-0.048008,0.011318,-0.082899,-0.091943,0.106086,0.157411,-0.010057,-0.14219,-0.032096,-0.123603,-0.131598,-0.038649,0.109363,-0.022606,EN,0,0
